{"learner":{"attributes":{"scikit_learn":"{\"_estimator_type\": \"regressor\"}"},"feature_names":["sentim_overall_sentiment_score","snp_price"],"feature_types":["float","float"],"gradient_booster":{"model":{"gbtree_model_param":{"num_parallel_tree":"1","num_trees":"100"},"iteration_indptr":[0,1,2,3,4,5,6,7,8,9,10,11,12,13,14,15,16,17,18,19,20,21,22,23,24,25,26,27,28,29,30,31,32,33,34,35,36,37,38,39,40,41,42,43,44,45,46,47,48,49,50,51,52,53,54,55,56,57,58,59,60,61,62,63,64,65,66,67,68,69,70,71,72,73,74,75,76,77,78,79,80,81,82,83,84,85,86,87,88,89,90,91,92,93,94,95,96,97,98,99,100],"tree_info":[0,0,0,0,0,0,0,0,0,0,0,0,0,0,0,0,0,0,0,0,0,0,0,0,0,0,0,0,0,0,0,0,0,0,0,0,0,0,0,0,0,0,0,0,0,0,0,0,0,0,0,0,0,0,0,0,0,0,0,0,0,0,0,0,0,0,0,0,0,0,0,0,0,0,0,0,0,0,0,0,0,0,0,0,0,0,0,0,0,0,0,0,0,0,0,0,0,0,0,0],"trees":[{"base_weights":[1.309496E-8,-5.8230232E-2,1.2737867E-1,-2.9225126E-1,-1.90994E-2,-9.455727E-2,-1.6707727E-1,-8.801934E-2,-8.51229E-3,-2.362387E-3,-5.9202865E-2,-3.1147199E-3,-2.7467718E-2,2.1261085E-2,-2.7520971E-2,3.9164495E-2,1.4289064E-2,-4.7418717E-2,1.4030763E-2,2.6997384E-3,2.0413281E-2,-4.5378865E-3,9.410014E-3,-6.2805447E-3,-1.7614711E-2,-1.96725E-3,1.3372039E-2],"categories":[],"categories_nodes":[],"categories_segments":[],"categories_sizes":[],"default_left":[0,0,0,0,0,0,0,0,0,0,0,0,0,0,0,0,0,0,0,0,0,0,0,0,0,0,0],"id":0,"left_children":[1,3,-1,5,7,-1,9,11,13,-1,-1,-1,-1,15,17,19,21,23,25,-1,-1,-1,-1,-1,-1,-1,-1],"loss_changes":[4.920136E0,1.5969697E0,0E0,1.9124746E-2,1.0942985E-1,0E0,2.7356192E-2,4.545659E-3,7.5290866E-2,0E0,0E0,0E0,0E0,5.931169E-3,6.763497E-2,1.1584027E-2,2.0065919E-2,1.5225932E-2,1.727046E-2,0E0,0E0,0E0,0E0,0E0,0E0,0E0,0E0],"parents":[2147483647,0,0,1,1,3,3,4,4,6,6,7,7,8,8,13,13,14,14,15,15,16,16,17,17,18,18],"right_children":[2,4,-1,6,8,-1,10,12,14,-1,-1,-1,-1,16,18,20,22,24,26,-1,-1,-1,-1,-1,-1,-1,-1],"split_conditions":[8.43843E-1,2.2899249E-1,1.2737867E-1,1.9817203E-1,2.9197958E-1,-9.455727E-2,2.0972085E-1,2.2948845E-1,5.2295595E-1,-2.362387E-3,-5.9202865E-2,-3.1147199E-3,-2.7467718E-2,3.5602948E-1,7.2041947E-1,3.341363E-1,3.9506873E-1,5.5944455E-1,7.968684E-1,2.6997384E-3,2.0413281E-2,-4.5378865E-3,9.410014E-3,-6.2805447E-3,-1.7614711E-2,-1.96725E-3,1.3372039E-2],"split_indices":[1,1,0,1,1,0,1,1,1,0,0,0,0,1,1,1,1,1,1,0,0,0,0,0,0,0,0],"split_type":[0,0,0,0,0,0,0,0,0,0,0,0,0,0,0,0,0,0,0,0,0,0,0,0,0,0,0],"sum_hessian":[1.97E2,1.74E2,2.3E1,2.4E1,1.5E2,1.9E1,5E0,1.9E1,1.31E2,1E0,4E0,1E0,1.8E1,5.1E1,8E1,1.3E1,3.8E1,5.4E1,2.6E1,7E0,6E0,1.4E1,2.4E1,1.7E1,3.7E1,1.6E1,1E1],"tree_param":{"num_deleted":"0","num_feature":"2","num_nodes":"27","size_leaf_vector":"1"}},{"base_weights":[-2.213633E-4,-4.17395E-2,3.025243E-1,-2.1082076E-1,-1.3469496E-2,2.1348491E-1,1.0843302E-1,-6.7608446E-2,-1.2721497E-1,-6.4976275E-2,-6.0101096E-3,6.857063E-2,7.13439E-3,-2.008027E-3,-4.499418E-2,-5.134075E-2,-3.617565E-2,1.7177893E-2,-1.8062815E-2,-7.855843E-2,-2.4432536E-2,7.4226665E-3,3.194032E-2,-2.5690401E-2,2.7918674E-2,-1.1153232E-2,-4.054028E-2,-1.4683546E-3,-1.2897498E-2,6.835985E-3,-1.0726807E-2,1.0556189E-2,1.1929006E-3,-9.249514E-3,-2.2233224E-3,6.354988E-4,9.725122E-3],"categories":[],"categories_nodes":[],"categories_segments":[],"categories_sizes":[],"default_left":[0,0,0,0,0,0,0,0,0,0,0,0,0,0,0,0,0,0,0,0,0,0,0,0,0,0,0,0,0,0,0,0,0,0,0,0,0],"id":1,"left_children":[1,3,5,7,9,11,-1,-1,13,15,17,-1,-1,-1,-1,19,-1,21,23,25,27,29,31,33,35,-1,-1,-1,-1,-1,-1,-1,-1,-1,-1,-1,-1],"loss_changes":[2.5013754E0,8.336477E-1,4.87442E-2,1.7229319E-3,5.762504E-2,2.8901815E-2,0E0,0E0,1.5458606E-2,8.216009E-3,3.7480876E-2,0E0,0E0,0E0,0E0,1.053106E-2,0E0,6.3874144E-3,3.1581283E-2,1.3705365E-2,3.4156614E-3,2.0053217E-2,1.4944561E-3,6.9139637E-3,1.4401134E-3,0E0,0E0,0E0,0E0,0E0,0E0,0E0,0E0,0E0,0E0,0E0,0E0],"parents":[2147483647,0,0,1,1,2,2,3,3,4,4,5,5,8,8,9,9,10,10,15,15,17,17,18,18,19,19,20,20,21,21,22,22,23,23,24,24],"right_children":[2,4,6,8,10,12,-1,-1,14,16,18,-1,-1,-1,-1,20,-1,22,24,26,28,30,32,34,36,-1,-1,-1,-1,-1,-1,-1,-1,-1,-1,-1,-1],"split_conditions":[8.43843E-1,2.2899249E-1,9.370837E-1,1.9817203E-1,2.8971234E-1,9.32195E-1,1.0843302E-1,-6.7608446E-2,2.0972085E-1,2.868783E-1,4.691087E-1,6.857063E-2,7.13439E-3,-2.008027E-3,-4.499418E-2,2.4713051E-1,-3.617565E-2,3.9506873E-1,7.78872E-1,2.4153323E-1,2.7532947E-1,3.6793256E-1,4.5352134E-1,6.971801E-1,7.968684E-1,-1.1153232E-2,-4.054028E-2,-1.4683546E-3,-1.2897498E-2,6.835985E-3,-1.0726807E-2,1.0556189E-2,1.1929006E-3,-9.249514E-3,-2.2233224E-3,6.354988E-4,9.725122E-3],"split_indices":[1,1,1,1,1,1,0,0,1,1,1,0,0,0,0,1,0,1,1,1,1,1,1,1,1,0,0,0,0,0,0,0,0,0,0,0,0],"split_type":[0,0,0,0,0,0,0,0,0,0,0,0,0,0,0,0,0,0,0,0,0,0,0,0,0,0,0,0,0,0,0,0,0,0,0,0,0],"sum_hessian":[1.97E2,1.74E2,2.3E1,2.4E1,1.5E2,1.1E1,1.2E1,1.9E1,5E0,1.8E1,1.32E2,1E1,1E0,1E0,4E0,1.6E1,2E0,4.5E1,8.7E1,7E0,9E0,2.8E1,1.7E1,7.5E1,1.2E1,5E0,2E0,5E0,4E0,2.1E1,7E0,1.5E1,2E0,5.8E1,1.7E1,2E0,1E1],"tree_param":{"num_deleted":"0","num_feature":"2","num_nodes":"37","size_leaf_vector":"1"}},{"base_weights":[-2.8607596E-4,-3.0418225E-2,2.1943943E-1,-1.5215896E-1,-1.006103E-2,1.557482E-1,7.840542E-2,-4.9898136E-2,-3.0378217E-2,-4.8973016E-2,-3.746429E-3,4.986955E-2,6.0642334E-3,-9.7452704E-4,-5.1096823E-2,1.3159763E-2,-1.4344816E-2,-6.9303416E-2,-3.8343754E-2,9.079673E-3,4.888066E-2,-2.421872E-2,1.0114816E-2,-9.6481005E-3,-3.2432225E-2,-1.1012644E-3,-1.7159576E-2,4.2477264E-3,-1.4719145E-2,1.8105594E-2,6.334737E-3,-2.8959E-3,-1.0488252E-2,-3.5530585E-4,7.072815E-3],"categories":[],"categories_nodes":[],"categories_segments":[],"categories_sizes":[],"default_left":[0,0,0,0,0,0,0,0,0,0,0,0,0,0,0,0,0,0,0,0,0,0,0,0,0,0,0,0,0,0,0,0,0,0,0],"id":2,"left_children":[1,3,5,7,9,11,-1,-1,-1,13,15,-1,-1,-1,17,19,21,23,25,27,29,31,33,-1,-1,-1,-1,-1,-1,-1,-1,-1,-1,-1,-1],"loss_changes":[1.3175937E0,4.3217158E-1,2.3361087E-2,1.1859536E-3,3.691929E-2,1.3690442E-2,0E0,0E0,0E0,1.8733256E-3,2.3661144E-2,0E0,0E0,0E0,1.9864477E-3,6.9891484E-3,1.9807443E-2,6.6123307E-3,8.942546E-3,1.4575443E-2,3.181193E-4,8.73759E-3,3.6783405E-3,0E0,0E0,0E0,0E0,0E0,0E0,0E0,0E0,0E0,0E0,0E0,0E0],"parents":[2147483647,0,0,1,1,2,2,3,3,4,4,5,5,9,9,10,10,14,14,15,15,16,16,17,17,18,18,19,19,20,20,21,21,22,22],"right_children":[2,4,6,8,10,12,-1,-1,-1,14,16,-1,-1,-1,18,20,22,24,26,28,30,32,34,-1,-1,-1,-1,-1,-1,-1,-1,-1,-1,-1,-1],"split_conditions":[8.43843E-1,2.2899249E-1,9.370837E-1,1.9172452E-1,3.048746E-1,9.32195E-1,7.840542E-2,-4.9898136E-2,-3.0378217E-2,2.2948845E-1,5.2295595E-1,4.986955E-2,6.0642334E-3,-9.7452704E-4,2.4713051E-1,4.8072836E-1,7.298427E-1,2.4153323E-1,2.7532947E-1,4.691087E-1,5.0857306E-1,5.989797E-1,7.968684E-1,-9.6481005E-3,-3.2432225E-2,-1.1012644E-3,-1.7159576E-2,4.2477264E-3,-1.4719145E-2,1.8105594E-2,6.334737E-3,-2.8959E-3,-1.0488252E-2,-3.5530585E-4,7.072815E-3],"split_indices":[1,1,1,1,1,1,0,0,0,1,1,0,0,0,1,1,1,1,1,1,1,1,1,0,0,0,0,0,0,0,0,0,0,0,0],"split_type":[0,0,0,0,0,0,0,0,0,0,0,0,0,0,0,0,0,0,0,0,0,0,0,0,0,0,0,0,0,0,0,0,0,0,0],"sum_hessian":[1.97E2,1.74E2,2.3E1,2.4E1,1.5E2,1.1E1,1.2E1,1.7E1,7E0,2E1,1.3E2,1E1,1E0,1E0,1.9E1,5E1,8E1,6E0,1.3E1,4.6E1,4E0,5.7E1,2.3E1,4E0,2E0,5E0,8E0,4.3E1,3E0,2E0,2E0,2.5E1,3.2E1,1.3E1,1E1],"tree_param":{"num_deleted":"0","num_feature":"2","num_nodes":"35","size_leaf_vector":"1"}},{"base_weights":[-2.0000595E-4,-2.206013E-2,1.5920506E-1,-1.0708402E-1,-6.505061E-3,1.1658312E-1,5.7633527E-2,-3.5760332E-2,-7.456487E-2,-3.3129696E-2,-2.3589244E-3,4.2681627E-2,7.4239425E-2,-4.0736884E-2,-2.7098214E-2,1.1649263E-2,-3.8960826E-2,1.0267161E-2,-1.0123681E-2,-1.2086124E-2,3.0012507E-2,-5.600809E-2,-1.1886716E-2,-6.332812E-2,-2.8241005E-2,6.9094645E-3,3.9104532E-2,-1.8954923E-2,5.5212607E-3,-5.2434327E-3,-1.996021E-2,2.8499097E-3,-8.198932E-3,-5.718282E-3,-2.594578E-2,-3.33747E-3,-1.5618304E-2,3.2786035E-3,-1.1407334E-2,1.4484474E-2,5.0677927E-3,-2.0605468E-3,-8.967504E-3,-3.4455972E-4,5.1438673E-3],"categories":[],"categories_nodes":[],"categories_segments":[],"categories_sizes":[],"default_left":[0,0,0,0,0,0,0,0,0,0,0,0,0,0,0,0,0,0,0,0,0,0,0,0,0,0,0,0,0,0,0,0,0,0,0,0,0,0,0,0,0,0,0,0,0],"id":3,"left_children":[1,3,5,7,9,11,-1,-1,13,15,17,-1,19,21,-1,-1,23,25,27,-1,-1,29,31,33,35,37,39,41,43,-1,-1,-1,-1,-1,-1,-1,-1,-1,-1,-1,-1,-1,-1,-1,-1],"loss_changes":[6.9346577E-1,2.3075008E-1,1.1264145E-2,1.750797E-3,1.6369866E-2,3.5787374E-3,0E0,0E0,1.6524829E-3,9.905109E-3,1.2848945E-2,0E0,2.4715688E-2,1.5371321E-3,0E0,0E0,3.1745974E-3,4.571165E-3,1.129596E-2,0E0,0E0,5.3804368E-5,1.2504394E-3,3.4771524E-3,5.5364138E-3,8.72311E-3,2.0359457E-4,6.6683814E-3,2.345776E-3,0E0,0E0,0E0,0E0,0E0,0E0,0E0,0E0,0E0,0E0,0E0,0E0,0E0,0E0,0E0,0E0],"parents":[2147483647,0,0,1,1,2,2,3,3,4,4,5,5,8,8,9,9,10,10,12,12,13,13,16,16,17,17,18,18,21,21,22,22,23,23,24,24,25,25,26,26,27,27,28,28],"right_children":[2,4,6,8,10,12,-1,-1,14,16,18,-1,20,22,-1,-1,24,26,28,-1,-1,30,32,34,36,38,40,42,44,-1,-1,-1,-1,-1,-1,-1,-1,-1,-1,-1,-1,-1,-1,-1,-1],"split_conditions":[8.43843E-1,2.3069292E-1,9.599688E-1,1.9172452E-1,3.094091E-1,9.1363186E-1,5.7633527E-2,-3.5760332E-2,2.1864815E-1,2.3593596E-1,5.2295595E-1,4.2681627E-2,9.2241746E-1,1.9817203E-1,-2.7098214E-2,1.1649263E-2,2.4713051E-1,4.8072836E-1,6.971801E-1,-1.2086124E-2,3.0012507E-2,1.9236219E-1,2.0972085E-1,2.4153323E-1,2.868783E-1,4.691087E-1,5.0857306E-1,5.989797E-1,7.968684E-1,-5.2434327E-3,-1.996021E-2,2.8499097E-3,-8.198932E-3,-5.718282E-3,-2.594578E-2,-3.33747E-3,-1.5618304E-2,3.2786035E-3,-1.1407334E-2,1.4484474E-2,5.0677927E-3,-2.0605468E-3,-8.967504E-3,-3.4455972E-4,5.1438673E-3],"split_indices":[1,1,1,1,1,1,0,0,1,1,1,0,1,1,0,0,1,1,1,0,0,1,1,1,1,1,1,1,1,0,0,0,0,0,0,0,0,0,0,0,0,0,0,0,0],"split_type":[0,0,0,0,0,0,0,0,0,0,0,0,0,0,0,0,0,0,0,0,0,0,0,0,0,0,0,0,0,0,0,0,0,0,0,0,0,0,0,0,0,0,0,0,0],"sum_hessian":[1.97E2,1.74E2,2.3E1,2.6E1,1.48E2,1.2E1,1.1E1,1.7E1,9E0,1.9E1,1.29E2,6E0,6E0,4E0,5E0,1E0,1.8E1,4.9E1,8E1,1E0,5E0,2E0,2E0,4E0,1.4E1,4.5E1,4E0,5.1E1,2.9E1,1E0,1E0,1E0,1E0,2E0,2E0,9E0,5E0,4.2E1,3E0,2E0,2E0,2.5E1,2.6E1,1.9E1,1E1],"tree_param":{"num_deleted":"0","num_feature":"2","num_nodes":"45","size_leaf_vector":"1"}},{"base_weights":[-1.8518772E-4,-1.616888E-2,1.16370276E-1,-8.2893446E-2,-5.527047E-3,8.33471E-2,4.1370496E-2,-4.6073955E-2,-2.6386093E-2,-3.1010885E-2,-1.653334E-3,9.052852E-2,6.527245E-4,-1.5731858E-2,-3.091749E-3,-2.2020457E-2,-2.2384945E-2,1.8470263E-2,-4.1760285E-3,3.1706348E-2,5.1199783E-2,-2.5927514E-2,6.6599254E-3,5.1945746E-3,1.610393E-2,-1.2673744E-2,-2.827277E-3,-1.02732E-2,2.4336519E-2,-1.03771025E-2,-3.5574117E-3,3.1325818E-4,3.9702863E-3,1.4435929E-2,-1.3817076E-3],"categories":[],"categories_nodes":[],"categories_segments":[],"categories_sizes":[],"default_left":[0,0,0,0,0,0,0,0,0,0,0,0,0,0,0,0,0,0,0,0,0,0,0,0,0,0,0,0,0,0,0,0,0,0,0],"id":4,"left_children":[1,3,5,7,9,11,-1,13,-1,15,17,19,-1,-1,-1,21,-1,23,25,-1,27,29,-1,31,-1,-1,33,-1,-1,-1,-1,-1,-1,-1,-1],"loss_changes":[3.707529E-1,1.2380439E-1,5.571127E-3,4.1916966E-4,1.4953722E-2,6.7981407E-3,0E0,5.979892E-4,0E0,6.19757E-3,6.828969E-3,1.1469722E-3,0E0,0E0,0E0,3.6854595E-3,0E0,6.7326124E-3,5.9908144E-3,0E0,1.5561153E-2,1.661811E-3,0E0,3.865953E-4,0E0,0E0,1.0731801E-2,0E0,0E0,0E0,0E0,0E0,0E0,0E0,0E0],"parents":[2147483647,0,0,1,1,2,2,3,3,4,4,5,5,7,7,9,9,10,10,11,11,15,15,17,17,18,18,20,20,21,21,23,23,26,26],"right_children":[2,4,6,8,10,12,-1,14,-1,16,18,20,-1,-1,-1,22,-1,24,26,-1,28,30,-1,32,-1,-1,34,-1,-1,-1,-1,-1,-1,-1,-1],"split_conditions":[8.43843E-1,2.2311181E-1,9.370837E-1,6.468754E-2,2.8971234E-1,9.32195E-1,4.1370496E-2,4.98087E-2,-2.6386093E-2,2.868783E-1,3.5602948E-1,9.1363186E-1,6.527245E-4,-1.5731858E-2,-3.091749E-3,2.8354824E-1,-2.2384945E-2,3.3923763E-1,3.615559E-1,3.1706348E-2,9.2241746E-1,2.5804165E-1,6.6599254E-3,3.341363E-1,1.610393E-2,-1.2673744E-2,3.6764914E-1,-1.02732E-2,2.4336519E-2,-1.03771025E-2,-3.5574117E-3,3.1325818E-4,3.9702863E-3,1.4435929E-2,-1.3817076E-3],"split_indices":[1,1,1,1,1,1,0,1,0,1,1,1,0,0,0,1,0,1,1,0,1,1,0,1,0,0,1,0,0,0,0,0,0,0,0],"split_type":[0,0,0,0,0,0,0,0,0,0,0,0,0,0,0,0,0,0,0,0,0,0,0,0,0,0,0,0,0,0,0,0,0,0,0],"sum_hessian":[1.97E2,1.74E2,2.3E1,2.3E1,1.51E2,1.1E1,1.2E1,4E0,1.9E1,1.9E1,1.32E2,1E1,1E0,3E0,1E0,1.7E1,2E0,1.4E1,1.18E2,6E0,4E0,1.6E1,1E0,1.1E1,3E0,3E0,1.15E2,1E0,3E0,9E0,7E0,8E0,3E0,3E0,1.12E2],"tree_param":{"num_deleted":"0","num_feature":"2","num_nodes":"35","size_leaf_vector":"1"}},{"base_weights":[4.052156E-5,-1.1627372E-2,8.511723E-2,-5.6834992E-2,-3.3573518E-3,2.139256E-2,4.0900074E-2,-1.7972745E-2,-2.4181303E-2,-2.1593332E-2,-1.0011938E-3,2.829209E-3,-1.5781926E-2,1.1458442E-2,-2.7717266E-2,6.0682986E-3,-6.383159E-3,-3.5198072E-3,4.792951E-3,-1.8885477E-2,-1.7907957E-2,3.5973566E-3,9.462244E-3,-1.5525666E-2,4.2064507E-3,-1.2708242E-2,-1.57778E-3,1.9049869E-3,-2.1343565E-2,-2.2073768E-3,-9.765521E-3,1.47677E-4,4.5883013E-3],"categories":[],"categories_nodes":[],"categories_segments":[],"categories_sizes":[],"default_left":[0,0,0,0,0,0,0,0,0,0,0,0,0,0,0,0,0,0,0,0,0,0,0,0,0,0,0,0,0,0,0,0,0],"id":5,"left_children":[1,3,5,7,9,-1,-1,-1,11,13,15,17,-1,-1,19,21,23,-1,-1,25,-1,27,-1,29,31,-1,-1,-1,-1,-1,-1,-1,-1],"loss_changes":[1.9753754E-1,6.523608E-2,7.251799E-3,1.2616441E-3,6.3804416E-3,0E0,0E0,0E0,3.219942E-3,7.2830115E-3,5.099087E-3,7.617961E-4,0E0,0E0,3.3911383E-3,3.5371203E-3,7.4232924E-3,0E0,0E0,4.25553E-3,0E0,1.1561533E-2,0E0,5.4621343E-3,1.4750434E-3,0E0,0E0,0E0,0E0,0E0,0E0,0E0,0E0],"parents":[2147483647,0,0,1,1,2,2,3,3,4,4,8,8,9,9,10,10,11,11,14,14,15,15,16,16,19,19,21,21,23,23,24,24],"right_children":[2,4,6,8,10,-1,-1,-1,12,14,16,18,-1,-1,20,22,24,-1,-1,26,-1,28,-1,30,32,-1,-1,-1,-1,-1,-1,-1,-1],"split_conditions":[8.43843E-1,2.3069292E-1,2.083591E-1,2.2311181E-1,2.8971234E-1,2.139256E-2,4.0900074E-2,-1.7972745E-2,2.2948845E-1,2.3593596E-1,5.347173E-1,2.2899249E-1,-1.5781926E-2,1.1458442E-2,2.868783E-1,5.2508146E-1,6.727363E-1,-3.5198072E-3,4.792951E-3,2.4713051E-1,-1.7907957E-2,5.2295595E-1,9.462244E-3,6.295168E-1,8.0140287E-1,-1.2708242E-2,-1.57778E-3,1.9049869E-3,-2.1343565E-2,-2.2073768E-3,-9.765521E-3,1.47677E-4,4.5883013E-3],"split_indices":[1,1,0,1,1,0,0,0,1,1,1,1,0,0,1,1,1,0,0,1,0,1,0,1,1,0,0,0,0,0,0,0,0],"split_type":[0,0,0,0,0,0,0,0,0,0,0,0,0,0,0,0,0,0,0,0,0,0,0,0,0,0,0,0,0,0,0,0,0],"sum_hessian":[1.97E2,1.74E2,2.3E1,2.6E1,1.48E2,2E1,3E0,2.3E1,3E0,1.6E1,1.32E2,2E0,1E0,1E0,1.5E1,5.7E1,7.5E1,1E0,1E0,1.3E1,2E0,5.3E1,4E0,4E1,3.5E1,4E0,9E0,5.2E1,1E0,2.8E1,1.2E1,2.7E1,8E0],"tree_param":{"num_deleted":"0","num_feature":"2","num_nodes":"33","size_leaf_vector":"1"}},{"base_weights":[-1.273878E-5,-8.541622E-3,6.2177565E-2,-4.0987514E-2,-2.6048392E-3,1.5280393E-2,3.169756E-2,-4.9736872E-2,-2.9310474E-2,-1.6335059E-2,-8.3026337E-4,-2.1638293E-2,-1.7643742E-2,-1.5359027E-2,-4.5352567E-2,1.6338915E-2,-2.4503691E-2,1.2510357E-2,-2.5048773E-3,-8.148324E-3,6.792583E-5,-8.427334E-3,1.9468844E-2,-1.8989898E-2,-2.0554107E-2,9.739678E-3,1.4149149E-4,-1.6139552E-2,-1.5138012E-2,2.2469212E-3,1.2051923E-2,-1.0250777E-2,-1.3914083E-3,9.076247E-3,-3.1526687E-4,7.2144717E-4,-1.3414635E-2,-3.3571469E-3,3.420818E-3,-1.1517755E-3,-1.4326364E-2,1.7942493E-3,-1.2530155E-3,1.0759223E-2,-8.09362E-4],"categories":[],"categories_nodes":[],"categories_segments":[],"categories_sizes":[],"default_left":[0,0,0,0,0,0,0,0,0,0,0,0,0,0,0,0,0,0,0,0,0,0,0,0,0,0,0,0,0,0,0,0,0,0,0,0,0,0,0,0,0,0,0,0,0],"id":6,"left_children":[1,3,5,7,9,-1,-1,11,13,15,17,19,-1,21,23,25,27,29,31,-1,-1,-1,33,-1,35,-1,37,-1,39,41,-1,-1,43,-1,-1,-1,-1,-1,-1,-1,-1,-1,-1,-1,-1],"loss_changes":[1.0555304E-1,3.360247E-2,6.350808E-3,1.3006888E-3,3.6168694E-3,0E0,0E0,2.2975616E-3,2.4367739E-3,4.9376916E-3,3.0026084E-3,6.099199E-4,0E0,4.5377836E-3,1.3692938E-3,1.0402489E-3,3.0267183E-3,4.1684527E-3,4.148076E-3,0E0,0E0,0E0,6.957288E-4,0E0,2.326407E-3,0E0,5.1043835E-4,0E0,4.2389752E-3,3.1280366E-4,0E0,0E0,5.742823E-3,0E0,0E0,0E0,0E0,0E0,0E0,0E0,0E0,0E0,0E0,0E0,0E0],"parents":[2147483647,0,0,1,1,2,2,3,3,4,4,7,7,8,8,9,9,10,10,11,11,13,13,14,14,15,15,16,16,17,17,18,18,22,22,24,24,26,26,28,28,29,29,32,32],"right_children":[2,4,6,8,10,-1,-1,12,14,16,18,20,-1,22,24,26,28,30,32,-1,-1,-1,34,-1,36,-1,38,-1,40,42,-1,-1,44,-1,-1,-1,-1,-1,-1,-1,-1,-1,-1,-1,-1],"split_conditions":[8.43843E-1,2.3069292E-1,2.083591E-1,1.564404E-1,2.8971234E-1,1.5280393E-2,3.169756E-2,6.468754E-2,2.1864815E-1,2.4153323E-1,3.5602948E-1,4.98087E-2,-1.7643742E-2,1.9817203E-1,2.2311181E-1,2.3593596E-1,2.4713051E-1,3.3923763E-1,3.615559E-1,-8.148324E-3,6.792583E-5,-8.427334E-3,2.0972085E-1,-1.8989898E-2,2.2948845E-1,9.739678E-3,2.3721129E-1,-1.6139552E-2,2.868783E-1,3.2471305E-1,1.2051923E-2,-1.0250777E-2,3.6764914E-1,9.076247E-3,-3.1526687E-4,7.2144717E-4,-1.3414635E-2,-3.3571469E-3,3.420818E-3,-1.1517755E-3,-1.4326364E-2,1.7942493E-3,-1.2530155E-3,1.0759223E-2,-8.09362E-4],"split_indices":[1,1,0,1,1,0,0,1,1,1,1,1,0,1,1,1,1,1,1,0,0,0,1,0,1,0,1,0,1,1,0,0,1,0,0,0,0,0,0,0,0,0,0,0,0],"split_type":[0,0,0,0,0,0,0,0,0,0,0,0,0,0,0,0,0,0,0,0,0,0,0,0,0,0,0,0,0,0,0,0,0,0,0,0,0,0,0,0,0,0,0,0,0],"sum_hessian":[1.97E2,1.74E2,2.3E1,2.6E1,1.48E2,2E1,3E0,1.3E1,1.3E1,1.6E1,1.32E2,4E0,9E0,8E0,5E0,3E0,1.3E1,1.4E1,1.18E2,3E0,1E0,6E0,2E0,2E0,3E0,1E0,2E0,2E0,1.1E1,1.1E1,3E0,3E0,1.15E2,1E0,1E0,2E0,1E0,1E0,1E0,9E0,2E0,7E0,4E0,3E0,1.12E2],"tree_param":{"num_deleted":"0","num_feature":"2","num_nodes":"45","size_leaf_vector":"1"}},{"base_weights":[-1.07989144E-4,-6.359677E-3,4.548173E-2,-3.0805096E-2,-1.8872874E-3,3.638191E-2,2.4565607E-2,-3.6653247E-2,-2.2756578E-2,-1.1933211E-2,-3.2724303E-4,2.9175937E-2,1.48602575E-2,-7.1414947E-3,-1.4945032E-2,-1.0714244E-2,-3.7027318E-2,8.2787275E-3,-1.5466092E-2,1.386788E-2,-1.7559341E-3,4.7077008E-2,1.3727593E-2,-6.2603042E-3,1.654852E-2,-1.5191919E-2,-1.7561179E-2,-2.5751125E-2,-1.1006675E-2,4.6531092E-3,9.340243E-3,-1.7163355E-2,4.618493E-4,3.058967E-2,2.1900157E-2,-1.4233161E-2,2.5795963E-2,7.7148112E-3,-2.6797727E-4,5.7715626E-4,-1.1402442E-2,3.607869E-5,-1.2911642E-2,1.9211472E-3,-6.1056926E-3,7.2024153E-3,-2.3017936E-4,-1.4424156E-3,-1.4981528E-2,5.550936E-3,-8.2518574E-4,1.2236599E-2,-3.060794E-3,1.0609388E-2,4.535258E-3],"categories":[],"categories_nodes":[],"categories_segments":[],"categories_sizes":[],"default_left":[0,0,0,0,0,0,0,0,0,0,0,0,0,0,0,0,0,0,0,0,0,0,0,0,0,0,0,0,0,0,0,0,0,0,0,0,0,0,0,0,0,0,0,0,0,0,0,0,0,0,0,0,0,0,0],"id":7,"left_children":[1,3,5,7,9,11,-1,13,15,17,19,21,-1,-1,-1,23,25,-1,27,29,31,33,35,-1,37,-1,39,41,43,45,-1,47,49,51,-1,-1,53,-1,-1,-1,-1,-1,-1,-1,-1,-1,-1,-1,-1,-1,-1,-1,-1,-1,-1],"loss_changes":[5.672176E-2,1.9074513E-2,4.971247E-3,4.3675862E-4,2.331236E-3,5.450696E-4,0E0,1.1819117E-3,2.0092227E-3,3.2198213E-3,2.6608089E-3,3.7784157E-3,0E0,0E0,0E0,2.8366256E-3,7.00593E-4,0E0,5.880054E-4,1.7643853E-3,4.074195E-3,7.588081E-4,8.606259E-3,0E0,5.026644E-4,0E0,1.6667609E-3,2.2414569E-3,2.5710142E-3,9.626198E-4,0E0,5.834082E-3,6.1363806E-3,2.9123952E-3,0E0,0E0,3.8497942E-4,0E0,0E0,0E0,0E0,0E0,0E0,0E0,0E0,0E0,0E0,0E0,0E0,0E0,0E0,0E0,0E0,0E0,0E0],"parents":[2147483647,0,0,1,1,2,2,3,3,4,4,5,5,7,7,8,8,9,9,10,10,11,11,15,15,16,16,18,18,19,19,20,20,21,21,22,22,24,24,26,26,27,27,28,28,29,29,31,31,32,32,33,33,36,36],"right_children":[2,4,6,8,10,12,-1,14,16,18,20,22,-1,-1,-1,24,26,-1,28,30,32,34,36,-1,38,-1,40,42,44,46,-1,48,50,52,-1,-1,54,-1,-1,-1,-1,-1,-1,-1,-1,-1,-1,-1,-1,-1,-1,-1,-1,-1,-1],"split_conditions":[8.43843E-1,2.3069292E-1,2.083591E-1,1.564404E-1,3.094091E-1,9.754853E-1,2.4565607E-2,1.1456709E-1,2.1864815E-1,2.3593596E-1,3.5602948E-1,9.1363186E-1,1.48602575E-2,-7.1414947E-3,-1.4945032E-2,1.9817203E-1,2.2311181E-1,8.2787275E-3,2.4713051E-1,3.3923763E-1,3.9506873E-1,8.9924896E-1,9.2241746E-1,-6.2603042E-3,2.0972085E-1,-1.5191919E-2,2.2948845E-1,2.4153323E-1,2.7532947E-1,3.1373104E-1,9.340243E-3,3.8139436E-1,4.5352134E-1,8.974777E-1,2.1900157E-2,-1.4233161E-2,9.32195E-1,7.7148112E-3,-2.6797727E-4,5.7715626E-4,-1.1402442E-2,3.607869E-5,-1.2911642E-2,1.9211472E-3,-6.1056926E-3,7.2024153E-3,-2.3017936E-4,-1.4424156E-3,-1.4981528E-2,5.550936E-3,-8.2518574E-4,1.2236599E-2,-3.060794E-3,1.0609388E-2,4.535258E-3],"split_indices":[1,1,0,1,1,1,0,1,1,1,1,1,0,0,0,1,1,0,1,1,1,1,1,0,1,0,1,1,1,1,0,1,1,1,0,0,1,0,0,0,0,0,0,0,0,0,0,0,0,0,0,0,0,0,0],"split_type":[0,0,0,0,0,0,0,0,0,0,0,0,0,0,0,0,0,0,0,0,0,0,0,0,0,0,0,0,0,0,0,0,0,0,0,0,0,0,0,0,0,0,0,0,0,0,0,0,0,0,0,0,0,0,0],"sum_hessian":[1.97E2,1.74E2,2.3E1,2.6E1,1.48E2,2E1,3E0,1.3E1,1.3E1,1.9E1,1.29E2,1.5E1,5E0,8E0,5E0,8E0,5E0,1E0,1.8E1,1.1E1,1.18E2,6E0,9E0,6E0,2E0,2E0,3E0,4E0,1.4E1,8E0,3E0,1.4E1,1.04E2,5E0,1E0,1E0,8E0,1E0,1E0,2E0,1E0,2E0,2E0,5E0,9E0,1E0,7E0,1.1E1,3E0,1.5E1,8.9E1,4E0,1E0,3E0,5E0],"tree_param":{"num_deleted":"0","num_feature":"2","num_nodes":"55","size_leaf_vector":"1"}},{"base_weights":[2.708416E-5,-5.653669E-3,2.9672667E-2,-2.1357171E-2,-1.7731561E-3,1.836194E-2,4.4791277E-2,-2.617905E-2,-1.527899E-2,1.6429552E-3,-6.4766584E-3,2.5051497E-2,-1.4222761E-3,9.853262E-3,1.9038338E-2,-1.10496925E-2,-8.995278E-3,-4.2629056E-4,-2.143209E-2,-6.5466156E-4,8.911922E-3,-1.5029015E-2,1.1810929E-3,1.7976541E-2,1.861513E-2,-1.2098185E-2,1.4424181E-2,-4.708115E-3,1.1289609E-3,-1.1189119E-2,1.40662445E-2,-1.2153538E-2,-1.3564972E-2,1.4539957E-3,-2.1045238E-2,-7.5959596E-3,-2.6905615E-2,4.901287E-3,-6.028468E-3,1.1289275E-2,1.1564903E-2,2.7407587E-2,-5.6264163E-3,9.304885E-4,-8.1092045E-3,6.55759E-3,-2.277799E-4,-5.483655E-4,-9.214089E-3,-1.2900784E-4,7.5836033E-3,-8.249096E-3,-3.889543E-3,-4.0260823E-3,1.3712606E-2,-1.0216143E-2,-4.939355E-3,8.7862114E-5,9.736244E-3,-4.6610404E-3,1.3453827E-3,-7.437036E-4,6.5851244E-3,-8.322895E-5,1.101852E-2],"categories":[],"categories_nodes":[],"categories_segments":[],"categories_sizes":[],"default_left":[0,0,0,0,0,0,0,0,0,0,0,0,0,0,0,0,0,0,0,0,0,0,0,0,0,0,0,0,0,0,0,0,0,0,0,0,0,0,0,0,0,0,0,0,0,0,0,0,0,0,0,0,0,0,0,0,0,0,0,0,0,0,0,0,0],"id":8,"left_children":[1,3,5,7,9,11,13,15,17,19,21,23,25,-1,-1,27,-1,29,31,33,-1,35,37,39,-1,-1,41,-1,-1,43,45,-1,47,49,51,53,55,57,59,-1,61,63,-1,-1,-1,-1,-1,-1,-1,-1,-1,-1,-1,-1,-1,-1,-1,-1,-1,-1,-1,-1,-1,-1,-1],"loss_changes":[3.351279E-2,1.0138717E-2,4.649624E-3,5.6718197E-4,2.1797786E-3,2.682583E-3,8.1531703E-4,6.4738E-4,1.544496E-3,5.113293E-3,3.7507853E-3,2.8110342E-3,4.2807274E-3,0E0,0E0,4.0301582E-4,0E0,1.0932728E-3,1.2516854E-3,3.2123583E-3,0E0,2.17917E-3,8.609972E-4,1.329036E-3,0E0,0E0,2.6678974E-3,0E0,0E0,9.893901E-4,3.6317494E-4,0E0,1.956612E-3,3.0631332E-3,8.412404E-6,6.201756E-3,1.8567033E-4,2.6569692E-3,1.1692565E-3,0E0,1.8046544E-3,1.0423777E-3,0E0,0E0,0E0,0E0,0E0,0E0,0E0,0E0,0E0,0E0,0E0,0E0,0E0,0E0,0E0,0E0,0E0,0E0,0E0,0E0,0E0,0E0,0E0],"parents":[2147483647,0,0,1,1,2,2,3,3,4,4,5,5,6,6,7,7,8,8,9,9,10,10,11,11,12,12,15,15,17,17,18,18,19,19,21,21,22,22,23,23,26,26,29,29,30,30,32,32,33,33,34,34,35,35,36,36,37,37,38,38,40,40,41,41],"right_children":[2,4,6,8,10,12,14,16,18,20,22,24,26,-1,-1,28,-1,30,32,34,-1,36,38,40,-1,-1,42,-1,-1,44,46,-1,48,50,52,54,56,58,60,-1,62,64,-1,-1,-1,-1,-1,-1,-1,-1,-1,-1,-1,-1,-1,-1,-1,-1,-1,-1,-1,-1,-1,-1,-1],"split_conditions":[8.0140287E-1,2.5804165E-1,9.370837E-1,1.9009495E-1,5.5866516E-1,9.1363186E-1,2.083591E-1,6.468754E-2,2.1864815E-1,5.514383E-1,6.6650134E-1,8.9924896E-1,9.2241746E-1,9.853262E-3,1.9038338E-2,4.98087E-2,-8.995278E-3,1.9817203E-1,2.2311181E-1,5.347173E-1,8.911922E-3,6.295168E-1,7.4132067E-1,8.184781E-1,1.861513E-2,-1.2098185E-2,9.32195E-1,-4.708115E-3,1.1289609E-3,1.9236219E-1,2.0972085E-1,-1.2153538E-2,2.4153323E-1,5.2508146E-1,5.4194415E-1,6.245572E-1,6.409947E-1,7.379907E-1,7.559161E-1,1.1289275E-2,8.353408E-1,9.256058E-1,-5.6264163E-3,9.304885E-4,-8.1092045E-3,6.55759E-3,-2.277799E-4,-5.483655E-4,-9.214089E-3,-1.2900784E-4,7.5836033E-3,-8.249096E-3,-3.889543E-3,-4.0260823E-3,1.3712606E-2,-1.0216143E-2,-4.939355E-3,8.7862114E-5,9.736244E-3,-4.6610404E-3,1.3453827E-3,-7.437036E-4,6.5851244E-3,-8.322895E-5,1.101852E-2],"split_indices":[1,1,1,1,1,1,0,1,1,1,1,1,1,0,0,1,0,1,1,1,0,1,1,1,0,0,1,0,0,1,1,0,1,1,1,1,1,1,1,0,1,1,0,0,0,0,0,0,0,0,0,0,0,0,0,0,0,0,0,0,0,0,0,0,0],"split_type":[0,0,0,0,0,0,0,0,0,0,0,0,0,0,0,0,0,0,0,0,0,0,0,0,0,0,0,0,0,0,0,0,0,0,0,0,0,0,0,0,0,0,0,0,0,0,0,0,0,0,0,0,0,0,0,0,0,0,0,0,0,0,0,0,0],"sum_hessian":[1.97E2,1.66E2,3.1E1,3.2E1,1.34E2,1.9E1,1.2E1,1.6E1,1.6E1,7.8E1,5.6E1,1.4E1,5E0,9E0,3E0,4E0,1.2E1,5E0,1.1E1,7.3E1,5E0,2.6E1,3E1,1.3E1,1E0,1E0,4E0,3E0,1E0,3E0,2E0,2E0,9E0,6.7E1,6E0,1.7E1,9E0,2E1,1E1,2E0,1.1E1,3E0,1E0,2E0,1E0,1E0,1E0,6E0,3E0,6.3E1,4E0,2E0,4E0,1.6E1,1E0,4E0,5E0,1.8E1,2E0,5E0,5E0,5E0,6E0,1E0,2E0],"tree_param":{"num_deleted":"0","num_feature":"2","num_nodes":"65","size_leaf_vector":"1"}},{"base_weights":[1.592475E-4,-4.137636E-3,2.2578632E-2,-1.4498779E-2,-5.40302E-4,1.8130576E-2,1.4754716E-2,-1.271478E-2,-1.0214151E-2,2.7513236E-3,-4.5154225E-3,1.467288E-2,8.681879E-3,-1.4200246E-2,7.005577E-3,8.7753823E-4,6.6839443E-3,-1.0236548E-2,1.7756203E-3,1.9919109E-2,5.336249E-3,-1.7863858E-2,-6.1204024E-3,2.9555652E-3,-1.6465763E-2,-4.779029E-3,-1.7005686E-2,1.3975615E-2,-8.400294E-4,1.3807207E-2,1.5822861E-2,-1.0283455E-2,1.35465395E-2,-4.4556055E-3,-7.7789905E-3,7.119173E-3,-3.0726183E-3,-6.6589366E-4,2.357925E-3,-2.2916102E-3,-6.352915E-3,-2.889305E-3,1.1655714E-2,-7.7642677E-3,-3.055649E-3,3.2662155E-4,5.0775446E-3,-7.086671E-3,6.914455E-4,5.013012E-3,-3.5894394E-3,6.5757395E-3,1.7121166E-3],"categories":[],"categories_nodes":[],"categories_segments":[],"categories_sizes":[],"default_left":[0,0,0,0,0,0,0,0,0,0,0,0,0,0,0,0,0,0,0,0,0,0,0,0,0,0,0,0,0,0,0,0,0,0,0,0,0,0,0,0,0,0,0,0,0,0,0,0,0,0,0,0,0],"id":9,"left_children":[1,3,5,7,9,11,-1,13,-1,15,17,19,-1,21,-1,23,-1,25,27,29,31,33,35,37,39,41,43,45,47,49,-1,-1,51,-1,-1,-1,-1,-1,-1,-1,-1,-1,-1,-1,-1,-1,-1,-1,-1,-1,-1,-1,-1],"loss_changes":[1.9167451E-2,6.2166722E-3,2.8950162E-3,1.0666922E-3,1.6479996E-3,6.5922644E-4,0E0,2.528213E-3,0E0,2.5053103E-3,2.0697115E-3,1.0692771E-3,0E0,1.074723E-3,0E0,2.3552156E-3,0E0,1.0270104E-3,9.052454E-4,2.2810022E-3,3.716811E-3,2.7082115E-4,1.9655474E-3,1.489497E-3,1.2930646E-4,4.1847704E-3,5.2328734E-4,1.7162436E-4,1.7739624E-3,1.2472975E-3,0E0,0E0,4.6563742E-4,0E0,0E0,0E0,0E0,0E0,0E0,0E0,0E0,0E0,0E0,0E0,0E0,0E0,0E0,0E0,0E0,0E0,0E0,0E0,0E0],"parents":[2147483647,0,0,1,1,2,2,3,3,4,4,5,5,7,7,9,9,10,10,11,11,13,13,15,15,17,17,18,18,19,19,20,20,21,21,22,22,23,23,24,24,25,25,26,26,27,27,28,28,29,29,32,32],"right_children":[2,4,6,8,10,12,-1,14,-1,16,18,20,-1,22,-1,24,-1,26,28,30,32,34,36,38,40,42,44,46,48,50,-1,-1,52,-1,-1,-1,-1,-1,-1,-1,-1,-1,-1,-1,-1,-1,-1,-1,-1,-1,-1,-1,-1],"split_conditions":[8.0140287E-1,2.8971234E-1,2.083591E-1,2.868783E-1,5.5866516E-1,9.754853E-1,1.4754716E-2,2.8354824E-1,-1.0214151E-2,5.514383E-1,6.727363E-1,9.1363186E-1,8.681879E-3,2.3069292E-1,7.005577E-3,5.347173E-1,6.6839443E-3,6.295168E-1,6.8322235E-1,8.9924896E-1,9.2241746E-1,2.1864815E-1,2.3593596E-1,3.9506873E-1,5.473289E-1,6.245572E-1,6.409947E-1,6.734448E-1,6.971801E-1,8.974777E-1,1.5822861E-2,-1.0283455E-2,9.32195E-1,-4.4556055E-3,-7.7789905E-3,7.119173E-3,-3.0726183E-3,-6.6589366E-4,2.357925E-3,-2.2916102E-3,-6.352915E-3,-2.889305E-3,1.1655714E-2,-7.7642677E-3,-3.055649E-3,3.2662155E-4,5.0775446E-3,-7.086671E-3,6.914455E-4,5.013012E-3,-3.5894394E-3,6.5757395E-3,1.7121166E-3],"split_indices":[1,1,0,1,1,1,0,1,0,1,1,1,0,1,0,1,0,1,1,1,1,1,1,1,1,1,1,1,1,1,0,0,1,0,0,0,0,0,0,0,0,0,0,0,0,0,0,0,0,0,0,0,0],"split_type":[0,0,0,0,0,0,0,0,0,0,0,0,0,0,0,0,0,0,0,0,0,0,0,0,0,0,0,0,0,0,0,0,0,0,0,0,0,0,0,0,0,0,0,0,0,0,0,0,0,0,0,0,0],"sum_hessian":[1.97E2,1.66E2,3.1E1,4.2E1,1.24E2,2.8E1,3E0,4E1,2E0,6.8E1,5.6E1,2.3E1,5E0,3.9E1,1E0,6.3E1,5E0,2.9E1,2.7E1,1.4E1,9E0,2.6E1,1.3E1,5.7E1,6E0,1.7E1,1.2E1,4E0,2.3E1,1.3E1,1E0,1E0,8E0,2.1E1,5E0,1E0,1.2E1,2.8E1,2.9E1,3E0,3E0,1.6E1,1E0,4E0,8E0,1E0,3E0,2E0,2.1E1,1.2E1,1E0,3E0,5E0],"tree_param":{"num_deleted":"0","num_feature":"2","num_nodes":"53","size_leaf_vector":"1"}},{"base_weights":[2.3257284E-4,-2.4575556E-3,2.1865308E-2,-1.0414183E-2,9.4981544E-5,1.696101E-2,3.96944E-2,-8.929187E-3,-8.171321E-3,9.319067E-3,-1.049285E-3,3.2597065E-2,1.0618257E-2,1.3458115E-2,3.629467E-3,-1.01448735E-2,5.954741E-3,-1.4002125E-4,2.0149456E-2,-7.4409554E-3,-2.3517593E-4,1.8330619E-2,1.3449428E-2,-2.1773437E-2,1.7276475E-2,-1.6386615E-2,-6.532679E-3,6.58207E-3,-8.087513E-3,1.053641E-2,7.417542E-3,8.841793E-3,-1.2664463E-3,9.366263E-3,-3.0510218E-3,-8.7409355E-3,-1.0571122E-3,2.0275636E-2,5.20726E-4,-2.4163849E-3,-7.846054E-3,-1.2173204E-3,-5.924752E-3,-4.987374E-4,6.263131E-3,7.142665E-3,-5.472124E-4,-1.3475805E-2,-2.8893683E-5,6.5851114E-3,5.2924454E-4,4.3267608E-4,-1.9834937E-4],"categories":[],"categories_nodes":[],"categories_segments":[],"categories_sizes":[],"default_left":[0,0,0,0,0,0,0,0,0,0,0,0,0,0,0,0,0,0,0,0,0,0,0,0,0,0,0,0,0,0,0,0,0,0,0,0,0,0,0,0,0,0,0,0,0,0,0,0,0,0,0,0,0],"id":10,"left_children":[1,3,5,7,9,11,13,15,-1,17,19,21,23,-1,-1,25,-1,27,29,-1,31,33,-1,35,37,39,41,43,-1,45,-1,-1,47,-1,-1,-1,-1,49,51,-1,-1,-1,-1,-1,-1,-1,-1,-1,-1,-1,-1,-1,-1],"loss_changes":[1.15763135E-2,3.5957857E-3,1.2504049E-3,8.310545E-4,1.4346781E-3,1.5382129E-3,2.7514994E-5,1.6357689E-3,0E0,1.5395056E-3,2.3340972E-3,5.0916336E-5,3.6112322E-3,0E0,0E0,7.9480745E-4,0E0,1.7999208E-3,4.7389418E-5,0E0,3.652467E-3,1.7870432E-3,0E0,3.004506E-4,6.427334E-4,9.286322E-4,8.030352E-4,9.775537E-4,0E0,6.9964334E-4,0E0,0E0,5.869844E-3,0E0,0E0,0E0,0E0,3.0229613E-4,4.2210013E-6,0E0,0E0,0E0,0E0,0E0,0E0,0E0,0E0,0E0,0E0,0E0,0E0,0E0,0E0],"parents":[2147483647,0,0,1,1,2,2,3,3,4,4,5,5,6,6,7,7,9,9,10,10,11,11,12,12,15,15,17,17,18,18,20,20,21,21,23,23,24,24,25,25,26,26,27,27,29,29,32,32,37,37,38,38],"right_children":[2,4,6,8,10,12,14,16,-1,18,20,22,24,-1,-1,26,-1,28,30,-1,32,34,-1,36,38,40,42,44,-1,46,-1,-1,48,-1,-1,-1,-1,50,52,-1,-1,-1,-1,-1,-1,-1,-1,-1,-1,-1,-1,-1,-1],"split_conditions":[8.757971E-1,2.8971234E-1,9.938359E-1,2.868783E-1,3.5602948E-1,9.1363186E-1,1E0,2.8354824E-1,-8.171321E-3,3.341363E-1,3.615559E-1,8.9924896E-1,9.256058E-1,1.3458115E-2,3.629467E-3,1.564404E-1,5.954741E-3,3.2471305E-1,3.3923763E-1,-7.4409554E-3,3.6764914E-1,8.974777E-1,1.3449428E-2,9.2241746E-1,9.786028E-1,1.1456709E-1,2.7532947E-1,3.1691936E-1,-8.087513E-3,3.3505738E-1,7.417542E-3,8.841793E-3,3.6998725E-1,9.366263E-3,-3.0510218E-3,-8.7409355E-3,-1.0571122E-3,2.1150678E-1,9.931274E-1,-2.4163849E-3,-7.846054E-3,-1.2173204E-3,-5.924752E-3,-4.987374E-4,6.263131E-3,7.142665E-3,-5.472124E-4,-1.3475805E-2,-2.8893683E-5,6.5851114E-3,5.2924454E-4,4.3267608E-4,-1.9834937E-4],"split_indices":[1,1,1,1,1,1,1,1,0,1,1,1,1,0,0,1,0,1,1,0,1,1,0,1,1,1,1,1,0,1,0,0,1,0,0,0,0,0,1,0,0,0,0,0,0,0,0,0,0,0,0,0,0],"split_type":[0,0,0,0,0,0,0,0,0,0,0,0,0,0,0,0,0,0,0,0,0,0,0,0,0,0,0,0,0,0,0,0,0,0,0,0,0,0,0,0,0,0,0,0,0,0,0,0,0,0,0,0,0],"sum_hessian":[1.97E2,1.76E2,2.1E1,4.2E1,1.34E2,1.8E1,3E0,4E1,2E0,1.4E1,1.2E2,4E0,1.4E1,2E0,1E0,3.9E1,1E0,8E0,6E0,3E0,1.17E2,3E0,1E0,2E0,1.2E1,1.3E1,2.6E1,7E0,1E0,3E0,3E0,3E0,1.14E2,2E0,1E0,1E0,1E0,1E1,2E0,8E0,5E0,2.3E1,3E0,5E0,2E0,1E0,2E0,2E0,1.12E2,9E0,1E0,1E0,1E0],"tree_param":{"num_deleted":"0","num_feature":"2","num_nodes":"53","size_leaf_vector":"1"}},{"base_weights":[2.3537326E-4,-1.9401391E-3,1.6088678E-2,-9.609074E-3,-2.8719325E-4,1.2106444E-2,9.891969E-3,-7.4650203E-3,-1.1089606E-2,8.234663E-3,-7.1428536E-4,2.1264868E-2,7.0254165E-3,-1.020278E-2,1.2881115E-2,-1.2062391E-3,9.732012E-3,-1.0954365E-2,-1.9026494E-4,1.2106776E-2,1.14320135E-2,-1.8507421E-2,1.2377193E-2,-8.4771495E-3,-8.260377E-3,6.233892E-3,3.321727E-3,7.5935065E-3,-6.7807455E-3,7.0048394E-3,-5.325218E-4,1.7985951E-2,-2.5933655E-3,-7.4297907E-3,-8.98549E-4,8.43423E-3,6.8126977E-3,-3.0697442E-3,5.3109173E-3,-2.1332458E-3,3.6280232E-3,-8.411735E-4,4.6379273E-3,-3.991156E-3,-1.4517809E-5,1.4999689E-3,7.4930075E-3,6.1826413E-3,1.0316711E-3],"categories":[],"categories_nodes":[],"categories_segments":[],"categories_sizes":[],"default_left":[0,0,0,0,0,0,0,0,0,0,0,0,0,0,0,0,0,0,0,0,0,0,0,0,0,0,0,0,0,0,0,0,0,0,0,0,0,0,0,0,0,0,0,0,0,0,0,0,0],"id":11,"left_children":[1,3,5,7,9,11,-1,13,-1,15,17,19,21,23,25,27,-1,-1,29,31,-1,33,35,37,-1,-1,39,41,-1,-1,43,45,-1,-1,-1,47,-1,-1,-1,-1,-1,-1,-1,-1,-1,-1,-1,-1,-1],"loss_changes":[6.860048E-3,2.215599E-3,1.2145289E-3,1.5423067E-3,5.336264E-4,8.2782377E-4,0E0,1.8025085E-3,0E0,1.6387743E-3,2.600702E-3,6.183244E-4,2.2787608E-3,5.7410914E-4,2.3299595E-4,1.3013212E-3,0E0,0E0,1.1242495E-3,8.8748464E-4,0E0,2.1707453E-4,3.3805962E-4,1.3759739E-3,0E0,0E0,3.60527E-4,4.522912E-4,0E0,0E0,8.4642344E-4,3.2902986E-4,0E0,0E0,0E0,5.98104E-4,0E0,0E0,0E0,0E0,0E0,0E0,0E0,0E0,0E0,0E0,0E0,0E0,0E0],"parents":[2147483647,0,0,1,1,2,2,3,3,4,4,5,5,7,7,9,9,10,10,11,11,12,12,13,13,14,14,15,15,18,18,19,19,21,21,22,22,23,23,26,26,27,27,30,30,31,31,35,35],"right_children":[2,4,6,8,10,12,-1,14,-1,16,18,20,22,24,26,28,-1,-1,30,32,-1,34,36,38,-1,-1,40,42,-1,-1,44,46,-1,-1,-1,48,-1,-1,-1,-1,-1,-1,-1,-1,-1,-1,-1,-1,-1],"split_conditions":[8.43843E-1,2.4649285E-1,2.083591E-1,2.4153323E-1,2.7532947E-1,9.1363186E-1,9.891969E-3,2.3069292E-1,-1.1089606E-2,2.7355817E-1,2.771716E-1,8.9924896E-1,9.256058E-1,2.2948845E-1,2.3593596E-1,2.6852772E-1,9.732012E-3,-1.0954365E-2,2.817061E-1,8.974777E-1,1.14320135E-2,9.2241746E-1,9.938359E-1,2.2899249E-1,-8.260377E-3,6.233892E-3,2.3721129E-1,2.5804165E-1,-6.7807455E-3,7.0048394E-3,2.8971234E-1,8.757971E-1,-2.5933655E-3,-7.4297907E-3,-8.98549E-4,9.32195E-1,6.8126977E-3,-3.0697442E-3,5.3109173E-3,-2.1332458E-3,3.6280232E-3,-8.411735E-4,4.6379273E-3,-3.991156E-3,-1.4517809E-5,1.4999689E-3,7.4930075E-3,6.1826413E-3,1.0316711E-3],"split_indices":[1,1,0,1,1,1,0,1,0,1,1,1,1,1,1,1,0,0,1,1,0,1,1,1,0,0,1,1,0,0,1,1,0,0,0,1,0,0,0,0,0,0,0,0,0,0,0,0,0],"split_type":[0,0,0,0,0,0,0,0,0,0,0,0,0,0,0,0,0,0,0,0,0,0,0,0,0,0,0,0,0,0,0,0,0,0,0,0,0,0,0,0,0,0,0,0,0,0,0,0,0],"sum_hessian":[1.97E2,1.74E2,2.3E1,3E1,1.44E2,2E1,3E0,2.9E1,1E0,6E0,1.38E2,6E0,1.4E1,2.6E1,3E0,5E0,1E0,1E0,1.37E2,5E0,1E0,2E0,1.2E1,2.5E1,1E0,1E0,2E0,4E0,1E0,1E0,1.36E2,4E0,1E0,1E0,1E0,1E1,2E0,2.4E1,1E0,1E0,1E0,2E0,2E0,4E0,1.32E2,2E0,2E0,2E0,8E0],"tree_param":{"num_deleted":"0","num_feature":"2","num_nodes":"49","size_leaf_vector":"1"}},{"base_weights":[2.8008487E-4,-1.8751316E-3,1.07309865E-2,-1.5092973E-3,-9.280797E-3,8.3915815E-3,2.6178628E-2,-1.9486552E-3,1.051591E-2,1.8539911E-2,6.2014614E-3,9.096021E-3,2.0631463E-3,-7.028938E-3,-7.4987777E-4,4.1081808E-3,8.037502E-3,-6.0005784E-3,9.247406E-3,-5.1685325E-3,-9.426164E-3,1.1356738E-3,-4.589645E-3,2.161561E-3,-3.1287968E-4,-2.4773777E-3,-3.5424875E-3,1.5809402E-2,5.131181E-3,-2.209464E-3,3.2846846E-3,-2.9251014E-5,1.1079093E-2,-9.826538E-3,-7.405643E-4,-7.275492E-5,-8.926392E-4,2.6440194E-3,9.717215E-3,-4.7193943E-3,2.8652693E-3],"categories":[],"categories_nodes":[],"categories_segments":[],"categories_sizes":[],"default_left":[0,0,0,0,0,0,0,0,0,0,0,0,0,0,0,0,0,0,0,0,0,0,0,0,0,0,0,0,0,0,0,0,0,0,0,0,0,0,0,0,0],"id":12,"left_children":[1,3,5,7,-1,9,11,13,-1,15,17,-1,-1,19,21,23,-1,25,27,29,-1,31,33,-1,-1,35,-1,37,39,-1,-1,-1,-1,-1,-1,-1,-1,-1,-1,-1,-1],"loss_changes":[4.479865E-3,1.7074995E-3,1.0090219E-3,2.7027945E-3,0E0,5.7403324E-4,1.11227855E-4,9.874201E-4,0E0,4.8537075E-4,1.0589916E-3,0E0,0E0,1.2443286E-3,9.6814276E-4,5.5373883E-5,0E0,9.351682E-5,5.1311334E-4,1.1426256E-3,0E0,3.976303E-3,2.5477784E-3,0E0,0E0,4.844169E-6,0E0,6.425511E-4,1.5333428E-3,0E0,0E0,0E0,0E0,0E0,0E0,0E0,0E0,0E0,0E0,0E0,0E0],"parents":[2147483647,0,0,1,1,2,2,3,3,5,5,6,6,7,7,9,9,10,10,13,13,14,14,15,15,17,17,18,18,19,19,21,21,22,22,25,25,27,27,28,28],"right_children":[2,4,6,8,-1,10,12,14,-1,16,18,-1,-1,20,22,24,-1,26,28,30,-1,32,34,-1,-1,36,-1,38,40,-1,-1,-1,-1,-1,-1,-1,-1,-1,-1,-1,-1],"split_conditions":[7.968684E-1,7.814227E-1,9.938359E-1,7.78872E-1,-9.280797E-3,8.184781E-1,1E0,2.4649285E-1,1.051591E-2,8.0140287E-1,8.353408E-1,9.096021E-3,2.0631463E-3,2.4153323E-1,5.989797E-1,8.001275E-1,8.037502E-3,8.3314437E-1,9.1363186E-1,2.3069292E-1,-9.426164E-3,5.8395916E-1,6.0960746E-1,2.161561E-3,-3.1287968E-4,8.196826E-1,-3.5424875E-3,8.9924896E-1,9.256058E-1,-2.209464E-3,3.2846846E-3,-2.9251014E-5,1.1079093E-2,-9.826538E-3,-7.405643E-4,-7.275492E-5,-8.926392E-4,2.6440194E-3,9.717215E-3,-4.7193943E-3,2.8652693E-3],"split_indices":[1,1,1,1,0,1,1,1,0,1,1,0,0,1,1,1,0,1,1,1,0,1,1,0,0,1,0,1,1,0,0,0,0,0,0,0,0,0,0,0,0],"split_type":[0,0,0,0,0,0,0,0,0,0,0,0,0,0,0,0,0,0,0,0,0,0,0,0,0,0,0,0,0,0,0,0,0,0,0,0,0,0,0,0,0],"sum_hessian":[1.97E2,1.64E2,3.3E1,1.63E2,1E0,3E1,3E0,1.62E2,1E0,4E0,2.6E1,2E0,1E0,3E1,1.32E2,2E0,2E0,5E0,2.1E1,2.9E1,1E0,8.9E1,4.3E1,1E0,1E0,4E0,1E0,7E0,1.4E1,2.6E1,3E0,8.7E1,2E0,2E0,4.1E1,1E0,3E0,6E0,1E0,2E0,1.2E1],"tree_param":{"num_deleted":"0","num_feature":"2","num_nodes":"41","size_leaf_vector":"1"}},{"base_weights":[2.9915318E-4,-1.4123241E-3,8.040032E-3,-1.0538825E-3,-1.5396908E-2,8.938525E-3,6.567172E-3,-1.6515711E-3,9.157512E-3,-5.8710133E-3,-4.3162555E-4,-7.888677E-3,8.307123E-3,-1.0749664E-3,-8.979387E-3,1.5526722E-2,-2.685681E-3,6.291992E-3,6.554282E-3,-1.7355162E-3,1.4602045E-2,3.7713274E-3,2.6025007E-2,-2.7429848E-3,2.503069E-3,1.4955169E-2,4.4546635E-3,-2.1018075E-4,-2.0521993E-3,7.706206E-3,-3.6289396E-3,9.991864E-3,1.7193899E-3,1.0475845E-3,6.43E-3,-1.4855162E-3,2.045267E-3],"categories":[],"categories_nodes":[],"categories_segments":[],"categories_sizes":[],"default_left":[0,0,0,0,0,0,0,0,0,0,0,0,0,0,0,0,0,0,0,0,0,0,0,0,0,0,0,0,0,0,0,0,0,0,0,0,0],"id":13,"left_children":[1,3,5,7,9,-1,11,13,15,-1,-1,-1,17,19,-1,21,23,25,-1,27,-1,29,31,-1,-1,33,35,-1,-1,-1,-1,-1,-1,-1,-1,-1,-1],"loss_changes":[2.6345265E-3,8.008366E-4,9.578483E-4,9.916418E-4,2.0484062E-4,0E0,2.2197273E-3,2.4463702E-3,7.2058575E-4,0E0,0E0,0E0,7.902535E-4,5.0136726E-3,0E0,6.4232026E-4,3.611774E-4,4.268099E-4,0E0,7.8243215E-4,0E0,1.701762E-3,2.5239983E-4,0E0,0E0,2.9645907E-4,6.3386804E-4,0E0,0E0,0E0,0E0,0E0,0E0,0E0,0E0,0E0,0E0],"parents":[2147483647,0,0,1,1,2,2,3,3,4,4,6,6,7,7,8,8,12,12,13,13,15,15,16,16,17,17,19,19,21,21,22,22,25,25,26,26],"right_children":[2,4,6,8,10,-1,12,14,16,-1,-1,-1,18,20,-1,22,24,26,-1,28,-1,30,32,-1,-1,34,36,-1,-1,-1,-1,-1,-1,-1,-1,-1,-1],"split_conditions":[7.78872E-1,7.519484E-1,7.814227E-1,7.298427E-1,7.559161E-1,8.938525E-3,7.968684E-1,7.2134054E-1,7.4132067E-1,-5.8710133E-3,-4.3162555E-4,-7.888677E-3,2.083591E-1,7.2041947E-1,-8.979387E-3,7.379907E-1,7.4783903E-1,8.184781E-1,6.554282E-3,6.225733E-1,1.4602045E-2,7.304804E-1,7.4047047E-1,-2.7429848E-3,2.503069E-3,8.0140287E-1,8.353408E-1,-2.1018075E-4,-2.0521993E-3,7.706206E-3,-3.6289396E-3,9.991864E-3,1.7193899E-3,1.0475845E-3,6.43E-3,-1.4855162E-3,2.045267E-3],"split_indices":[1,1,1,1,1,0,1,1,1,0,0,0,0,1,0,1,1,1,0,1,0,1,1,0,0,1,1,0,0,0,0,0,0,0,0,0,0],"split_type":[0,0,0,0,0,0,0,0,0,0,0,0,0,0,0,0,0,0,0,0,0,0,0,0,0,0,0,0,0,0,0,0,0,0,0,0,0],"sum_hessian":[1.97E2,1.62E2,3.5E1,1.59E2,3E0,1E0,3.4E1,1.51E2,8E0,2E0,1E0,1E0,3.3E1,1.49E2,2E0,5E0,3E0,3E1,3E0,1.48E2,1E0,3E0,2E0,2E0,1E0,4E0,2.6E1,1.24E2,2.4E1,1E0,2E0,1E0,1E0,2E0,2E0,5E0,2.1E1],"tree_param":{"num_deleted":"0","num_feature":"2","num_nodes":"37","size_leaf_vector":"1"}},{"base_weights":[3.5206327E-4,-1.4630196E-3,4.6530725E-3,-7.7100913E-4,-1.2784816E-2,3.584229E-3,1.8453613E-2,-1.2143024E-3,8.661555E-3,-6.1424947E-3,2.4095178E-5,1.6474297E-2,2.8017396E-3,6.4168572E-3,1.4468819E-3,-5.7254103E-4,-1.7400533E-2,1.431189E-2,-6.4258934E-3,7.030517E-4,6.710382E-3,-6.9560884E-3,3.7214875E-3,-1.1194524E-3,1.0332782E-2,-6.581718E-3,-7.0618293E-3,5.1056477E-3,1.3347031E-3,5.4135323E-3,-1.7007014E-2,1.7929364E-2,2.0962514E-3,-1.4763436E-4,-8.065615E-3,1.8324003E-3,-5.0102235E-3,-2.766475E-3,5.202565E-3,-6.192358E-3,-1.4607981E-3,5.176418E-4,1.241174E-2,-7.1835103E-3,1.1472454E-3],"categories":[],"categories_nodes":[],"categories_segments":[],"categories_sizes":[],"default_left":[0,0,0,0,0,0,0,0,0,0,0,0,0,0,0,0,0,0,0,0,0,0,0,0,0,0,0,0,0,0,0,0,0,0,0,0,0,0,0,0,0,0,0,0,0],"id":14,"left_children":[1,3,5,7,9,11,13,15,-1,-1,17,19,21,-1,-1,23,25,27,-1,-1,-1,29,31,33,-1,-1,35,-1,-1,37,39,41,43,-1,-1,-1,-1,-1,-1,-1,-1,-1,-1,-1,-1],"loss_changes":[1.5525317E-3,1.0870151E-3,8.041444E-4,1.7827428E-3,7.885145E-4,5.186786E-4,5.691347E-5,1.3612134E-3,0E0,0E0,1.5320906E-3,1.9742607E-4,5.105231E-4,0E0,0E0,2.48978E-3,7.9682446E-5,4.3776236E-6,0E0,0E0,0E0,7.136987E-4,1.1169732E-3,2.0395902E-3,0E0,0E0,4.828368E-4,0E0,0E0,6.83638E-4,3.1822827E-5,1.82796E-3,2.1614195E-3,0E0,0E0,0E0,0E0,0E0,0E0,0E0,0E0,0E0,0E0,0E0,0E0],"parents":[2147483647,0,0,1,1,2,2,3,3,4,4,5,5,6,6,7,7,10,10,11,11,12,12,15,15,16,16,17,17,21,21,22,22,23,23,26,26,29,29,30,30,31,31,32,32],"right_children":[2,4,6,8,10,12,14,16,-1,-1,18,20,22,-1,-1,24,26,28,-1,-1,-1,30,32,34,-1,-1,36,-1,-1,38,40,42,44,-1,-1,-1,-1,-1,-1,-1,-1,-1,-1,-1,-1],"split_conditions":[6.727363E-1,6.5041804E-1,9.938359E-1,6.409947E-1,6.6650134E-1,6.7656225E-1,1E0,6.295168E-1,8.661555E-3,-6.1424947E-3,6.7089415E-1,6.734448E-1,6.971801E-1,6.4168572E-3,1.4468819E-3,6.245572E-1,6.350432E-1,6.6883945E-1,-6.4258934E-3,7.030517E-4,6.710382E-3,6.8322235E-1,7.2134054E-1,6.225733E-1,1.0332782E-2,-6.581718E-3,6.369562E-1,5.1056477E-3,1.3347031E-3,6.778376E-1,6.847102E-1,7.2041947E-1,7.298427E-1,-1.4763436E-4,-8.065615E-3,1.8324003E-3,-5.0102235E-3,-2.766475E-3,5.202565E-3,-6.192358E-3,-1.4607981E-3,5.176418E-4,1.241174E-2,-7.1835103E-3,1.1472454E-3],"split_indices":[1,1,1,1,1,1,1,1,0,0,1,1,1,0,0,1,1,1,0,0,0,1,1,1,0,0,1,0,0,1,1,1,1,0,0,0,0,0,0,0,0,0,0,0,0],"split_type":[0,0,0,0,0,0,0,0,0,0,0,0,0,0,0,0,0,0,0,0,0,0,0,0,0,0,0,0,0,0,0,0,0,0,0,0,0,0,0,0,0,0,0,0,0],"sum_hessian":[1.97E2,1.39E2,5.8E1,1.32E2,7E0,5.5E1,3E0,1.31E2,1E0,4E0,3E0,2E0,5.3E1,2E0,1E0,1.27E2,4E0,2E0,1E0,1E0,1E0,4E0,4.9E1,1.26E2,1E0,2E0,2E0,1E0,1E0,2E0,2E0,4E0,4.5E1,1.24E2,2E0,1E0,1E0,1E0,1E0,1E0,1E0,3E0,1E0,2E0,4.3E1],"tree_param":{"num_deleted":"0","num_feature":"2","num_nodes":"45","size_leaf_vector":"1"}},{"base_weights":[3.0627774E-4,-3.0019775E-3,2.1389327E-3,-1.495289E-3,-1.6270526E-2,7.8322785E-3,1.3548242E-3,-3.787036E-4,-1.1490458E-2,-1.2737641E-2,2.0505695E-3,-2.1976645E-3,6.4573702E-3,-1.8308418E-2,6.9371513E-3,1.3858083E-2,7.7852776E-4,-9.855219E-4,-5.6763836E-3,1.0095943E-2,-1.4834128E-2,6.393684E-3,8.156538E-3,-2.113683E-2,1.9888391E-3,-1.0078213E-3,4.9352082E-3,-5.408478E-3,-7.8776036E-4,5.0027166E-3,-1.5501273E-3,-6.88377E-4,-8.995291E-3,9.220173E-3,1.7632237E-4],"categories":[],"categories_nodes":[],"categories_segments":[],"categories_sizes":[],"default_left":[0,0,0,0,0,0,0,0,0,0,0,0,0,0,0,0,0,0,0,0,0,0,0,0,0,0,0,0,0,0,0,0,0,0,0],"id":15,"left_children":[1,3,5,7,-1,-1,9,11,13,-1,15,17,-1,-1,19,21,23,25,-1,-1,27,29,-1,31,33,-1,-1,-1,-1,-1,-1,-1,-1,-1,-1],"loss_changes":[1.2068735E-3,5.3995587E-3,2.3702653E-3,7.768807E-4,0E0,0E0,3.8974558E-3,2.59714E-3,6.8133776E-3,0E0,1.8516479E-3,1.1976368E-3,0E0,0E0,3.9890627E-3,1.020204E-3,3.0392953E-3,2.4145814E-3,0E0,0E0,1.086393E-4,1.15598E-3,0E0,9.3143573E-4,4.331599E-3,0E0,0E0,0E0,0E0,0E0,0E0,0E0,0E0,0E0,0E0],"parents":[2147483647,0,0,1,1,2,2,3,3,6,6,7,7,8,8,10,10,11,11,14,14,15,15,16,16,17,17,20,20,21,21,23,23,24,24],"right_children":[2,4,6,8,-1,-1,10,12,14,-1,16,18,-1,-1,20,22,24,26,-1,-1,28,30,-1,32,34,-1,-1,-1,-1,-1,-1,-1,-1,-1,-1],"split_conditions":[3.9506873E-1,3.936517E-1,3.9960322E-1,3.6793256E-1,-1.6270526E-2,7.8322785E-3,4.1937083E-1,3.615559E-1,3.6998725E-1,-1.2737641E-2,4.5352134E-1,3.5602948E-1,6.4573702E-3,-1.8308418E-2,3.762222E-1,4.4615275E-1,4.8072836E-1,3.341363E-1,-5.6763836E-3,1.0095943E-2,3.826697E-1,4.3694204E-1,8.156538E-3,4.691087E-1,5.2295595E-1,-1.0078213E-3,4.9352082E-3,-5.408478E-3,-7.8776036E-4,5.0027166E-3,-1.5501273E-3,-6.88377E-4,-8.995291E-3,9.220173E-3,1.7632237E-4],"split_indices":[1,1,1,1,0,0,1,1,1,0,1,1,0,0,1,1,1,1,0,0,1,1,0,1,1,0,0,0,0,0,0,0,0,0,0],"split_type":[0,0,0,0,0,0,0,0,0,0,0,0,0,0,0,0,0,0,0,0,0,0,0,0,0,0,0,0,0,0,0,0,0,0,0],"sum_hessian":[1.97E2,7E1,1.27E2,6.9E1,1E0,3E0,1.24E2,6.3E1,6E0,1E0,1.23E2,5.9E1,4E0,1E0,5E0,1.1E1,1.12E2,5.6E1,3E0,2E0,3E0,8E0,3E0,5E0,1.07E2,5E1,6E0,2E0,1E0,4E0,4E0,2E0,3E0,4E0,1.03E2],"tree_param":{"num_deleted":"0","num_feature":"2","num_nodes":"35","size_leaf_vector":"1"}},{"base_weights":[1.1564228E-4,-4.671787E-4,8.44557E-3,-2.1323875E-4,-7.116911E-3,6.1508063E-3,4.3894867E-3,-4.1703077E-4,5.592674E-3,-5.4234504E-3,1.0771657E-2,-2.4671692E-3,8.6346804E-4,1.3220251E-3,-8.982688E-3,4.0991753E-3,1.4751226E-2,-1.1852767E-3,-1.3829948E-2,2.0233378E-2,1.576743E-4,-5.4420234E-4,-3.230274E-3,4.4400664E-3,-1.320374E-3,5.098224E-3,1.2034E-3,-5.7456473E-5,-3.0305139E-3,1.3778777E-3,7.174766E-3,-1.08269965E-2,2.445868E-4],"categories":[],"categories_nodes":[],"categories_segments":[],"categories_sizes":[],"default_left":[0,0,0,0,0,0,0,0,0,0,0,0,0,0,0,0,0,0,0,0,0,0,0,0,0,0,0,0,0,0,0,0,0],"id":16,"left_children":[1,3,5,7,-1,-1,9,11,-1,13,15,17,19,-1,21,23,25,27,-1,29,31,-1,-1,-1,-1,-1,-1,-1,-1,-1,-1,-1,-1],"loss_changes":[9.6520723E-4,1.0933813E-3,5.457645E-4,7.186549E-4,0E0,0E0,7.4732583E-4,4.8516708E-4,0E0,2.1452457E-4,1.254073E-4,3.916558E-3,1.5553222E-3,0E0,3.1648786E-5,4.2899302E-4,2.8183043E-5,6.1831804E-4,0E0,1.205405E-4,2.6753314E-3,0E0,0E0,0E0,0E0,0E0,0E0,0E0,0E0,0E0,0E0,0E0,0E0],"parents":[2147483647,0,0,1,1,2,2,3,3,6,6,7,7,9,9,10,10,11,11,12,12,14,14,15,15,16,16,17,17,19,19,20,20],"right_children":[2,4,6,8,-1,-1,10,12,-1,14,16,18,20,-1,22,24,26,28,-1,30,32,-1,-1,-1,-1,-1,-1,-1,-1,-1,-1,-1,-1],"split_conditions":[9.370837E-1,9.32195E-1,9.6011055E-1,9.257475E-1,-7.116911E-3,6.1508063E-3,9.762647E-1,3.9506873E-1,5.592674E-3,9.6613294E-1,9.938359E-1,3.936517E-1,3.9960322E-1,1.3220251E-3,9.735015E-1,9.786028E-1,1E0,3.6793256E-1,-1.3829948E-2,3.979028E-1,4.1937083E-1,-5.4420234E-4,-3.230274E-3,4.4400664E-3,-1.320374E-3,5.098224E-3,1.2034E-3,-5.7456473E-5,-3.0305139E-3,1.3778777E-3,7.174766E-3,-1.08269965E-2,2.445868E-4],"split_indices":[1,1,1,1,0,0,1,1,0,1,1,1,1,0,1,1,1,1,0,1,1,0,0,0,0,0,0,0,0,0,0,0,0],"split_type":[0,0,0,0,0,0,0,0,0,0,0,0,0,0,0,0,0,0,0,0,0,0,0,0,0,0,0,0,0,0,0,0,0],"sum_hessian":[1.97E2,1.85E2,1.2E1,1.84E2,1E0,2E0,1E1,1.83E2,1E0,4E0,6E0,7E1,1.13E2,1E0,3E0,3E0,3E0,6.9E1,1E0,3E0,1.1E2,1E0,2E0,1E0,2E0,2E0,1E0,6.3E1,6E0,1E0,2E0,1E0,1.09E2],"tree_param":{"num_deleted":"0","num_feature":"2","num_nodes":"33","size_leaf_vector":"1"}},{"base_weights":[4.3818483E-5,-1.1511951E-3,2.8787013E-3,-4.4386153E-4,-8.027157E-3,2.1316952E-3,1.2617111E-2,-9.0508495E-4,8.719727E-3,-5.3495527E-3,-4.6234103E-3,1.37225585E-2,1.4482825E-3,6.3004554E-3,2.821803E-3,-3.9663262E-4,-6.5366714E-3,7.4529424E-3,-1.00836605E-2,5.3446146E-4,5.64069E-3,-6.249392E-3,2.1890842E-3,-2.1608681E-3,3.4306797E-3,-1.0028938E-3,1.1216963E-2,-6.2831542E-3,7.2991853E-3,-4.769311E-3,-2.95192E-4,4.3209097E-3,-1.4736563E-2,1.4799714E-2,7.7077484E-4,-9.992181E-5,-5.063406E-3,1.4944063E-3,-4.3218257E-3,3.5653533E-3,-5.525145E-3,-2.4146363E-3,4.359046E-3,-5.3266394E-3,-1.3048142E-3,3.0647145E-4,1.0486843E-2,-5.8309855E-3,6.393102E-4],"categories":[],"categories_nodes":[],"categories_segments":[],"categories_sizes":[],"default_left":[0,0,0,0,0,0,0,0,0,0,0,0,0,0,0,0,0,0,0,0,0,0,0,0,0,0,0,0,0,0,0,0,0,0,0,0,0,0,0,0,0,0,0,0,0,0,0,0,0],"id":17,"left_children":[1,3,5,7,9,11,13,15,-1,-1,17,19,21,-1,23,25,-1,27,29,-1,-1,31,33,-1,-1,35,-1,37,-1,-1,39,41,43,45,47,-1,-1,-1,-1,-1,-1,-1,-1,-1,-1,-1,-1,-1,-1],"loss_changes":[6.740832E-4,6.773409E-4,4.023086E-4,1.7684547E-3,3.5140064E-4,4.2372115E-4,2.6924926E-4,1.3398981E-3,0E0,0E0,8.0049195E-4,1.4847488E-4,3.216128E-4,0E0,3.4142146E-4,2.9010596E-3,0E0,1.0802065E-3,4.5059173E-4,0E0,0E0,5.122351E-4,8.8288146E-4,0E0,0E0,1.3129318E-3,0E0,3.4626425E-4,0E0,0E0,1.101759E-3,4.958058E-4,1.6848382E-5,1.3528805E-3,1.3058356E-3,0E0,0E0,0E0,0E0,0E0,0E0,0E0,0E0,0E0,0E0,0E0,0E0,0E0,0E0],"parents":[2147483647,0,0,1,1,2,2,3,3,4,4,5,5,6,6,7,7,10,10,11,11,12,12,14,14,15,15,17,17,18,18,21,21,22,22,25,25,27,27,30,30,31,31,32,32,33,33,34,34],"right_children":[2,4,6,8,10,12,14,16,-1,-1,18,20,22,-1,24,26,-1,28,30,-1,-1,32,34,-1,-1,36,-1,38,-1,-1,40,42,44,46,48,-1,-1,-1,-1,-1,-1,-1,-1,-1,-1,-1,-1,-1,-1],"split_conditions":[6.727363E-1,6.295168E-1,2.083591E-1,6.245572E-1,6.350432E-1,6.7656225E-1,2.1150678E-1,6.225733E-1,8.719727E-3,-5.3495527E-3,6.5041804E-1,6.734448E-1,6.971801E-1,6.3004554E-3,2.1335436E-1,6.1796796E-1,-6.5366714E-3,6.409947E-1,6.6650134E-1,5.3446146E-4,5.64069E-3,6.8322235E-1,7.2134054E-1,-2.1608681E-3,3.4306797E-3,5.989797E-1,1.1216963E-2,6.369562E-1,7.2991853E-3,-4.769311E-3,6.7089415E-1,6.778376E-1,6.847102E-1,7.2041947E-1,7.298427E-1,-9.992181E-5,-5.063406E-3,1.4944063E-3,-4.3218257E-3,3.5653533E-3,-5.525145E-3,-2.4146363E-3,4.359046E-3,-5.3266394E-3,-1.3048142E-3,3.0647145E-4,1.0486843E-2,-5.8309855E-3,6.393102E-4],"split_indices":[1,1,0,1,1,1,0,1,0,0,1,1,1,0,0,1,0,1,1,0,0,1,1,0,0,1,0,1,0,0,1,1,1,1,1,0,0,0,0,0,0,0,0,0,0,0,0,0,0],"split_type":[0,0,0,0,0,0,0,0,0,0,0,0,0,0,0,0,0,0,0,0,0,0,0,0,0,0,0,0,0,0,0,0,0,0,0,0,0,0,0,0,0,0,0,0,0,0,0,0,0],"sum_hessian":[1.97E2,1.39E2,5.8E1,1.27E2,1.2E1,5.5E1,3E0,1.26E2,1E0,2E0,1E1,2E0,5.3E1,1E0,2E0,1.24E2,2E0,3E0,7E0,1E0,1E0,4E0,4.9E1,1E0,1E0,1.23E2,1E0,2E0,1E0,4E0,3E0,2E0,2E0,4E0,4.5E1,1.19E2,4E0,1E0,1E0,2E0,1E0,1E0,1E0,1E0,1E0,3E0,1E0,2E0,4.3E1],"tree_param":{"num_deleted":"0","num_feature":"2","num_nodes":"49","size_leaf_vector":"1"}},{"base_weights":[1.0789514E-4,-3.600402E-3,8.4443676E-4,-2.1098848E-3,-1.3879182E-2,1.2007278E-2,4.9469207E-4,-3.770641E-3,9.627692E-3,-7.7837855E-3,-1.2082756E-3,8.3401054E-4,8.505053E-3,-9.07837E-3,8.7368063E-4,-1.0013705E-3,-1.3296193E-2,5.0345557E-3,1.6490221E-3,5.865097E-6,-5.495891E-4,4.0207985E-3,-5.5307914E-3,6.186958E-3,6.2135124E-4,-4.1424693E-3,2.027308E-2,-6.5631247E-3,-3.5364777E-3,-2.0775096E-3,2.8195695E-3,-4.402319E-3,8.0984266E-4,-7.7956385E-4,-5.0215526E-3,7.445222E-3,1.6776636E-3,2.8930397E-3,-6.461446E-3,5.893046E-3,1.6989496E-4],"categories":[],"categories_nodes":[],"categories_segments":[],"categories_sizes":[],"default_left":[0,0,0,0,0,0,0,0,0,0,0,0,0,0,0,0,0,0,0,0,0,0,0,0,0,0,0,0,0,0,0,0,0,0,0,0,0,0,0,0,0],"id":18,"left_children":[1,3,5,7,9,11,13,15,17,-1,19,21,-1,-1,23,25,27,-1,29,-1,-1,-1,-1,-1,31,33,35,-1,37,-1,-1,-1,39,-1,-1,-1,-1,-1,-1,-1,-1],"loss_changes":[5.4384075E-4,4.762996E-4,6.4214814E-4,6.211003E-4,5.8023765E-4,8.893734E-4,1.9147339E-3,6.9891405E-4,2.0064905E-4,0E0,2.3331568E-6,1.2158816E-3,0E0,0E0,7.8951026E-4,1.554134E-3,4.251143E-4,0E0,2.6442032E-4,0E0,0E0,0E0,0E0,0E0,4.7318276E-4,3.4545065E-4,6.135984E-5,0E0,1.1567466E-3,0E0,0E0,0E0,7.1812654E-4,0E0,0E0,0E0,0E0,0E0,0E0,0E0,0E0],"parents":[2147483647,0,0,1,1,2,2,3,3,4,4,5,5,6,6,7,7,8,8,10,10,11,11,14,14,15,15,16,16,18,18,24,24,25,25,26,26,28,28,32,32],"right_children":[2,4,6,8,10,12,14,16,18,-1,20,22,-1,-1,24,26,28,-1,30,-1,-1,-1,-1,-1,32,34,36,-1,38,-1,-1,-1,40,-1,-1,-1,-1,-1,-1,-1,-1],"split_conditions":[2.5804165E-1,2.4153323E-1,2.7532947E-1,2.3069292E-1,2.4649285E-1,2.7355817E-1,2.771716E-1,2.1864815E-1,2.3593596E-1,-7.7837855E-3,2.4713051E-1,2.6852772E-1,8.505053E-3,-9.07837E-3,2.817061E-1,1.9817203E-1,2.2311181E-1,5.0345557E-3,2.3721129E-1,5.865097E-6,-5.495891E-4,4.0207985E-3,-5.5307914E-3,6.186958E-3,2.8354824E-1,1.9236219E-1,2.0972085E-1,-6.5631247E-3,2.2948845E-1,-2.0775096E-3,2.8195695E-3,-4.402319E-3,2.868783E-1,-7.7956385E-4,-5.0215526E-3,7.445222E-3,1.6776636E-3,2.8930397E-3,-6.461446E-3,5.893046E-3,1.6989496E-4],"split_indices":[1,1,1,1,1,1,1,1,1,0,1,1,0,0,1,1,1,0,1,0,0,0,0,0,1,1,1,0,1,0,0,0,1,0,0,0,0,0,0,0,0],"split_type":[0,0,0,0,0,0,0,0,0,0,0,0,0,0,0,0,0,0,0,0,0,0,0,0,0,0,0,0,0,0,0,0,0,0,0,0,0,0,0,0,0],"sum_hessian":[1.97E2,3.2E1,1.65E2,2.9E1,3E0,4E0,1.61E2,2.6E1,3E0,1E0,2E0,3E0,1E0,1E0,1.6E2,2.1E1,5E0,1E0,2E0,1E0,1E0,2E0,1E0,1E0,1.59E2,1.9E1,2E0,2E0,3E0,1E0,1E0,1E0,1.58E2,1.8E1,1E0,1E0,1E0,2E0,1E0,1E0,1.57E2],"tree_param":{"num_deleted":"0","num_feature":"2","num_nodes":"41","size_leaf_vector":"1"}},{"base_weights":[5.7360194E-5,-1.5913456E-4,1.059714E-2,-5.163433E-3,2.2668584E-4,5.329907E-3,2.285282E-3,8.326452E-4,-1.3296979E-2,6.687637E-3,-1.0880408E-4,-1.862222E-3,2.890599E-3,3.112401E-3,-1.6136396E-3,-5.009006E-3,-4.3317084E-3,1.2131961E-3,1.723212E-2,-5.2504996E-3,1.9519235E-4,-1.3223011E-3,3.1276816E-3,-2.0256734E-3,1.3590725E-3,1.131711E-3,-3.08098E-3,6.1579733E-3,-4.2683203E-3,6.32844E-3,1.4260144E-3,-1.02524E-5,5.8808723E-3,1.0971911E-3,-2.4391674E-3,1.301789E-3,-3.242303E-4,-2.8260425E-4,6.248687E-3,1.130723E-4,-1.837907E-3,3.6526772E-3,6.5604335E-4],"categories":[],"categories_nodes":[],"categories_segments":[],"categories_sizes":[],"default_left":[0,0,0,0,0,0,0,0,0,0,0,0,0,0,0,0,0,0,0,0,0,0,0,0,0,0,0,0,0,0,0,0,0,0,0,0,0,0,0,0,0,0,0],"id":19,"left_children":[1,3,5,7,9,-1,11,13,15,17,19,-1,-1,21,23,-1,25,27,29,-1,31,33,-1,-1,35,-1,-1,37,-1,-1,-1,39,41,-1,-1,-1,-1,-1,-1,-1,-1,-1,-1],"loss_changes":[4.5348416E-4,3.7766877E-4,1.9775686E-4,6.938429E-4,3.9522795E-4,0E0,2.4707537E-4,5.5214685E-5,1.1055067E-4,4.9862044E-4,9.2341815E-4,0E0,0E0,1.759452E-4,8.5554755E-5,0E0,1.8311346E-4,6.2207767E-4,4.4332468E-5,0E0,2.0097231E-4,1.6534563E-4,0E0,0E0,3.3774846E-5,0E0,0E0,6.4460386E-4,0E0,0E0,0E0,3.977502E-4,1.12892725E-4,0E0,0E0,0E0,0E0,0E0,0E0,0E0,0E0,0E0,0E0],"parents":[2147483647,0,0,1,1,2,2,3,3,4,4,6,6,7,7,8,8,9,9,10,10,13,13,14,14,16,16,17,17,18,18,20,20,21,21,24,24,27,27,31,31,32,32],"right_children":[2,4,6,8,10,-1,12,14,16,18,20,-1,-1,22,24,-1,26,28,30,-1,32,34,-1,-1,36,-1,-1,38,-1,-1,-1,40,42,-1,-1,-1,-1,-1,-1,-1,-1,-1,-1],"split_conditions":[2.083591E-1,1.564404E-1,2.1150678E-1,1.1456709E-1,2.1864815E-1,5.329907E-3,2.1335436E-1,6.468754E-2,1.4354542E-1,1.9817203E-1,2.2311181E-1,-1.862222E-3,2.890599E-3,4.98087E-2,6.660054E-2,-5.009006E-3,1.4715885E-1,1.9236219E-1,2.0972085E-1,-5.2504996E-3,9.754853E-1,3.5850927E-2,3.1276816E-3,-2.0256734E-3,1.07127674E-1,1.131711E-3,-3.08098E-3,1.9172452E-1,-4.2683203E-3,6.32844E-3,1.4260144E-3,9.1363186E-1,9.786028E-1,1.0971911E-3,-2.4391674E-3,1.301789E-3,-3.242303E-4,-2.8260425E-4,6.248687E-3,1.130723E-4,-1.837907E-3,3.6526772E-3,6.5604335E-4],"split_indices":[0,1,0,1,1,0,0,1,1,1,1,0,0,1,1,0,1,1,1,0,1,1,0,0,1,0,0,1,0,0,0,1,1,0,0,0,0,0,0,0,0,0,0],"split_type":[0,0,0,0,0,0,0,0,0,0,0,0,0,0,0,0,0,0,0,0,0,0,0,0,0,0,0,0,0,0,0,0,0,0,0,0,0,0,0,0,0,0,0],"sum_hessian":[1.97E2,1.94E2,3E0,1.3E1,1.81E2,1E0,2E0,8E0,5E0,8E0,1.73E2,1E0,1E0,4E0,4E0,3E0,2E0,6E0,2E0,2E0,1.71E2,3E0,1E0,1E0,3E0,1E0,1E0,5E0,1E0,1E0,1E0,1.66E2,5E0,2E0,1E0,1E0,2E0,4E0,1E0,1.57E2,9E0,1E0,4E0],"tree_param":{"num_deleted":"0","num_feature":"2","num_nodes":"43","size_leaf_vector":"1"}},{"base_weights":[7.51193E-5,-4.5017133E-4,4.2979065E-3,-4.058737E-3,-1.393781E-4,1.4847552E-2,1.1286768E-3,6.648076E-4,-1.0467597E-2,5.7315924E-3,-4.771945E-4,5.9273094E-3,7.579279E-3,-5.995122E-3,3.5460978E-3,2.5358237E-3,-1.3391699E-3,-3.8819797E-3,-3.6819521E-3,1.091774E-3,1.4647305E-2,-3.7430536E-3,-1.6035924E-4,1.5194893E-2,-3.2813163E-3,1.5785907E-3,9.545848E-3,-1.261103E-3,2.6585297E-3,-1.7218221E-3,1.1957409E-3,9.619542E-4,-2.6188327E-3,5.3049275E-3,-3.6280723E-3,5.379175E-3,1.2121126E-3,4.6232343E-3,-3.6418767E-4,1.2179107E-3,5.6197913E-3,7.5639933E-3,-7.414276E-4,3.2829405E-3,8.0309814E-4,8.777537E-4,-2.0732924E-3,1.1065208E-3,-2.5938416E-4,-2.1477924E-4,5.311383E-3,-5.5091903E-3,-3.7010443E-5,-2.4645927E-4,4.908085E-3,-5.8950665E-3,9.3434216E-4],"categories":[],"categories_nodes":[],"categories_segments":[],"categories_sizes":[],"default_left":[0,0,0,0,0,0,0,0,0,0,0,0,0,0,0,0,0,0,0,0,0,0,0,0,0,0,0,0,0,0,0,0,0,0,0,0,0,0,0,0,0,0,0,0,0,0,0,0,0,0,0,0,0,0,0,0,0],"id":20,"left_children":[1,3,5,7,9,11,13,15,17,19,21,23,-1,-1,25,27,29,-1,31,33,35,-1,37,39,-1,41,43,45,-1,-1,47,-1,-1,49,-1,-1,-1,-1,51,-1,-1,53,55,-1,-1,-1,-1,-1,-1,-1,-1,-1,-1,-1,-1,-1,-1],"loss_changes":[4.4113654E-4,1.9794294E-4,7.187956E-4,4.3077453E-4,3.2799793E-4,3.1484885E-4,9.89541E-4,3.7141173E-5,5.3014082E-5,3.5631403E-4,5.910976E-4,7.9138984E-4,0E0,0E0,1.8560838E-4,1.3127128E-4,6.263388E-5,0E0,1.3229945E-4,4.530188E-4,3.2030162E-5,0E0,4.912101E-4,4.2131403E-5,0E0,2.0001555E-4,9.096344E-6,1.1484332E-4,0E0,0E0,2.3732113E-5,0E0,0E0,4.606156E-4,0E0,0E0,0E0,0E0,6.566086E-4,0E0,0E0,3.0848646E-4,8.6321495E-4,0E0,0E0,0E0,0E0,0E0,0E0,0E0,0E0,0E0,0E0,0E0,0E0,0E0,0E0],"parents":[2147483647,0,0,1,1,2,2,3,3,4,4,5,5,6,6,7,7,8,8,9,9,10,10,11,11,14,14,15,15,16,16,18,18,19,19,20,20,22,22,23,23,25,25,26,26,27,27,30,30,33,33,38,38,41,41,42,42],"right_children":[2,4,6,8,10,12,14,16,18,20,22,24,-1,-1,26,28,30,-1,32,34,36,-1,38,40,-1,42,44,46,-1,-1,48,-1,-1,50,-1,-1,-1,-1,52,-1,-1,54,56,-1,-1,-1,-1,-1,-1,-1,-1,-1,-1,-1,-1,-1,-1],"split_conditions":[8.757971E-1,1.564404E-1,9.1363186E-1,1.1456709E-1,2.1864815E-1,8.9924896E-1,9.2241746E-1,6.468754E-2,1.4354542E-1,1.9817203E-1,2.2899249E-1,8.974777E-1,7.579279E-3,-5.995122E-3,9.938359E-1,4.98087E-2,6.660054E-2,-3.8819797E-3,1.4715885E-1,1.9236219E-1,2.0972085E-1,-3.7430536E-3,2.2948845E-1,8.777101E-1,-3.2813163E-3,9.32195E-1,1E0,3.5850927E-2,2.6585297E-3,-1.7218221E-3,1.07127674E-1,9.619542E-4,-2.6188327E-3,1.9172452E-1,-3.6280723E-3,5.379175E-3,1.2121126E-3,4.6232343E-3,2.3069292E-1,1.2179107E-3,5.6197913E-3,9.257475E-1,9.370837E-1,3.2829405E-3,8.0309814E-4,8.777537E-4,-2.0732924E-3,1.1065208E-3,-2.5938416E-4,-2.1477924E-4,5.311383E-3,-5.5091903E-3,-3.7010443E-5,-2.4645927E-4,4.908085E-3,-5.8950665E-3,9.3434216E-4],"split_indices":[1,1,1,1,1,1,1,1,1,1,1,1,0,0,1,1,1,0,1,1,1,0,1,1,0,1,1,1,0,0,1,0,0,1,0,0,0,0,1,0,0,1,1,0,0,0,0,0,0,0,0,0,0,0,0,0,0],"split_type":[0,0,0,0,0,0,0,0,0,0,0,0,0,0,0,0,0,0,0,0,0,0,0,0,0,0,0,0,0,0,0,0,0,0,0,0,0,0,0,0,0,0,0,0,0,0,0,0,0,0,0,0,0,0,0,0,0],"sum_hessian":[1.97E2,1.76E2,2.1E1,1.3E1,1.63E2,4E0,1.7E1,8E0,5E0,8E0,1.55E2,3E0,1E0,1E0,1.6E1,4E0,4E0,3E0,2E0,6E0,2E0,3E0,1.52E2,2E0,1E0,1.3E1,3E0,3E0,1E0,1E0,3E0,1E0,1E0,5E0,1E0,1E0,1E0,1E0,1.51E2,1E0,1E0,3E0,1E1,2E0,1E0,2E0,1E0,1E0,2E0,4E0,1E0,1E0,1.5E2,2E0,1E0,1E0,9E0],"tree_param":{"num_deleted":"0","num_feature":"2","num_nodes":"57","size_leaf_vector":"1"}},{"base_weights":[8.981136E-5,-3.2391172E-4,3.4143194E-3,-1.12824986E-4,-4.769016E-3,1.2620425E-2,6.6738325E-4,-3.8522898E-4,1.1288248E-2,-6.6339197E-3,-1.2456328E-3,5.0382167E-3,6.442389E-3,-5.0958577E-3,2.7050166E-3,-1.2592177E-4,-1.0920517E-2,6.186998E-3,1.3021132E-3,-9.0957066E-4,-3.1562985E-3,6.4631306E-5,-7.7646377E-4,1.2915671E-2,-2.789122E-3,1.0790484E-3,7.719651E-3,-4.2238893E-4,7.2297337E-3,-7.073388E-3,1.1579493E-3,7.929772E-4,-2.0702631E-4,-4.0454866E-4,4.3363275E-4,1.0352255E-3,4.7768266E-3,6.4602047E-3,-9.75831E-4,4.3902667E-3,5.3672E-4,-2.2640992E-5,-4.258065E-3,1.3121769E-3,-7.910997E-4,-1.9716621E-4,4.1718725E-3,-5.0108046E-3,6.801367E-4,-1.7230422E-3,1.9645663E-3],"categories":[],"categories_nodes":[],"categories_segments":[],"categories_sizes":[],"default_left":[0,0,0,0,0,0,0,0,0,0,0,0,0,0,0,0,0,0,0,0,0,0,0,0,0,0,0,0,0,0,0,0,0,0,0,0,0,0,0,0,0,0,0,0,0,0,0,0,0,0,0],"id":21,"left_children":[1,3,5,7,9,11,13,15,17,19,21,23,-1,-1,25,27,29,-1,31,-1,-1,33,-1,35,-1,37,39,41,-1,-1,43,-1,-1,-1,-1,-1,-1,45,47,-1,49,-1,-1,-1,-1,-1,-1,-1,-1,-1,-1],"loss_changes":[2.7344024E-4,1.655415E-4,5.4792623E-4,5.323172E-4,4.430274E-5,2.2747822E-4,6.934351E-4,4.548482E-4,3.4603145E-4,3.810793E-5,7.203816E-6,5.7178026E-4,0E0,0E0,1.3028194E-4,1.1880151E-3,6.38832E-4,0E0,9.839565E-6,0E0,0E0,7.802956E-6,0E0,3.043993E-5,0E0,1.6111085E-4,1.9081307E-4,7.776575E-4,0E0,0E0,4.814739E-5,0E0,0E0,0E0,0E0,0E0,0E0,2.211259E-4,5.9888285E-4,0E0,1.5087788E-4,0E0,0E0,0E0,0E0,0E0,0E0,0E0,0E0,0E0,0E0],"parents":[2147483647,0,0,1,1,2,2,3,3,4,4,5,5,6,6,7,7,8,8,9,9,10,10,11,11,14,14,15,15,16,16,18,18,21,21,23,23,25,25,26,26,27,27,30,30,37,37,38,38,40,40],"right_children":[2,4,6,8,10,12,14,16,18,20,22,24,-1,-1,26,28,30,-1,32,-1,-1,34,-1,36,-1,38,40,42,-1,-1,44,-1,-1,-1,-1,-1,-1,46,48,-1,50,-1,-1,-1,-1,-1,-1,-1,-1,-1,-1],"split_conditions":[8.757971E-1,8.196826E-1,9.1363186E-1,8.0140287E-1,8.353408E-1,8.9924896E-1,9.2241746E-1,7.814227E-1,8.0834633E-1,8.3314437E-1,8.6120164E-1,8.974777E-1,6.442389E-3,-5.0958577E-3,2.083591E-1,7.78872E-1,7.968684E-1,6.186998E-3,8.184781E-1,-9.0957066E-4,-3.1562985E-3,8.43843E-1,-7.7646377E-4,8.777101E-1,-2.789122E-3,9.32195E-1,2.1150678E-1,7.519484E-1,7.2297337E-3,-7.073388E-3,8.001275E-1,7.929772E-4,-2.0702631E-4,-4.0454866E-4,4.3363275E-4,1.0352255E-3,4.7768266E-3,9.257475E-1,9.370837E-1,4.3902667E-3,2.1335436E-1,-2.2640992E-5,-4.258065E-3,1.3121769E-3,-7.910997E-4,-1.9716621E-4,4.1718725E-3,-5.0108046E-3,6.801367E-4,-1.7230422E-3,1.9645663E-3],"split_indices":[1,1,1,1,1,1,1,1,1,1,1,1,0,0,0,1,1,0,1,0,0,1,0,1,0,1,0,1,0,0,1,0,0,0,0,0,0,1,1,0,0,0,0,0,0,0,0,0,0,0,0],"split_type":[0,0,0,0,0,0,0,0,0,0,0,0,0,0,0,0,0,0,0,0,0,0,0,0,0,0,0,0,0,0,0,0,0,0,0,0,0,0,0,0,0,0,0,0,0,0,0,0,0,0,0],"sum_hessian":[1.97E2,1.76E2,2.1E1,1.69E2,7E0,4E0,1.7E1,1.66E2,3E0,4E0,3E0,3E0,1E0,1E0,1.6E1,1.63E2,3E0,1E0,2E0,3E0,1E0,2E0,1E0,2E0,1E0,1.3E1,3E0,1.62E2,1E0,1E0,2E0,1E0,1E0,1E0,1E0,1E0,1E0,3E0,1E1,1E0,2E0,1.59E2,3E0,1E0,1E0,2E0,1E0,1E0,9E0,1E0,1E0],"tree_param":{"num_deleted":"0","num_feature":"2","num_nodes":"51","size_leaf_vector":"1"}},{"base_weights":[9.8235774E-5,-5.997593E-4,1.7528301E-3,-4.9423834E-6,-6.4102826E-3,1.15153E-2,1.2082646E-3,-3.9229204E-4,7.37827E-3,-3.5827036E-3,-2.6246607E-3,4.2079392E-4,4.761091E-3,-5.490631E-3,1.8174384E-3,2.3351342E-5,-5.274001E-3,6.170811E-3,-8.095086E-3,3.523906E-3,-1.26749575E-2,1.2339825E-2,7.0663495E-4,-4.8726253E-4,9.500921E-3,-1.226089E-2,-8.6405873E-4,-2.0859363E-3,3.6716938E-3,-4.561141E-3,-1.1425898E-3,6.242469E-4,8.880321E-3,-4.7094524E-3,1.7387157E-3,-3.4541357E-5,-6.93879E-3,-1.5532196E-3,-4.5772255E-3,2.8076232E-3,-4.7298702E-3,5.5469694E-3,-3.4482807E-3,6.1856615E-3,2.6401237E-4],"categories":[],"categories_nodes":[],"categories_segments":[],"categories_sizes":[],"default_left":[0,0,0,0,0,0,0,0,0,0,0,0,0,0,0,0,0,0,0,0,0,0,0,0,0,0,0,0,0,0,0,0,0,0,0,0,0,0,0,0,0,0,0,0,0],"id":22,"left_children":[1,3,5,7,9,11,13,15,-1,-1,17,-1,-1,19,21,23,-1,-1,25,27,29,31,33,35,-1,37,39,-1,-1,-1,-1,41,-1,-1,43,-1,-1,-1,-1,-1,-1,-1,-1,-1,-1],"loss_changes":[2.2972122E-4,4.8383596E-4,2.9974844E-4,1.2292938E-3,2.4090521E-4,1.0986152E-4,2.42584E-4,9.0769323E-4,0E0,0E0,1.3084416E-3,0E0,0E0,3.6848226E-4,6.107603E-4,2.0353168E-3,0E0,0E0,2.3039023E-4,3.5902325E-4,9.359006E-6,9.926488E-4,8.56918E-4,1.042119E-3,0E0,2.7135713E-5,7.569201E-4,0E0,0E0,0E0,0E0,1.0785486E-3,0E0,0E0,7.4381416E-4,0E0,0E0,0E0,0E0,0E0,0E0,0E0,0E0,0E0,0E0],"parents":[2147483647,0,0,1,1,2,2,3,3,4,4,5,5,6,6,7,7,10,10,13,13,14,14,15,15,18,18,19,19,20,20,21,21,22,22,23,23,25,25,26,26,31,31,34,34],"right_children":[2,4,6,8,10,12,14,16,-1,-1,18,-1,-1,20,22,24,-1,-1,26,28,30,32,34,36,-1,38,40,-1,-1,-1,-1,42,-1,-1,44,-1,-1,-1,-1,-1,-1,-1,-1,-1,-1],"split_conditions":[6.727363E-1,6.295168E-1,6.7656225E-1,6.245572E-1,6.409947E-1,6.734448E-1,6.971801E-1,6.225733E-1,7.37827E-3,-3.5827036E-3,6.5041804E-1,4.2079392E-4,4.761091E-3,6.8322235E-1,7.2134054E-1,6.1796796E-1,-5.274001E-3,6.170811E-3,6.6650134E-1,6.778376E-1,6.847102E-1,7.2041947E-1,7.298427E-1,6.1364603E-1,9.500921E-3,6.56157E-1,6.7089415E-1,-2.0859363E-3,3.6716938E-3,-4.561141E-3,-1.1425898E-3,7.152473E-1,8.880321E-3,-4.7094524E-3,7.304804E-1,-3.4541357E-5,-6.93879E-3,-1.5532196E-3,-4.5772255E-3,2.8076232E-3,-4.7298702E-3,5.5469694E-3,-3.4482807E-3,6.1856615E-3,2.6401237E-4],"split_indices":[1,1,1,1,1,1,1,1,0,0,1,0,0,1,1,1,0,0,1,1,1,1,1,1,0,1,1,0,0,0,0,1,0,0,1,0,0,0,0,0,0,0,0,0,0],"split_type":[0,0,0,0,0,0,0,0,0,0,0,0,0,0,0,0,0,0,0,0,0,0,0,0,0,0,0,0,0,0,0,0,0,0,0,0,0,0,0,0,0,0,0,0,0],"sum_hessian":[1.97E2,1.39E2,5.8E1,1.27E2,1.2E1,2E0,5.6E1,1.26E2,1E0,4E0,8E0,1E0,1E0,4E0,5.2E1,1.24E2,2E0,1E0,7E0,2E0,2E0,4E0,4.8E1,1.23E2,1E0,4E0,3E0,1E0,1E0,1E0,1E0,3E0,1E0,2E0,4.6E1,1.22E2,1E0,2E0,2E0,2E0,1E0,1E0,2E0,1E0,4.5E1],"tree_param":{"num_deleted":"0","num_feature":"2","num_nodes":"45","size_leaf_vector":"1"}},{"base_weights":[1.341727E-4,-1.2182358E-3,8.8328857E-4,-1.1480275E-4,-1.17687825E-2,1.6234897E-2,3.8497077E-4,7.035279E-4,-7.5802826E-3,1.1578695E-3,5.722046E-3,-9.216271E-3,8.8357384E-4,-6.1070145E-4,1.6333574E-2,-1.5120902E-2,7.957339E-3,1.0362449E-2,-1.3085158E-4,3.8785976E-4,-4.406257E-3,1.8275939E-2,1.2846172E-3,8.665085E-3,-9.726703E-3,6.3125463E-3,8.236706E-3,-9.950737E-3,4.6028584E-4,-3.7204314E-4,3.6580863E-3,2.1908672E-3,7.679263E-3,-3.738451E-3,-2.2834541E-4,3.7220444E-3,3.1731173E-4,9.0246545E-3,-2.3276623E-5],"categories":[],"categories_nodes":[],"categories_segments":[],"categories_sizes":[],"default_left":[0,0,0,0,0,0,0,0,0,0,0,0,0,0,0,0,0,0,0,0,0,0,0,0,0,0,0,0,0,0,0,0,0,0,0,0,0,0,0],"id":23,"left_children":[1,3,5,7,-1,9,11,13,15,-1,-1,-1,17,19,21,-1,23,25,27,29,-1,31,-1,-1,33,35,-1,-1,37,-1,-1,-1,-1,-1,-1,-1,-1,-1,-1],"loss_changes":[2.0167195E-4,2.9734233E-3,9.729474E-4,4.3297908E-4,0E0,6.689853E-5,1.9658296E-3,1.3246287E-3,5.058617E-3,0E0,0E0,0E0,1.1936919E-3,8.490908E-4,3.878353E-5,0E0,2.5013094E-3,6.5739604E-4,2.222175E-3,1.1106515E-3,0E0,1.3442524E-4,0E0,0E0,8.8590896E-5,3.3914568E-4,0E0,0E0,1.7868148E-3,0E0,0E0,0E0,0E0,0E0,0E0,0E0,0E0,0E0,0E0],"parents":[2147483647,0,0,1,1,2,2,3,3,5,5,6,6,7,7,8,8,12,12,13,13,14,14,16,16,17,17,18,18,19,19,21,21,24,24,25,25,28,28],"right_children":[2,4,6,8,-1,10,12,14,16,-1,-1,-1,18,20,22,-1,24,26,28,30,-1,32,-1,-1,34,36,-1,-1,38,-1,-1,-1,-1,-1,-1,-1,-1,-1,-1],"split_conditions":[3.9506873E-1,3.936517E-1,3.9960322E-1,3.6793256E-1,-1.17687825E-2,3.979028E-1,4.1937083E-1,3.615559E-1,3.6998725E-1,1.1578695E-3,5.722046E-3,-9.216271E-3,4.5352134E-1,3.5602948E-1,3.6764914E-1,-1.5120902E-2,3.762222E-1,4.477115E-1,4.569222E-1,3.341363E-1,-4.406257E-3,3.653819E-1,1.2846172E-3,8.665085E-3,3.826697E-1,4.3694204E-1,8.236706E-3,-9.950737E-3,4.691087E-1,-3.7204314E-4,3.6580863E-3,2.1908672E-3,7.679263E-3,-3.738451E-3,-2.2834541E-4,3.7220444E-3,3.1731173E-4,9.0246545E-3,-2.3276623E-5],"split_indices":[1,1,1,1,0,1,1,1,1,0,0,0,1,1,1,0,1,1,1,1,0,1,0,0,1,1,0,0,1,0,0,0,0,0,0,0,0,0,0],"split_type":[0,0,0,0,0,0,0,0,0,0,0,0,0,0,0,0,0,0,0,0,0,0,0,0,0,0,0,0,0,0,0,0,0,0,0,0,0,0,0],"sum_hessian":[1.97E2,7E1,1.27E2,6.9E1,1E0,3E0,1.24E2,6.3E1,6E0,1E0,2E0,1E0,1.23E2,5.9E1,4E0,1E0,5E0,1.1E1,1.12E2,5.6E1,3E0,3E0,1E0,2E0,3E0,1E1,1E0,1E0,1.11E2,5E1,6E0,2E0,1E0,2E0,1E0,4E0,6E0,1E0,1.1E2],"tree_param":{"num_deleted":"0","num_feature":"2","num_nodes":"39","size_leaf_vector":"1"}},{"base_weights":[7.7932404E-5,-8.004441E-4,1.3302753E-3,1.7700731E-4,-1.8912798E-2,2.2354923E-2,2.488973E-4,-7.708299E-4,1.4504684E-2,-9.726191E-3,-9.7268745E-3,1.56641E-4,8.8375425E-3,-6.894264E-3,1.1507211E-3,4.5419336E-4,-1.0404695E-2,8.312627E-3,7.6858797E-3,-2.4085797E-2,7.156836E-3,7.5517506E-3,5.034279E-4,-7.9560245E-4,2.3109639E-2,-1.8239578E-2,-2.9628657E-4,-5.4835663E-3,1.6534477E-2,-2.2625953E-3,-1.10575855E-2,-5.8944807E-3,1.0340941E-3,7.323397E-5,-7.0411344E-3,9.544084E-3,2.010736E-3,5.184206E-3,-3.8426823E-3,6.0839187E-3,2.3302139E-4,8.079275E-3,9.606175E-5],"categories":[],"categories_nodes":[],"categories_segments":[],"categories_sizes":[],"default_left":[0,0,0,0,0,0,0,0,0,0,0,0,0,0,0,0,0,0,0,0,0,0,0,0,0,0,0,0,0,0,0,0,0,0,0,0,0,0,0,0,0,0,0],"id":24,"left_children":[1,3,5,7,9,11,13,15,17,19,-1,-1,-1,-1,21,23,25,-1,27,29,-1,-1,31,33,35,-1,37,-1,39,-1,-1,-1,41,-1,-1,-1,-1,-1,-1,-1,-1,-1,-1],"loss_changes":[2.188705E-4,2.0747094E-3,1.8587545E-3,1.5321748E-3,4.293213E-4,6.049799E-4,1.6814286E-3,1.2557069E-3,4.172856E-4,2.9857375E-3,0E0,0E0,0E0,0E0,1.1846108E-3,2.7082805E-3,6.0948115E-3,0E0,1.6807194E-3,5.672574E-4,0E0,0E0,8.3304883E-4,2.1510902E-3,5.008094E-4,0E0,2.6406276E-3,0E0,2.7933135E-4,0E0,0E0,0E0,1.3779342E-3,0E0,0E0,0E0,0E0,0E0,0E0,0E0,0E0,0E0,0E0],"parents":[2147483647,0,0,1,1,2,2,3,3,4,4,5,5,6,6,7,7,8,8,9,9,14,14,15,15,16,16,18,18,19,19,22,22,23,23,24,24,26,26,28,28,32,32],"right_children":[2,4,6,8,10,12,14,16,18,20,-1,-1,-1,-1,22,24,26,-1,28,30,-1,-1,32,34,36,-1,38,-1,40,-1,-1,-1,42,-1,-1,-1,-1,-1,-1,-1,-1,-1,-1],"split_conditions":[5.8346325E-1,5.5944455E-1,5.989797E-1,5.514383E-1,5.805583E-1,5.8395916E-1,6.0960746E-1,5.2295595E-1,5.5349296E-1,5.673799E-1,-9.7268745E-3,1.56641E-4,8.8375425E-3,-6.894264E-3,6.1364603E-1,4.8072836E-1,5.2508146E-1,8.312627E-3,5.541307E-1,5.661754E-1,7.156836E-3,7.5517506E-3,6.1796796E-1,4.691087E-1,5.0857306E-1,-1.8239578E-2,5.347173E-1,-5.4835663E-3,5.5866516E-1,-2.2625953E-3,-1.10575855E-2,-5.8944807E-3,6.225733E-1,7.323397E-5,-7.0411344E-3,9.544084E-3,2.010736E-3,5.184206E-3,-3.8426823E-3,6.0839187E-3,2.3302139E-4,8.079275E-3,9.606175E-5],"split_indices":[1,1,1,1,1,1,1,1,1,1,0,0,0,0,1,1,1,0,1,1,0,0,1,1,1,0,1,0,1,0,0,0,1,0,0,0,0,0,0,0,0,0,0],"split_type":[0,0,0,0,0,0,0,0,0,0,0,0,0,0,0,0,0,0,0,0,0,0,0,0,0,0,0,0,0,0,0,0,0,0,0,0,0,0,0,0,0,0,0],"sum_hessian":[1.97E2,1.16E2,8.1E1,1.11E2,5E0,3E0,7.8E1,1.05E2,6E0,4E0,1E0,1E0,2E0,2E0,7.6E1,9.4E1,1.1E1,1E0,5E0,3E0,1E0,1E0,7.5E1,9E1,4E0,1E0,1E1,1E0,4E0,2E0,1E0,1E0,7.4E1,8.7E1,3E0,2E0,2E0,4E0,6E0,3E0,1E0,1E0,7.3E1],"tree_param":{"num_deleted":"0","num_feature":"2","num_nodes":"43","size_leaf_vector":"1"}},{"base_weights":[1.8581504E-5,-1.16923315E-4,6.619796E-3,-1.1266877E-3,5.3743616E-4,2.2945227E-3,5.300939E-4,5.7717663E-4,-8.835304E-3,1.0726035E-2,-3.9368583E-4,-5.181678E-4,1.3605875E-2,-1.2863752E-2,-2.918147E-3,4.723915E-3,5.564471E-3,-8.469111E-3,1.2069079E-4,2.5720993E-4,-3.4313279E-3,5.793502E-3,1.6882956E-2,2.3058077E-2,-9.737286E-3,5.559814E-3,-4.506147E-3,7.6599736E-3,-3.5102956E-4,-2.0610039E-4,3.8819278E-3,3.7372024E-3,-1.1301264E-3,6.5163914E-3,1.0809392E-3,8.706728E-3,1.669407E-3,-5.891052E-3,-3.8254051E-4,-4.2646634E-3,4.425265E-4,-5.4568807E-3,9.956347E-5],"categories":[],"categories_nodes":[],"categories_segments":[],"categories_sizes":[],"default_left":[0,0,0,0,0,0,0,0,0,0,0,0,0,0,0,0,0,0,0,0,0,0,0,0,0,0,0,0,0,0,0,0,0,0,0,0,0,0,0,0,0,0,0],"id":25,"left_children":[1,3,5,7,9,-1,-1,11,13,15,17,19,21,-1,23,25,-1,-1,27,29,-1,31,33,35,37,-1,39,-1,41,-1,-1,-1,-1,-1,-1,-1,-1,-1,-1,-1,-1,-1,-1],"loss_changes":[1.7788429E-4,1.2945157E-4,6.4520864E-6,1.0164513E-3,1.1331553E-3,0E0,0E0,9.2038856E-4,2.695073E-3,3.818774E-4,1.5784464E-3,5.1095034E-4,3.0197494E-5,0E0,2.527284E-3,9.757037E-4,0E0,0E0,1.3156133E-3,6.9146487E-4,0E0,2.3805862E-4,1.1449255E-4,1.515093E-4,8.964471E-4,0E0,3.113401E-4,0E0,1.3217035E-3,0E0,0E0,0E0,0E0,0E0,0E0,0E0,0E0,0E0,0E0,0E0,0E0,0E0,0E0],"parents":[2147483647,0,0,1,1,2,2,3,3,4,4,7,7,8,8,9,9,10,10,11,11,12,12,14,14,15,15,18,18,19,19,21,21,22,22,23,23,24,24,26,26,28,28],"right_children":[2,4,6,8,10,-1,-1,12,14,16,18,20,22,-1,24,26,-1,-1,28,30,-1,32,34,36,38,-1,40,-1,42,-1,-1,-1,-1,-1,-1,-1,-1,-1,-1,-1,-1,-1,-1],"split_conditions":[9.938359E-1,4.30282E-1,1E0,3.6793256E-1,4.5352134E-1,2.2945227E-3,5.300939E-4,3.615559E-1,3.6998725E-1,4.4615275E-1,4.569222E-1,3.5602948E-1,3.653819E-1,-1.2863752E-2,3.762222E-1,4.3694204E-1,5.564471E-3,-8.469111E-3,4.691087E-1,3.3923763E-1,-3.4313279E-3,3.6438996E-1,3.6764914E-1,3.7175855E-1,3.9506873E-1,5.559814E-3,4.433187E-1,7.6599736E-3,4.8072836E-1,-2.0610039E-4,3.8819278E-3,3.7372024E-3,-1.1301264E-3,6.5163914E-3,1.0809392E-3,8.706728E-3,1.669407E-3,-5.891052E-3,-3.8254051E-4,-4.2646634E-3,4.425265E-4,-5.4568807E-3,9.956347E-5],"split_indices":[1,1,1,1,1,0,0,1,1,1,1,1,1,0,1,1,0,0,1,1,0,1,1,1,1,0,1,0,1,0,0,0,0,0,0,0,0,0,0,0,0,0,0],"split_type":[0,0,0,0,0,0,0,0,0,0,0,0,0,0,0,0,0,0,0,0,0,0,0,0,0,0,0,0,0,0,0,0,0,0,0,0,0,0,0,0,0,0,0],"sum_hessian":[1.97E2,1.94E2,3E0,7.6E1,1.18E2,2E0,1E0,6.3E1,1.3E1,9E0,1.09E2,5.9E1,4E0,1E0,1.2E1,6E0,3E0,1E0,1.08E2,5.6E1,3E0,2E0,2E0,2E0,1E1,2E0,4E0,1E0,1.07E2,5.3E1,3E0,1E0,1E0,1E0,1E0,1E0,1E0,4E0,6E0,1E0,3E0,3E0,1.04E2],"tree_param":{"num_deleted":"0","num_feature":"2","num_nodes":"43","size_leaf_vector":"1"}},{"base_weights":[4.1533272E-5,-7.445815E-5,5.685732E-3,-2.6727833E-3,1.2582213E-4,3.6662847E-3,-5.663236E-4,1.030372E-3,-7.7820527E-3,5.4072905E-3,-1.4808038E-4,-1.5300304E-3,1.2751848E-3,2.51735E-3,-6.6268037E-4,-2.8820639E-3,-2.7549323E-3,1.4558265E-3,1.2824942E-2,-3.3393705E-3,4.4347198E-5,-7.600859E-4,2.3440642E-3,-1.3792347E-3,1.470374E-3,9.019747E-4,-2.1416943E-3,5.0312937E-3,-2.999547E-3,4.656619E-3,1.1146055E-3,7.7207335E-3,-9.137931E-5,8.146219E-4,-1.6779845E-3,1.024857E-3,-9.5088406E-5,-2.832994E-5,4.5989896E-3,-5.397387E-4,4.014069E-3,-4.5985E-3,2.6844113E-5],"categories":[],"categories_nodes":[],"categories_segments":[],"categories_sizes":[],"default_left":[0,0,0,0,0,0,0,0,0,0,0,0,0,0,0,0,0,0,0,0,0,0,0,0,0,0,0,0,0,0,0,0,0,0,0,0,0,0,0,0,0,0,0],"id":26,"left_children":[1,3,5,7,9,-1,11,13,15,17,19,-1,-1,21,23,-1,25,27,29,-1,31,33,-1,-1,35,-1,-1,37,-1,-1,-1,39,41,-1,-1,-1,-1,-1,-1,-1,-1,-1,-1],"loss_changes":[1.3004971E-4,1.0181299E-4,1.7035517E-4,2.7290423E-4,2.6408324E-4,0E0,8.719537E-5,2.4325986E-5,2.857545E-5,2.451244E-4,3.68236E-4,0E0,0E0,9.272869E-5,4.8725342E-5,0E0,9.7240205E-5,3.3698705E-4,1.6039063E-5,0E0,1.7991044E-4,8.237896E-5,0E0,0E0,1.4994102E-5,0E0,0E0,3.181767E-4,0E0,0E0,0E0,1.8570563E-4,4.6984915E-4,0E0,0E0,0E0,0E0,0E0,0E0,0E0,0E0,0E0,0E0],"parents":[2147483647,0,0,1,1,2,2,3,3,4,4,6,6,7,7,8,8,9,9,10,10,13,13,14,14,16,16,17,17,18,18,20,20,21,21,24,24,27,27,31,31,32,32],"right_children":[2,4,6,8,10,-1,12,14,16,18,20,-1,-1,22,24,-1,26,28,30,-1,32,34,-1,-1,36,-1,-1,38,-1,-1,-1,40,42,-1,-1,-1,-1,-1,-1,-1,-1,-1,-1],"split_conditions":[2.083591E-1,1.564404E-1,2.1150678E-1,1.1456709E-1,2.1864815E-1,3.6662847E-3,2.1335436E-1,6.468754E-2,1.4354542E-1,1.9817203E-1,2.2311181E-1,-1.5300304E-3,1.2751848E-3,4.98087E-2,6.660054E-2,-2.8820639E-3,1.4715885E-1,1.9236219E-1,2.0972085E-1,-3.3393705E-3,2.2948845E-1,3.5850927E-2,2.3440642E-3,-1.3792347E-3,1.07127674E-1,9.019747E-4,-2.1416943E-3,1.9172452E-1,-2.999547E-3,4.656619E-3,1.1146055E-3,2.2899249E-1,2.3069292E-1,8.146219E-4,-1.6779845E-3,1.024857E-3,-9.5088406E-5,-2.832994E-5,4.5989896E-3,-5.397387E-4,4.014069E-3,-4.5985E-3,2.6844113E-5],"split_indices":[0,1,0,1,1,0,0,1,1,1,1,0,0,1,1,0,1,1,1,0,1,1,0,0,1,0,0,1,0,0,0,1,1,0,0,0,0,0,0,0,0,0,0],"split_type":[0,0,0,0,0,0,0,0,0,0,0,0,0,0,0,0,0,0,0,0,0,0,0,0,0,0,0,0,0,0,0,0,0,0,0,0,0,0,0,0,0,0,0],"sum_hessian":[1.97E2,1.94E2,3E0,1.3E1,1.81E2,1E0,2E0,8E0,5E0,8E0,1.73E2,1E0,1E0,4E0,4E0,3E0,2E0,6E0,2E0,2E0,1.71E2,3E0,1E0,1E0,3E0,1E0,1E0,5E0,1E0,1E0,1E0,2E0,1.69E2,2E0,1E0,1E0,2E0,4E0,1E0,1E0,1E0,1E0,1.68E2],"tree_param":{"num_deleted":"0","num_feature":"2","num_nodes":"43","size_leaf_vector":"1"}},{"base_weights":[4.53657E-5,-5.6660232E-5,5.0077885E-3,3.419726E-5,-1.7648818E-3,1.705414E-3,4.4655206E-4,-6.260822E-5,2.7931274E-3,7.0198126E-5,-1.8966169E-3,-1.0809276E-4,2.5029527E-3,1.4193169E-5,-4.3286565E-3],"categories":[],"categories_nodes":[],"categories_segments":[],"categories_sizes":[],"default_left":[0,0,0,0,0,0,0,0,0,0,0,0,0,0,0],"id":27,"left_children":[1,3,5,7,-1,-1,-1,9,-1,11,-1,13,-1,-1,-1],"loss_changes":[1.0053032E-4,1.0342659E-4,1.0674266E-6,1.7389489E-4,0E0,0E0,0E0,1.6005232E-4,0E0,2.7967617E-4,0E0,4.146245E-4,0E0,0E0,0E0],"parents":[2147483647,0,0,1,1,2,2,3,3,7,7,9,9,11,11],"right_children":[2,4,6,8,-1,-1,-1,10,-1,12,-1,14,-1,-1,-1],"split_conditions":[9.938359E-1,9.786028E-1,1E0,9.762647E-1,-1.7648818E-3,1.705414E-3,4.4655206E-4,9.6613294E-1,2.7931274E-3,9.370837E-1,-1.8966169E-3,9.32195E-1,2.5029527E-3,1.4193169E-5,-4.3286565E-3],"split_indices":[1,1,1,1,0,0,0,1,0,1,0,1,0,0,0],"split_type":[0,0,0,0,0,0,0,0,0,0,0,0,0,0,0],"sum_hessian":[1.97E2,1.94E2,3E0,1.92E2,2E0,2E0,1E0,1.91E2,1E0,1.88E2,3E0,1.85E2,3E0,1.84E2,1E0],"tree_param":{"num_deleted":"0","num_feature":"2","num_nodes":"15","size_leaf_vector":"1"}},{"base_weights":[2.909559E-5,-4.247234E-4,1.105461E-3,-3.4454035E-5,-6.8598613E-3,4.4721793E-3,-3.6373877E-4,-2.9800704E-4,5.213182E-3,-9.979427E-3,-1.245439E-3,1.2469869E-3,2.0182481E-2,-1.0132988E-2,1.2302946E-3,5.388647E-5,-9.24688E-3,-1.285255E-3,-3.7044585E-3,7.344743E-3,-4.052398E-3,3.9142603E-3,-3.4847856E-3,8.05686E-3,1.0252566E-3,-4.1210875E-3,-4.431358E-3,1.3124148E-2,1.7567021E-4,-2.732231E-4,6.2395204E-3,-4.25414E-3,-4.4683665E-3,3.2552185E-3,4.991591E-5,1.5354569E-3,5.225806E-3,-2.776024E-3,1.6913832E-3,-1.6779453E-4,6.0736616E-3,-6.083988E-3,1.3737758E-3,1.900668E-5,-4.2618783E-3,3.470868E-4,-3.2016502E-3,1.5835454E-3,-3.810239E-3,2.7435177E-3,9.801427E-5],"categories":[],"categories_nodes":[],"categories_segments":[],"categories_sizes":[],"default_left":[0,0,0,0,0,0,0,0,0,0,0,0,0,0,0,0,0,0,0,0,0,0,0,0,0,0,0,0,0,0,0,0,0,0,0,0,0,0,0,0,0,0,0,0,0,0,0,0,0,0,0],"id":28,"left_children":[1,3,5,7,9,11,13,15,-1,17,19,21,23,25,27,29,31,-1,-1,33,-1,35,-1,-1,-1,37,-1,39,41,43,-1,-1,45,-1,-1,47,-1,-1,-1,-1,-1,-1,49,-1,-1,-1,-1,-1,-1,-1,-1],"loss_changes":[9.7187585E-5,3.5136487E-4,2.9346326E-4,6.15504E-4,1.2768767E-4,8.868701E-4,6.6651194E-4,4.1617296E-4,0E0,1.4551682E-5,5.20563E-4,5.9441145E-4,2.4387229E-4,1.0643323E-4,4.6180576E-4,8.7425584E-4,5.4512493E-5,0E0,0E0,7.369621E-5,0E0,4.230168E-4,0E0,0E0,0E0,2.525163E-4,0E0,3.0365947E-4,8.856402E-4,5.964746E-4,0E0,0E0,1.5194074E-4,0E0,0E0,7.5976783E-4,0E0,0E0,0E0,0E0,0E0,0E0,2.736706E-4,0E0,0E0,0E0,0E0,0E0,0E0,0E0,0E0],"parents":[2147483647,0,0,1,1,2,2,3,3,4,4,5,5,6,6,7,7,9,9,10,10,11,11,12,12,13,13,14,14,15,15,16,16,19,19,21,21,25,25,27,27,28,28,29,29,32,32,35,35,42,42],"right_children":[2,4,6,8,10,12,14,16,-1,18,20,22,24,26,28,30,32,-1,-1,34,-1,36,-1,-1,-1,38,-1,40,42,44,-1,-1,46,-1,-1,48,-1,-1,-1,-1,-1,-1,50,-1,-1,-1,-1,-1,-1,-1,-1],"split_conditions":[6.727363E-1,6.5041804E-1,7.4132067E-1,6.409947E-1,6.6650134E-1,7.379907E-1,7.559161E-1,6.295168E-1,5.213182E-3,6.56157E-1,6.7089415E-1,7.304804E-1,7.4047047E-1,7.519484E-1,7.814227E-1,6.245572E-1,6.3320106E-1,-1.285255E-3,-3.7044585E-3,6.6883945E-1,-4.052398E-3,7.298427E-1,-3.4847856E-3,8.05686E-3,1.0252566E-3,7.4783903E-1,-4.431358E-3,7.78872E-1,7.968684E-1,6.225733E-1,6.2395204E-3,-4.25414E-3,6.369562E-1,3.2552185E-3,4.991591E-5,7.2134054E-1,5.225806E-3,-2.776024E-3,1.6913832E-3,-1.6779453E-4,6.0736616E-3,-6.083988E-3,8.0834633E-1,1.900668E-5,-4.2618783E-3,3.470868E-4,-3.2016502E-3,1.5835454E-3,-3.810239E-3,2.7435177E-3,9.801427E-5],"split_indices":[1,1,1,1,1,1,1,1,0,1,1,1,1,1,1,1,1,0,0,1,0,1,0,0,0,1,0,1,1,1,0,0,1,0,0,1,0,0,0,0,0,0,1,0,0,0,0,0,0,0,0],"split_type":[0,0,0,0,0,0,0,0,0,0,0,0,0,0,0,0,0,0,0,0,0,0,0,0,0,0,0,0,0,0,0,0,0,0,0,0,0,0,0,0,0,0,0,0,0,0,0,0,0,0,0],"sum_hessian":[1.97E2,1.39E2,5.8E1,1.32E2,7E0,1.7E1,4.1E1,1.31E2,1E0,4E0,3E0,1.5E1,2E0,5E0,3.6E1,1.27E2,4E0,2E0,2E0,2E0,1E0,1.3E1,2E0,1E0,1E0,3E0,2E0,2E0,3.4E1,1.26E2,1E0,1E0,3E0,1E0,1E0,1.2E1,1E0,2E0,1E0,1E0,1E0,1E0,3.3E1,1.24E2,2E0,2E0,1E0,1E1,2E0,3E0,3E1],"tree_param":{"num_deleted":"0","num_feature":"2","num_nodes":"51","size_leaf_vector":"1"}},{"base_weights":[2.091154E-5,-5.53579E-4,8.4035646E-4,2.7994058E-4,-1.6020348E-2,1.7777272E-2,-2.7846309E-5,-4.519616E-4,1.1323039E-2,-8.168703E-3,-8.291786E-3,1.09201676E-4,7.0381076E-3,-5.547336E-3,6.9186365E-4,6.120566E-4,-8.837775E-3,7.0417915E-3,5.386E-3,-2.030982E-2,6.0593653E-3,6.395044E-3,1.3999837E-4,-3.6983204E-4,1.8360019E-2,-1.5527584E-2,-2.3055347E-4,-4.6849744E-3,1.2709832E-2,-6.1400034E-3,-9.422891E-3,-5.0342516E-3,5.89354E-4,5.7732905E-5,-5.0782147E-3,7.603345E-3,1.5766651E-3,3.9016881E-3,-2.8956095E-3,4.679125E-3,1.7412455E-4,-2.2796497E-3,-4.8335196E-4,6.843442E-3,-5.7623997E-6],"categories":[],"categories_nodes":[],"categories_segments":[],"categories_sizes":[],"default_left":[0,0,0,0,0,0,0,0,0,0,0,0,0,0,0,0,0,0,0,0,0,0,0,0,0,0,0,0,0,0,0,0,0,0,0,0,0,0,0,0,0,0,0,0,0],"id":29,"left_children":[1,3,5,7,9,11,13,15,17,19,-1,-1,-1,-1,21,23,25,-1,27,29,-1,-1,31,33,35,-1,37,-1,39,41,-1,-1,43,-1,-1,-1,-1,-1,-1,-1,-1,-1,-1,-1,-1],"loss_changes":[9.3676346E-5,1.5128317E-3,1.2062785E-3,9.1035396E-4,3.215894E-4,3.8730458E-4,1.0625612E-3,9.512111E-4,3.785048E-4,2.1322255E-3,0E0,0E0,0E0,0E0,8.734445E-4,1.6623097E-3,4.4212164E-3,0E0,1.1214004E-3,4.362741E-4,0E0,0E0,5.8775384E-4,8.5045816E-4,3.2443902E-4,0E0,1.4972788E-3,0E0,1.6605057E-4,7.577328E-6,0E0,0E0,1.0147035E-3,0E0,0E0,0E0,0E0,0E0,0E0,0E0,0E0,0E0,0E0,0E0,0E0],"parents":[2147483647,0,0,1,1,2,2,3,3,4,4,5,5,6,6,7,7,8,8,9,9,14,14,15,15,16,16,18,18,19,19,22,22,23,23,24,24,26,26,28,28,29,29,32,32],"right_children":[2,4,6,8,10,12,14,16,18,20,-1,-1,-1,-1,22,24,26,-1,28,30,-1,-1,32,34,36,-1,38,-1,40,42,-1,-1,44,-1,-1,-1,-1,-1,-1,-1,-1,-1,-1,-1,-1],"split_conditions":[5.8346325E-1,5.5944455E-1,5.989797E-1,5.514383E-1,5.805583E-1,5.8395916E-1,6.0960746E-1,5.2295595E-1,5.5349296E-1,5.673799E-1,-8.291786E-3,1.09201676E-4,7.0381076E-3,-5.547336E-3,6.1364603E-1,4.8072836E-1,5.2508146E-1,7.0417915E-3,5.541307E-1,5.661754E-1,6.0593653E-3,6.395044E-3,6.1796796E-1,4.696755E-1,5.0857306E-1,-1.5527584E-2,5.347173E-1,-4.6849744E-3,5.5866516E-1,5.6511265E-1,-9.422891E-3,-5.0342516E-3,6.225733E-1,5.7732905E-5,-5.0782147E-3,7.603345E-3,1.5766651E-3,3.9016881E-3,-2.8956095E-3,4.679125E-3,1.7412455E-4,-2.2796497E-3,-4.8335196E-4,6.843442E-3,-5.7623997E-6],"split_indices":[1,1,1,1,1,1,1,1,1,1,0,0,0,0,1,1,1,0,1,1,0,0,1,1,1,0,1,0,1,1,0,0,1,0,0,0,0,0,0,0,0,0,0,0,0],"split_type":[0,0,0,0,0,0,0,0,0,0,0,0,0,0,0,0,0,0,0,0,0,0,0,0,0,0,0,0,0,0,0,0,0,0,0,0,0,0,0,0,0,0,0,0,0],"sum_hessian":[1.97E2,1.16E2,8.1E1,1.11E2,5E0,3E0,7.8E1,1.05E2,6E0,4E0,1E0,1E0,2E0,2E0,7.6E1,9.4E1,1.1E1,1E0,5E0,3E0,1E0,1E0,7.5E1,9E1,4E0,1E0,1E1,1E0,4E0,2E0,1E0,1E0,7.4E1,8.8E1,2E0,2E0,2E0,4E0,6E0,3E0,1E0,1E0,1E0,1E0,7.3E1],"tree_param":{"num_deleted":"0","num_feature":"2","num_nodes":"45","size_leaf_vector":"1"}},{"base_weights":[-2.4611309E-5,-4.2182909E-4,1.1595899E-3,-2.155369E-4,-1.0389537E-2,7.279596E-3,1.928338E-4,-4.2003824E-4,4.446249E-3,-3.9741173E-3,-7.0117414E-4,-3.0470432E-3,8.493465E-4,-1.7654215E-4,-3.5903514E-3,8.871451E-3,-3.1689095E-4,-3.9726222E-4,7.6479763E-3,4.3796748E-4,1.7158946E-2,-8.007626E-3,9.388199E-4,1.4166848E-4,-6.438872E-4,3.7782493E-3,5.4035784E-4,4.442798E-3,-2.786678E-3,6.8491953E-3,8.723304E-4,-9.4548095E-4,-3.5439346E-3,3.3478083E-3,1.0785036E-5],"categories":[],"categories_nodes":[],"categories_segments":[],"categories_sizes":[],"default_left":[0,0,0,0,0,0,0,0,0,0,0,0,0,0,0,0,0,0,0,0,0,0,0,0,0,0,0,0,0,0,0,0,0,0,0],"id":30,"left_children":[1,3,5,7,9,-1,11,13,-1,-1,-1,-1,15,17,-1,19,21,23,25,27,29,31,33,-1,-1,-1,-1,-1,-1,-1,-1,-1,-1,-1,-1],"loss_changes":[9.362553E-5,3.0414344E-4,1.112201E-3,4.5824397E-4,3.806714E-5,0E0,3.4156567E-4,4.084164E-4,0E0,0E0,0E0,0E0,4.4252817E-4,2.5173032E-4,0E0,4.118396E-4,4.1312593E-4,2.154412E-4,9.299262E-5,6.9671747E-4,1.7609925E-4,7.364695E-5,3.4102803E-4,0E0,0E0,0E0,0E0,0E0,0E0,0E0,0E0,0E0,0E0,0E0,0E0],"parents":[2147483647,0,0,1,1,2,2,3,3,4,4,6,6,7,7,12,12,13,13,15,15,16,16,17,17,18,18,19,19,20,20,21,21,22,22],"right_children":[2,4,6,8,10,-1,12,14,-1,-1,-1,-1,16,18,-1,20,22,24,26,28,30,32,34,-1,-1,-1,-1,-1,-1,-1,-1,-1,-1,-1,-1],"split_conditions":[7.2041947E-1,7.152473E-1,7.2134054E-1,6.971801E-1,7.1538895E-1,7.279596E-3,7.298427E-1,6.8322235E-1,4.446249E-3,-3.9741173E-3,-7.0117414E-4,-3.0470432E-3,7.4132067E-1,6.734448E-1,-3.5903514E-3,7.379907E-1,7.559161E-1,5.2295595E-1,6.7656225E-1,7.304804E-1,7.4047047E-1,7.519484E-1,7.814227E-1,1.4166848E-4,-6.438872E-4,3.7782493E-3,5.4035784E-4,4.442798E-3,-2.786678E-3,6.8491953E-3,8.723304E-4,-9.4548095E-4,-3.5439346E-3,3.3478083E-3,1.0785036E-5],"split_indices":[1,1,1,1,1,0,1,1,0,0,0,0,1,1,0,1,1,1,1,1,1,1,1,0,0,0,0,0,0,0,0,0,0,0,0],"split_type":[0,0,0,0,0,0,0,0,0,0,0,0,0,0,0,0,0,0,0,0,0,0,0,0,0,0,0,0,0,0,0,0,0,0,0],"sum_hessian":[1.97E2,1.48E2,4.9E1,1.46E2,2E0,1E0,4.8E1,1.45E2,1E0,1E0,1E0,2E0,4.6E1,1.43E2,2E0,5E0,4.1E1,1.4E2,3E0,3E0,2E0,5E0,3.6E1,9.4E1,4.6E1,1E0,2E0,1E0,2E0,1E0,1E0,3E0,2E0,2E0,3.4E1],"tree_param":{"num_deleted":"0","num_feature":"2","num_nodes":"35","size_leaf_vector":"1"}},{"base_weights":[4.577762E-5,-9.0104196E-4,6.429852E-4,-1.1764313E-4,-1.5168659E-2,1.4653206E-2,2.873715E-4,-7.580789E-4,4.587609E-3,-7.826351E-3,-8.4989675E-4,1.327613E-3,5.2663297E-3,-3.6638842E-3,4.95046E-4,-8.771196E-7,-1.8173426E-2,8.645071E-3,-1.4203708E-5,-6.74064E-4,7.292127E-3,-9.169709E-3,9.916663E-4,3.2896649E-3,6.116626E-3,-7.237664E-3,4.164828E-4,1.3753073E-4,-1.0973107E-2,7.3618013E-3,-3.1955482E-4,1.8046439E-3,1.2686626E-4,6.472059E-3,9.4568E-6],"categories":[],"categories_nodes":[],"categories_segments":[],"categories_sizes":[],"default_left":[0,0,0,0,0,0,0,0,0,0,0,0,0,0,0,0,0,0,0,0,0,0,0,0,0,0,0,0,0,0,0,0,0,0,0],"id":31,"left_children":[1,3,5,7,9,11,13,15,-1,-1,-1,-1,-1,-1,17,19,21,23,25,27,29,-1,-1,31,-1,-1,33,-1,-1,-1,-1,-1,-1,-1,-1],"loss_changes":[1.1253803E-4,8.588626E-4,6.036208E-4,7.418915E-4,4.6487484E-4,1.1334778E-5,3.1756566E-4,9.49443E-4,0E0,0E0,0E0,0E0,0E0,0E0,4.940202E-4,3.4858414E-4,8.9955644E-4,3.7317304E-4,1.1834884E-3,2.659674E-3,8.909805E-4,0E0,0E0,4.4341956E-5,0E0,0E0,9.115173E-4,0E0,0E0,0E0,0E0,0E0,0E0,0E0,0E0],"parents":[2147483647,0,0,1,1,2,2,3,3,4,4,5,5,6,6,7,7,14,14,15,15,16,16,17,17,18,18,19,19,20,20,23,23,26,26],"right_children":[2,4,6,8,10,12,14,16,-1,-1,-1,-1,-1,-1,18,20,22,24,26,28,30,-1,-1,32,-1,-1,34,-1,-1,-1,-1,-1,-1,-1,-1],"split_conditions":[4.30282E-1,3.9960322E-1,4.3694204E-1,3.979028E-1,4.1937083E-1,4.3580842E-1,4.433187E-1,3.936517E-1,4.587609E-3,-7.826351E-3,-8.4989675E-4,1.327613E-3,5.2663297E-3,-3.6638842E-3,4.5352134E-1,3.6998725E-1,3.9506873E-1,4.477115E-1,4.569222E-1,3.6793256E-1,3.7175855E-1,-9.169709E-3,9.916663E-4,4.457985E-1,6.116626E-3,-7.237664E-3,4.691087E-1,1.3753073E-4,-1.0973107E-2,7.3618013E-3,-3.1955482E-4,1.8046439E-3,1.2686626E-4,6.472059E-3,9.4568E-6],"split_indices":[1,1,1,1,1,1,1,1,0,0,0,0,0,0,1,1,1,1,1,1,1,0,0,1,0,0,1,0,0,0,0,0,0,0,0],"split_type":[0,0,0,0,0,0,0,0,0,0,0,0,0,0,0,0,0,0,0,0,0,0,0,0,0,0,0,0,0,0,0,0,0,0,0],"sum_hessian":[1.97E2,7.6E1,1.21E2,7.3E1,3E0,2E0,1.19E2,7.1E1,2E0,1E0,2E0,1E0,1E0,1E0,1.18E2,6.9E1,2E0,6E0,1.12E2,6.4E1,5E0,1E0,1E0,5E0,1E0,1E0,1.11E2,6.3E1,1E0,1E0,4E0,2E0,3E0,1E0,1.1E2],"tree_param":{"num_deleted":"0","num_feature":"2","num_nodes":"35","size_leaf_vector":"1"}},{"base_weights":[2.5595662E-6,-5.9701997E-4,8.580259E-4,-2.0257739E-4,-6.952854E-3,1.4706738E-2,1.4596424E-4,-5.0843303E-4,5.245623E-3,1.879871E-4,5.757371E-3,-4.3109804E-3,7.096231E-4,-5.00689E-5,-7.914292E-3,5.530952E-3,2.3378902E-4,-6.1168574E-4,5.264315E-3,-4.1839513E-3,6.0881296E-4,-3.973956E-5,-7.4957106E-3,2.650293E-3,-9.575263E-4,5.9120897E-3,2.5325853E-5],"categories":[],"categories_nodes":[],"categories_segments":[],"categories_sizes":[],"default_left":[0,0,0,0,0,0,0,0,0,0,0,0,0,0,0,0,0,0,0,0,0,0,0,0,0,0,0],"id":32,"left_children":[1,3,5,7,-1,9,11,13,-1,-1,-1,-1,15,17,-1,-1,19,21,23,-1,25,-1,-1,-1,-1,-1,-1],"loss_changes":[1.0207044E-4,1.0373282E-3,8.064667E-4,6.3644676E-4,0E0,2.4054322E-4,6.565765E-4,1.3624692E-3,0E0,0E0,0E0,0E0,6.4518896E-4,3.4346987E-4,0E0,0E0,4.1265495E-4,1.2114652E-3,3.6026633E-4,0E0,7.494573E-4,0E0,0E0,0E0,0E0,0E0,0E0],"parents":[2147483647,0,0,1,1,2,2,3,3,5,5,6,6,7,7,12,12,13,13,16,16,17,17,18,18,20,20],"right_children":[2,4,6,8,-1,10,12,14,-1,-1,-1,-1,16,18,-1,-1,20,22,24,-1,26,-1,-1,-1,-1,-1,-1],"split_conditions":[5.8346325E-1,5.805583E-1,5.989797E-1,5.673799E-1,-6.952854E-3,5.8395916E-1,6.0960746E-1,5.661754E-1,5.245623E-3,1.879871E-4,5.757371E-3,-4.3109804E-3,6.1364603E-1,5.4874593E-1,-7.914292E-3,5.530952E-3,6.1796796E-1,5.473289E-1,5.5866516E-1,-4.1839513E-3,6.225733E-1,-3.973956E-5,-7.4957106E-3,2.650293E-3,-9.575263E-4,5.9120897E-3,2.5325853E-5],"split_indices":[1,1,1,1,0,1,1,1,0,0,0,0,1,1,0,0,1,1,1,0,1,0,0,0,0,0,0],"split_type":[0,0,0,0,0,0,0,0,0,0,0,0,0,0,0,0,0,0,0,0,0,0,0,0,0,0,0],"sum_hessian":[1.97E2,1.16E2,8.1E1,1.15E2,1E0,3E0,7.8E1,1.14E2,1E0,1E0,2E0,2E0,7.6E1,1.13E2,1E0,1E0,7.5E1,1.03E2,1E1,1E0,7.4E1,1.02E2,1E0,7E0,3E0,1E0,7.3E1],"tree_param":{"num_deleted":"0","num_feature":"2","num_nodes":"27","size_leaf_vector":"1"}},{"base_weights":[-3.127304E-5,-1.2903588E-3,3.1598314E-4,-2.7306287E-5,-5.4365876E-3,9.589111E-3,8.867171E-6,-8.6605706E-4,5.028409E-3,1.0781288E-3,6.544957E-3,-7.1697147E-3,3.254696E-4,1.7033628E-4,-1.0236181E-2,4.4557056E-3,-1.3581902E-3,5.3156437E-3,-2.6916297E-5,-1.1672685E-3,7.2486163E-3,-7.697292E-3,3.4568508E-3,3.825948E-4,1.6224728E-3,-6.645531E-3,2.7225006E-4,-9.2651455E-5,-4.68185E-3,5.2782344E-3,-3.7226514E-3,4.804145E-3,1.6868114E-5],"categories":[],"categories_nodes":[],"categories_segments":[],"categories_sizes":[],"default_left":[0,0,0,0,0,0,0,0,0,0,0,0,0,0,0,0,0,0,0,0,0,0,0,0,0,0,0,0,0,0,0,0,0],"id":33,"left_children":[1,3,5,7,-1,9,11,13,-1,15,-1,-1,17,19,21,23,-1,-1,25,27,-1,-1,29,-1,-1,-1,31,-1,-1,-1,-1,-1,-1],"loss_changes":[8.697835E-5,9.136505E-4,4.441914E-4,5.918582E-4,0E0,4.968154E-4,1.1583125E-3,3.9018894E-4,0E0,9.590339E-5,0E0,0E0,9.259813E-4,1.2155867E-3,9.3336066E-4,2.1910928E-6,0E0,0E0,9.922636E-4,4.413925E-4,0E0,0E0,8.9121476E-4,0E0,0E0,0E0,5.0237955E-4,0E0,0E0,0E0,0E0,0E0,0E0],"parents":[2147483647,0,0,1,1,2,2,3,3,5,5,6,6,7,7,9,9,12,12,13,13,14,14,15,15,18,18,19,19,22,22,26,26],"right_children":[2,4,6,8,-1,10,12,14,-1,16,-1,-1,18,20,22,24,-1,-1,26,28,-1,-1,30,-1,-1,-1,32,-1,-1,-1,-1,-1,-1],"split_conditions":[2.8971234E-1,2.868783E-1,3.1373104E-1,2.8354824E-1,-5.4365876E-3,3.094091E-1,3.1691936E-1,2.7532947E-1,5.028409E-3,3.048746E-1,6.544957E-3,-7.1697147E-3,3.2471305E-1,2.7355817E-1,2.771716E-1,2.9197958E-1,-1.3581902E-3,5.3156437E-3,3.341363E-1,2.6852772E-1,7.2486163E-3,-7.697292E-3,2.817061E-1,3.825948E-4,1.6224728E-3,-6.645531E-3,3.3505738E-1,-9.2651455E-5,-4.68185E-3,5.2782344E-3,-3.7226514E-3,4.804145E-3,1.6868114E-5],"split_indices":[1,1,1,1,0,1,1,1,0,1,0,0,1,1,1,1,0,0,1,1,0,0,1,0,0,0,1,0,0,0,0,0,0],"split_type":[0,0,0,0,0,0,0,0,0,0,0,0,0,0,0,0,0,0,0,0,0,0,0,0,0,0,0,0,0,0,0,0,0],"sum_hessian":[1.97E2,4.2E1,1.55E2,4E1,2E0,4E0,1.51E2,3.9E1,1E0,3E0,1E0,1E0,1.5E2,3.6E1,3E0,2E0,1E0,2E0,1.48E2,3.5E1,1E0,1E0,2E0,1E0,1E0,1E0,1.47E2,3.4E1,1E0,1E0,1E0,1E0,1.46E2],"tree_param":{"num_deleted":"0","num_feature":"2","num_nodes":"33","size_leaf_vector":"1"}},{"base_weights":[-2.473177E-5,-2.501281E-4,1.7898083E-3,-4.89907E-5,-4.4930317E-3,1.0221779E-2,-6.518397E-4,-2.5249497E-4,8.459561E-3,-5.962604E-3,-1.532808E-3,3.8084984E-3,5.381236E-3,-4.42628E-3,1.0456127E-3,-2.4583169E-5,-9.5337555E-3,4.7673094E-3,6.853938E-4,-8.4714225E-4,-2.7776689E-3,-3.6642948E-4,-7.5479154E-4,1.0556996E-2,-2.4655492E-3,5.0418377E-3,-1.7085245E-4,-2.150635E-4,4.6535567E-3,-5.1798914E-3,-1.2008051E-3,5.7921413E-4,-2.707869E-4,-4.3868425E-4,2.7379097E-4,7.851452E-4,3.965503E-3,-9.4709796E-4,3.4512968E-3,-3.7025572E-3,1.7147523E-3,-4.2300885E-6,-2.459948E-3,6.2371197E-4,-1.1640743E-3,-4.7181846E-4,4.5624376E-5,1.9049809E-3,-9.323895E-5],"categories":[],"categories_nodes":[],"categories_segments":[],"categories_sizes":[],"default_left":[0,0,0,0,0,0,0,0,0,0,0,0,0,0,0,0,0,0,0,0,0,0,0,0,0,0,0,0,0,0,0,0,0,0,0,0,0,0,0,0,0,0,0,0,0,0,0,0,0],"id":34,"left_children":[1,3,5,7,9,11,13,15,17,19,21,23,-1,-1,25,27,29,-1,31,-1,-1,33,-1,35,-1,37,39,41,-1,-1,43,-1,-1,-1,-1,-1,-1,45,-1,-1,47,-1,-1,-1,-1,-1,-1,-1,-1],"loss_changes":[8.142783E-5,1.5083286E-4,4.5959692E-4,2.9649553E-4,2.5662594E-5,1.790991E-4,4.463148E-4,3.530222E-4,2.2020232E-4,2.5586603E-5,3.665038E-6,4.1141923E-4,0E0,0E0,8.350298E-5,4.886753E-4,2.3700632E-4,0E0,7.675473E-6,0E0,0E0,5.5395294E-6,0E0,2.8797658E-5,0E0,1.6570932E-4,3.4245907E-4,2.6144128E-4,0E0,0E0,3.4431658E-5,0E0,0E0,0E0,0E0,0E0,0E0,2.3022214E-6,0E0,0E0,1.240278E-4,0E0,0E0,0E0,0E0,0E0,0E0,0E0,0E0],"parents":[2147483647,0,0,1,1,2,2,3,3,4,4,5,5,6,6,7,7,8,8,9,9,10,10,11,11,14,14,15,15,16,16,18,18,21,21,23,23,25,25,26,26,27,27,30,30,37,37,40,40],"right_children":[2,4,6,8,10,12,14,16,18,20,22,24,-1,-1,26,28,30,-1,32,-1,-1,34,-1,36,-1,38,40,42,-1,-1,44,-1,-1,-1,-1,-1,-1,46,-1,-1,48,-1,-1,-1,-1,-1,-1,-1,-1],"split_conditions":[8.757971E-1,8.196826E-1,9.1363186E-1,8.0140287E-1,8.353408E-1,8.9924896E-1,9.2241746E-1,7.814227E-1,8.0834633E-1,8.3314437E-1,8.6120164E-1,8.974777E-1,5.381236E-3,-4.42628E-3,9.32195E-1,7.78872E-1,7.968684E-1,4.7673094E-3,8.184781E-1,-8.4714225E-4,-2.7776689E-3,8.43843E-1,-7.5479154E-4,8.777101E-1,-2.4655492E-3,9.257475E-1,9.370837E-1,7.519484E-1,4.6535567E-3,-5.1798914E-3,8.001275E-1,5.7921413E-4,-2.707869E-4,-4.3868425E-4,2.7379097E-4,7.851452E-4,3.965503E-3,9.256058E-1,3.4512968E-3,-3.7025572E-3,9.6613294E-1,-4.2300885E-6,-2.459948E-3,6.2371197E-4,-1.1640743E-3,-4.7181846E-4,4.5624376E-5,1.9049809E-3,-9.323895E-5],"split_indices":[1,1,1,1,1,1,1,1,1,1,1,1,0,0,1,1,1,0,1,0,0,1,0,1,0,1,1,1,0,0,1,0,0,0,0,0,0,1,0,0,1,0,0,0,0,0,0,0,0],"split_type":[0,0,0,0,0,0,0,0,0,0,0,0,0,0,0,0,0,0,0,0,0,0,0,0,0,0,0,0,0,0,0,0,0,0,0,0,0,0,0,0,0,0,0,0,0,0,0,0,0],"sum_hessian":[1.97E2,1.76E2,2.1E1,1.69E2,7E0,4E0,1.7E1,1.66E2,3E0,4E0,3E0,3E0,1E0,1E0,1.6E1,1.63E2,3E0,1E0,2E0,3E0,1E0,2E0,1E0,2E0,1E0,3E0,1.3E1,1.62E2,1E0,1E0,2E0,1E0,1E0,1E0,1E0,1E0,1E0,2E0,1E0,1E0,1.2E1,1.59E2,3E0,1E0,1E0,1E0,1E0,3E0,9E0],"tree_param":{"num_deleted":"0","num_feature":"2","num_nodes":"49","size_leaf_vector":"1"}},{"base_weights":[-1.0368E-5,-2.3085324E-3,1.636032E-4,6.282783E-4,-6.328993E-3,4.393355E-3,-5.239324E-5,1.8714778E-3,-7.405769E-4,-2.2861396E-3,-2.4973664E-3,1.043374E-3,1.0745525E-2,-2.7181976E-3,1.0233356E-4,-9.230329E-4,1.9574282E-3,-2.5040037E-3,9.4696955E-4,7.316519E-4,-1.8554667E-3,4.0890933E-3,-2.5846416E-3,3.9230976E-3,9.123892E-4,6.406943E-3,-7.586457E-6,6.049954E-4,-1.4613128E-3,-1.207376E-3,-6.5561384E-4,-2.5857537E-4,3.8741159E-3,-4.9380364E-4,3.3769282E-3,-3.9437506E-3,1.4522797E-4,8.361021E-4,-1.1311284E-3,9.050813E-4,-1.034369E-3,4.313225E-3,-6.623893E-6],"categories":[],"categories_nodes":[],"categories_segments":[],"categories_sizes":[],"default_left":[0,0,0,0,0,0,0,0,0,0,0,0,0,0,0,0,0,0,0,0,0,0,0,0,0,0,0,0,0,0,0,0,0,0,0,0,0,0,0,0,0,0,0],"id":35,"left_children":[1,3,5,7,9,11,13,15,17,-1,19,21,23,-1,25,27,-1,29,-1,-1,-1,31,-1,-1,-1,33,35,-1,-1,-1,37,39,-1,-1,-1,-1,41,-1,-1,-1,-1,-1,-1],"loss_changes":[7.954094E-5,1.6927902E-4,1.6924826E-4,1.6701813E-5,1.065954E-5,1.8030524E-4,2.4763335E-4,7.1040806E-5,4.2265674E-5,0E0,6.9691065E-5,2.411564E-4,1.4115416E-5,0E0,1.2132409E-4,5.6246794E-5,0E0,8.603947E-6,0E0,0E0,0E0,2.3353848E-4,0E0,0E0,0E0,1.3568623E-4,3.4924364E-4,0E0,0E0,0E0,4.267758E-5,6.2635394E-5,0E0,0E0,0E0,0E0,4.0987582E-4,0E0,0E0,0E0,0E0,0E0,0E0],"parents":[2147483647,0,0,1,1,2,2,3,3,4,4,5,5,6,6,7,7,8,8,10,10,11,11,12,12,14,14,15,15,17,17,21,21,25,25,26,26,30,30,31,31,36,36],"right_children":[2,4,6,8,10,12,14,16,18,-1,20,22,24,-1,26,28,-1,30,-1,-1,-1,32,-1,-1,-1,34,36,-1,-1,-1,38,40,-1,-1,-1,-1,42,-1,-1,-1,-1,-1,-1],"split_conditions":[1.564404E-1,1.1456709E-1,2.1864815E-1,6.468754E-2,1.4354542E-1,1.9817203E-1,2.2311181E-1,4.98087E-2,1.10811956E-1,-2.2861396E-3,1.4715885E-1,1.9236219E-1,2.0972085E-1,-2.7181976E-3,2.2948845E-1,3.5850927E-2,1.9574282E-3,6.660054E-2,9.4696955E-4,7.316519E-4,-1.8554667E-3,1.9172452E-1,-2.5846416E-3,3.9230976E-3,9.123892E-4,2.2899249E-1,2.3069292E-1,6.049954E-4,-1.4613128E-3,-1.207376E-3,1.07127674E-1,1.8060082E-1,3.8741159E-3,-4.9380364E-4,3.3769282E-3,-3.9437506E-3,2.3593596E-1,8.361021E-4,-1.1311284E-3,9.050813E-4,-1.034369E-3,4.313225E-3,-6.623893E-6],"split_indices":[1,1,1,1,1,1,1,1,1,0,1,1,1,0,1,1,0,1,0,0,0,1,0,0,0,1,1,0,0,0,1,1,0,0,0,0,1,0,0,0,0,0,0],"split_type":[0,0,0,0,0,0,0,0,0,0,0,0,0,0,0,0,0,0,0,0,0,0,0,0,0,0,0,0,0,0,0,0,0,0,0,0,0,0,0,0,0,0,0],"sum_hessian":[1.97E2,1.3E1,1.84E2,8E0,5E0,8E0,1.76E2,4E0,4E0,3E0,2E0,6E0,2E0,2E0,1.74E2,3E0,1E0,3E0,1E0,1E0,1E0,5E0,1E0,1E0,1E0,2E0,1.72E2,2E0,1E0,1E0,2E0,4E0,1E0,1E0,1E0,1E0,1.71E2,1E0,1E0,2E0,2E0,1E0,1.7E2],"tree_param":{"num_deleted":"0","num_feature":"2","num_nodes":"43","size_leaf_vector":"1"}},{"base_weights":[1.1216738E-5,-3.413049E-4,1.0615069E-3,-1.651666E-4,-8.858313E-3,6.1815353E-3,2.4214509E-4,-3.385898E-4,3.773193E-3,-3.384121E-3,-6.021202E-4,-2.4457932E-3,7.728307E-4,-1.4326173E-4,-9.601474E-3,7.738948E-3,-2.4072969E-4,-2.7317216E-4,2.7650893E-3,-3.6132173E-3,-7.074461E-4,6.8999827E-4,1.4557898E-2,-5.569001E-3,6.298205E-4,1.096361E-4,-4.517248E-4,3.7702562E-3,-2.2375048E-3,5.8156955E-3,7.353589E-4,-7.419281E-4,-2.3521632E-3,2.4498792E-3,-1.0246549E-5],"categories":[],"categories_nodes":[],"categories_segments":[],"categories_sizes":[],"default_left":[0,0,0,0,0,0,0,0,0,0,0,0,0,0,0,0,0,0,0,0,0,0,0,0,0,0,0,0,0,0,0,0,0,0,0],"id":36,"left_children":[1,3,5,7,9,-1,11,13,-1,-1,-1,-1,15,17,19,21,23,25,-1,-1,-1,27,29,31,33,-1,-1,-1,-1,-1,-1,-1,-1,-1,-1],"loss_changes":[7.367179E-5,2.2206242E-4,7.956749E-4,3.2910518E-4,2.7142465E-5,0E0,2.245953E-4,2.6278244E-4,0E0,0E0,0E0,0E0,3.3371025E-4,1.776205E-4,2.4675508E-5,2.7835372E-4,1.9832562E-4,1.1311352E-4,0E0,0E0,0E0,4.8086164E-4,1.2782641E-4,2.280454E-5,1.8542747E-4,0E0,0E0,0E0,0E0,0E0,0E0,0E0,0E0,0E0,0E0],"parents":[2147483647,0,0,1,1,2,2,3,3,4,4,6,6,7,7,12,12,13,13,14,14,15,15,16,16,17,17,21,21,22,22,23,23,24,24],"right_children":[2,4,6,8,10,-1,12,14,-1,-1,-1,-1,16,18,20,22,24,26,-1,-1,-1,28,30,32,34,-1,-1,-1,-1,-1,-1,-1,-1,-1,-1],"split_conditions":[7.2041947E-1,7.152473E-1,7.2134054E-1,6.971801E-1,7.1538895E-1,6.1815353E-3,7.298427E-1,6.8322235E-1,3.773193E-3,-3.384121E-3,-6.021202E-4,-2.4457932E-3,7.4132067E-1,6.778376E-1,6.847102E-1,7.379907E-1,7.559161E-1,5.2295595E-1,2.7650893E-3,-3.6132173E-3,-7.074461E-4,7.304804E-1,7.4047047E-1,7.519484E-1,7.814227E-1,1.096361E-4,-4.517248E-4,3.7702562E-3,-2.2375048E-3,5.8156955E-3,7.353589E-4,-7.419281E-4,-2.3521632E-3,2.4498792E-3,-1.0246549E-5],"split_indices":[1,1,1,1,1,0,1,1,0,0,0,0,1,1,1,1,1,1,0,0,0,1,1,1,1,0,0,0,0,0,0,0,0,0,0],"split_type":[0,0,0,0,0,0,0,0,0,0,0,0,0,0,0,0,0,0,0,0,0,0,0,0,0,0,0,0,0,0,0,0,0,0,0],"sum_hessian":[1.97E2,1.48E2,4.9E1,1.46E2,2E0,1E0,4.8E1,1.45E2,1E0,1E0,1E0,2E0,4.6E1,1.43E2,2E0,5E0,4.1E1,1.42E2,1E0,1E0,1E0,3E0,2E0,5E0,3.6E1,9.4E1,4.8E1,1E0,2E0,1E0,1E0,3E0,2E0,2E0,3.4E1],"tree_param":{"num_deleted":"0","num_feature":"2","num_nodes":"35","size_leaf_vector":"1"}},{"base_weights":[5.357651E-5,-8.156958E-4,6.017764E-4,-1.5449044E-4,-1.2844071E-2,1.2404601E-2,3.0169103E-4,-7.5386994E-4,1.0523118E-2,-6.6637876E-3,-6.9510343E-4,1.117082E-3,4.4649886E-3,-3.1256902E-3,4.793349E-4,-2.1244832E-5,-7.805644E-3,1.3583393E-3,4.2763622E-3,7.1361917E-3,6.272136E-5,-5.9656275E-4,6.214907E-3,2.5614004E-3,5.187741E-3,-6.163404E-3,4.3015063E-4,1.1006396E-4,-9.3385335E-3,5.108506E-3,-1.0346711E-3,-6.1700644E-4,1.1689067E-3,5.4898607E-3,3.1291354E-5],"categories":[],"categories_nodes":[],"categories_segments":[],"categories_sizes":[],"default_left":[0,0,0,0,0,0,0,0,0,0,0,0,0,0,0,0,0,0,0,0,0,0,0,0,0,0,0,0,0,0,0,0,0,0,0],"id":37,"left_children":[1,3,5,7,9,11,13,15,17,-1,-1,-1,-1,-1,19,21,-1,-1,-1,23,25,27,29,31,-1,-1,33,-1,-1,-1,-1,-1,-1,-1,-1],"loss_changes":[9.48448E-5,6.1041414E-4,4.28364E-4,4.815286E-4,3.430263E-4,9.133015E-6,2.335293E-4,1.3136382E-3,2.4942623E-5,0E0,0E0,0E0,0E0,0E0,3.2957946E-4,2.5485147E-4,0E0,0E0,0E0,2.8094705E-4,8.644464E-4,1.9234419E-3,6.8572356E-4,4.5003235E-5,0E0,0E0,6.502303E-4,0E0,0E0,0E0,0E0,0E0,0E0,0E0,0E0],"parents":[2147483647,0,0,1,1,2,2,3,3,4,4,5,5,6,6,7,7,8,8,14,14,15,15,19,19,20,20,21,21,22,22,23,23,26,26],"right_children":[2,4,6,8,10,12,14,16,18,-1,-1,-1,-1,-1,20,22,-1,-1,-1,24,26,28,30,32,-1,-1,34,-1,-1,-1,-1,-1,-1,-1,-1],"split_conditions":[4.30282E-1,3.9960322E-1,4.3694204E-1,3.9506873E-1,4.1937083E-1,4.3580842E-1,4.433187E-1,3.936517E-1,3.9797366E-1,-6.6637876E-3,-6.9510343E-4,1.117082E-3,4.4649886E-3,-3.1256902E-3,4.5352134E-1,3.6998725E-1,-7.805644E-3,1.3583393E-3,4.2763622E-3,4.477115E-1,4.569222E-1,3.6793256E-1,3.762222E-1,4.434604E-1,5.187741E-3,-6.163404E-3,4.691087E-1,1.1006396E-4,-9.3385335E-3,5.108506E-3,-1.0346711E-3,-6.1700644E-4,1.1689067E-3,5.4898607E-3,3.1291354E-5],"split_indices":[1,1,1,1,1,1,1,1,1,0,0,0,0,0,1,1,0,0,0,1,1,1,1,1,0,0,1,0,0,0,0,0,0,0,0],"split_type":[0,0,0,0,0,0,0,0,0,0,0,0,0,0,0,0,0,0,0,0,0,0,0,0,0,0,0,0,0,0,0,0,0,0,0],"sum_hessian":[1.97E2,7.6E1,1.21E2,7.3E1,3E0,2E0,1.19E2,7E1,3E0,1E0,2E0,1E0,1E0,1E0,1.18E2,6.9E1,1E0,2E0,1E0,6E0,1.12E2,6.4E1,5E0,5E0,1E0,1E0,1.11E2,6.3E1,1E0,2E0,3E0,1E0,4E0,1E0,1.1E2],"tree_param":{"num_deleted":"0","num_feature":"2","num_nodes":"35","size_leaf_vector":"1"}},{"base_weights":[1.490443E-6,-7.247831E-4,6.7839114E-4,1.8233583E-4,-1.3035163E-2,3.2265366E-3,1.6261291E-4,-6.0532684E-4,1.448133E-2,-4.6186955E-3,6.421199E-4,-1.5665551E-4,-4.1142404E-3,6.031004E-3,4.0322044E-3,6.8011256E-3,1.7650829E-4,-4.4769814E-4,8.335799E-3,-1.8513546E-3,3.6658468E-3,-6.309195E-3,6.211168E-4,-1.4036513E-5,-5.2388906E-3,4.6663824E-3,-9.1527257E-4,4.3802084E-3,9.512141E-5],"categories":[],"categories_nodes":[],"categories_segments":[],"categories_sizes":[],"default_left":[0,0,0,0,0,0,0,0,0,0,0,0,0,0,0,0,0,0,0,0,0,0,0,0,0,0,0,0,0],"id":38,"left_children":[1,3,5,7,-1,-1,9,11,13,-1,15,17,-1,-1,19,-1,21,23,25,-1,-1,-1,27,-1,-1,-1,-1,-1,-1],"loss_changes":[9.783147E-5,3.7286277E-3,5.335789E-4,1.0787306E-3,0E0,0E0,7.4845523E-4,5.3307234E-4,2.1266483E-4,0E0,9.908918E-4,2.2371022E-4,0E0,0E0,3.2602277E-4,0E0,9.182353E-4,5.926611E-4,2.9405102E-4,0E0,0E0,0E0,3.991611E-4,0E0,0E0,0E0,0E0,0E0,0E0],"parents":[2147483647,0,0,1,1,2,2,3,3,6,6,7,7,8,8,10,10,11,11,14,14,16,16,17,17,18,18,22,22],"right_children":[2,4,6,8,-1,-1,10,12,14,-1,16,18,-1,-1,20,-1,22,24,26,-1,-1,-1,28,-1,-1,-1,-1,-1,-1],