{"learner":{"attributes":{"scikit_learn":"{\"_estimator_type\": \"regressor\"}"},"feature_names":["sentim_overall_sentiment_score","snp_price"],"feature_types":["float","float"],"gradient_booster":{"model":{"gbtree_model_param":{"num_parallel_tree":"1","num_trees":"100"},"iteration_indptr":[0,1,2,3,4,5,6,7,8,9,10,11,12,13,14,15,16,17,18,19,20,21,22,23,24,25,26,27,28,29,30,31,32,33,34,35,36,37,38,39,40,41,42,43,44,45,46,47,48,49,50,51,52,53,54,55,56,57,58,59,60,61,62,63,64,65,66,67,68,69,70,71,72,73,74,75,76,77,78,79,80,81,82,83,84,85,86,87,88,89,90,91,92,93,94,95,96,97,98,99,100],"tree_info":[0,0,0,0,0,0,0,0,0,0,0,0,0,0,0,0,0,0,0,0,0,0,0,0,0,0,0,0,0,0,0,0,0,0,0,0,0,0,0,0,0,0,0,0,0,0,0,0,0,0,0,0,0,0,0,0,0,0,0,0,0,0,0,0,0,0,0,0,0,0,0,0,0,0,0,0,0,0,0,0,0,0,0,0,0,0,0,0,0,0,0,0,0,0,0,0,0,0,0,0],"trees":[{"base_weights":[6.976653E-9,-4.366285E-2,3.2326788E-1,-1.06313474E-1,-1.5443661E-2,2.413751E-1,5.0024235E-1,-4.8559166E-2,-1.0057538E-1,-2.6142733E-2,7.7757016E-2,5.6260187E-2,8.596871E-2,1.19898304E-1,1.7776588E-1,-9.5365584E-2,-3.5361886E-2,3.159917E-2,-5.262739E-2,1.0111255E-1,4.472516E-2,-3.2714423E-2,-8.770574E-2,-1.4421504E-2,7.012368E-2,-9.875003E-2,-1.9415807E-2,2.0115547E-2,3.276232E-2,2.55846E-2,2.6292184E-2,-2.7152335E-2,-2.1871733E-2,-1.1156462E-2,1.4192598E-3,2.5532262E-2,3.4427359E-3,-1.0782678E-2,-3.9650735E-2,6.420787E-4,-7.983242E-3,2.3807322E-3,1.0649837E-2],"categories":[],"categories_nodes":[],"categories_segments":[],"categories_sizes":[],"default_left":[0,0,0,0,0,0,0,0,0,0,0,0,0,0,0,0,0,0,0,0,0,0,0,0,0,0,0,0,0,0,0,0,0,0,0,0,0,0,0,0,0,0,0],"id":0,"left_children":[1,3,5,7,9,11,13,-1,15,17,19,-1,-1,-1,-1,21,-1,23,25,27,29,-1,31,33,35,37,39,-1,-1,41,-1,-1,-1,-1,-1,-1,-1,-1,-1,-1,-1,-1,-1],"loss_changes":[1.9097324E1,2.1057544E0,2.212614E0,1.016593E-1,8.22696E-1,2.1874857E-1,2.2741508E-1,0E0,1.9218206E-2,1.1317968E0,6.1053276E-2,0E0,0E0,0E0,0E0,1.8209457E-2,0E0,4.141026E-1,7.747084E-1,6.1880946E-3,2.8150506E-2,0E0,6.5875053E-4,4.6831816E-2,1.10627234E-1,4.40233E-1,4.596533E-2,0E0,0E0,4.442895E-3,0E0,0E0,0E0,0E0,0E0,0E0,0E0,0E0,0E0,0E0,0E0,0E0,0E0],"parents":[2147483647,0,0,1,1,2,2,3,3,4,4,5,5,6,6,8,8,9,9,10,10,15,15,17,17,18,18,19,19,20,20,22,22,23,23,24,24,25,25,26,26,29,29],"right_children":[2,4,6,8,10,12,14,-1,16,18,20,-1,-1,-1,-1,22,-1,24,26,28,30,-1,32,34,36,38,40,-1,-1,42,-1,-1,-1,-1,-1,-1,-1,-1,-1,-1,-1,-1,-1],"split_conditions":[7.149516E-1,2.0487855E-1,8.8443214E-1,9.852918E-2,6.0974157E-1,7.9620904E-1,9.4259155E-1,-4.8559166E-2,1.8004557E-1,4.0434512E-1,6.4330107E-1,5.6260187E-2,8.596871E-2,1.19898304E-1,1.7776588E-1,1.3597286E-1,-3.5361886E-2,2.8478947E-1,4.9632296E-1,6.1919314E-1,6.9136155E-1,-3.2714423E-2,1.7372727E-1,2.4239992E-1,3.870734E-1,4.3935472E-1,5.2599823E-1,2.0115547E-2,3.276232E-2,6.565073E-1,2.6292184E-2,-2.7152335E-2,-2.1871733E-2,-1.1156462E-2,1.4192598E-3,2.5532262E-2,3.4427359E-3,-1.0782678E-2,-3.9650735E-2,6.420787E-4,-7.983242E-3,2.3807322E-3,1.0649837E-2],"split_indices":[1,1,1,1,1,1,1,0,1,1,1,0,0,0,0,1,0,1,1,1,1,0,1,1,1,1,1,0,0,1,0,0,0,0,0,0,0,0,0,0,0,0,0],"split_type":[0,0,0,0,0,0,0,0,0,0,0,0,0,0,0,0,0,0,0,0,0,0,0,0,0,0,0,0,0,0,0,0,0,0,0,0,0,0,0,0,0,0,0],"sum_hessian":[1.351E3,1.191E3,1.6E2,3.69E2,8.22E2,1.11E2,4.9E1,3.2E1,3.37E2,7.38E2,8.4E1,5.3E1,5.8E1,2.6E1,2.3E1,2.64E2,7.3E1,2.32E2,5.06E2,4.8E1,3.6E1,9E1,1.74E2,1.06E2,1.26E2,2.11E2,2.95E2,1.1E1,3.7E1,2.6E1,1E1,1.42E2,3.2E1,4.8E1,5.8E1,1E2,2.6E1,7.4E1,1.37E2,7.4E1,2.21E2,1E1,1.6E1],"tree_param":{"num_deleted":"0","num_feature":"2","num_nodes":"43","size_leaf_vector":"1"}},{"base_weights":[2.4253163E-4,-2.9474592E-2,2.3857224E-1,-7.486716E-2,-9.30106E-3,1.8222503E-1,3.659996E-1,-3.6056004E-2,-7.094934E-2,-1.8352062E-2,6.0469676E-2,4.318314E-2,6.308416E-2,8.641811E-2,1.2665819E-1,-6.738682E-2,-2.489668E-2,2.2201983E-2,-3.6953125E-2,5.318411E-2,2.7359296E-2,-7.43848E-2,-5.96191E-2,-7.487546E-3,5.784404E-2,-6.8885095E-2,-1.3014329E-2,7.185792E-2,2.2927836E-2,-2.452329E-2,-2.0650271E-2,-1.5994359E-2,-1.9135132E-2,-7.877826E-3,1.231146E-3,3.4819502E-2,9.669553E-3,-7.5910017E-3,-2.7378285E-2,1.8745916E-3,-5.5418476E-3,1.4583769E-2,2.3192272E-2,2.7934688E-3,1.0318337E-2],"categories":[],"categories_nodes":[],"categories_segments":[],"categories_sizes":[],"default_left":[0,0,0,0,0,0,0,0,0,0,0,0,0,0,0,0,0,0,0,0,0,0,0,0,0,0,0,0,0,0,0,0,0,0,0,0,0,0,0,0,0,0,0,0,0],"id":1,"left_children":[1,3,5,7,9,11,13,-1,15,17,19,-1,-1,-1,-1,21,-1,23,25,27,-1,29,31,33,35,37,39,41,43,-1,-1,-1,-1,-1,-1,-1,-1,-1,-1,-1,-1,-1,-1,-1,-1],"loss_changes":[9.582536E0,1.100925E0,1.0103321E0,5.716777E-2,5.277766E-1,8.357525E-2,7.54714E-2,0E0,9.119272E-3,5.582839E-1,1.6641289E-2,0E0,0E0,0E0,0E0,1.0241985E-2,0E0,2.4699274E-1,3.8666087E-1,4.3552443E-2,0E0,1.0371208E-5,9.149313E-5,2.7959492E-2,1.5432271E-1,2.0930457E-1,3.0713163E-2,2.4491549E-3,4.675977E-3,0E0,0E0,0E0,0E0,0E0,0E0,0E0,0E0,0E0,0E0,0E0,0E0,0E0,0E0,0E0,0E0],"parents":[2147483647,0,0,1,1,2,2,3,3,4,4,5,5,6,6,8,8,9,9,10,10,15,15,17,17,18,18,19,19,21,21,22,22,23,23,24,24,25,25,26,26,27,27,28,28],"right_children":[2,4,6,8,10,12,14,-1,16,18,20,-1,-1,-1,-1,22,-1,24,26,28,-1,30,32,34,36,38,40,42,44,-1,-1,-1,-1,-1,-1,-1,-1,-1,-1,-1,-1,-1,-1,-1,-1],"split_conditions":[7.2849447E-1,2.0487855E-1,9.00927E-1,9.5603086E-2,6.0974157E-1,8.011808E-1,9.4259155E-1,-3.6056004E-2,1.8004557E-1,4.0434512E-1,7.044901E-1,4.318314E-2,6.308416E-2,8.641811E-2,1.2665819E-1,1.4658967E-1,-2.489668E-2,2.968305E-1,4.976177E-1,6.4330107E-1,2.7359296E-2,1.2310322E-1,1.6336942E-1,2.4239992E-1,3.3849502E-1,4.3935472E-1,5.2283907E-1,6.1919314E-1,6.5837175E-1,-2.452329E-2,-2.0650271E-2,-1.5994359E-2,-1.9135132E-2,-7.877826E-3,1.231146E-3,3.4819502E-2,9.669553E-3,-7.5910017E-3,-2.7378285E-2,1.8745916E-3,-5.5418476E-3,1.4583769E-2,2.3192272E-2,2.7934688E-3,1.0318337E-2],"split_indices":[1,1,1,1,1,1,1,0,1,1,1,0,0,0,0,1,0,1,1,1,0,1,1,1,1,1,1,1,1,0,0,0,0,0,0,0,0,0,0,0,0,0,0,0,0],"split_type":[0,0,0,0,0,0,0,0,0,0,0,0,0,0,0,0,0,0,0,0,0,0,0,0,0,0,0,0,0,0,0,0,0,0,0,0,0,0,0,0,0,0,0,0,0],"sum_hessian":[1.351E3,1.202E3,1.49E2,3.69E2,8.33E2,1.05E2,4.4E1,2.7E1,3.42E2,7.38E2,9.5E1,4.7E1,5.8E1,2.1E1,2.3E1,2.69E2,7.3E1,2.32E2,5.06E2,7.9E1,1.6E1,1.37E2,1.32E2,1.27E2,1.05E2,2.16E2,2.9E2,4.8E1,3.1E1,5.3E1,8.4E1,5.8E1,7.4E1,4.8E1,7.9E1,3.1E1,7.4E1,7.4E1,1.42E2,6.4E1,2.26E2,1.1E1,3.7E1,1.5E1,1.6E1],"tree_param":{"num_deleted":"0","num_feature":"2","num_nodes":"45","size_leaf_vector":"1"}},{"base_weights":[3.587852E-4,-2.0685246E-2,1.6912952E-1,-5.2788787E-2,-6.417867E-3,1.2481804E-1,2.5525615E-1,-2.5625514E-2,-4.997124E-2,-1.444054E-2,3.5975624E-2,1.0552332E-1,4.8937406E-2,6.159212E-2,9.024395E-2,-4.7948122E-2,-1.8421829E-2,1.5703809E-2,-2.9353715E-2,1.6919723E-2,4.3143842E-2,2.3322439E-2,3.4752984E-2,-1.7302545E-2,-1.3676773E-2,-5.2932017E-3,4.091054E-2,-4.9020644E-2,-1.3142354E-2,5.0717846E-2,-9.966087E-3,3.786497E-2,1.9634314E-2,-5.5627096E-3,8.664225E-4,2.4700081E-2,6.8073673E-3,-5.3440626E-3,-1.9687742E-2,6.3052616E-4,-5.7754074E-3,2.5823042E-2,8.643564E-3,-1.9783888E-3,-5.3572613E-3,1.6047698E-2,5.7554813E-3],"categories":[],"categories_nodes":[],"categories_segments":[],"categories_sizes":[],"default_left":[0,0,0,0,0,0,0,0,0,0,0,0,0,0,0,0,0,0,0,0,0,0,0,0,0,0,0,0,0,0,0,0,0,0,0,0,0,0,0,0,0,0,0,0,0,0,0],"id":2,"left_children":[1,3,5,7,9,11,13,-1,15,17,19,21,-1,-1,-1,23,-1,25,27,29,31,-1,-1,-1,-1,33,35,37,39,41,43,45,-1,-1,-1,-1,-1,-1,-1,-1,-1,-1,-1,-1,-1,-1,-1],"loss_changes":[4.8052845E0,5.5067533E-1,5.4059935E-1,2.9747605E-2,2.841705E-1,5.74373E-2,5.2017212E-2,0E0,4.9906373E-3,3.1604362E-1,1.7437398E-2,1.1063695E-2,0E0,0E0,0E0,4.1623116E-3,0E0,1.2353552E-1,1.4920476E-1,3.5035674E-2,8.8247955E-3,0E0,0E0,0E0,0E0,1.3928119E-2,7.812993E-2,1.0868913E-1,2.4160177E-2,1.0687694E-2,4.6756142E-4,2.2327311E-2,0E0,0E0,0E0,0E0,0E0,0E0,0E0,0E0,0E0,0E0,0E0,0E0,0E0,0E0,0E0],"parents":[2147483647,0,0,1,1,2,2,3,3,4,4,5,5,6,6,8,8,9,9,10,10,11,11,15,15,17,17,18,18,19,19,20,20,25,25,26,26,27,27,28,28,29,29,30,30,31,31],"right_children":[2,4,6,8,10,12,14,-1,16,18,20,22,-1,-1,-1,24,-1,26,28,30,32,-1,-1,-1,-1,34,36,38,40,42,44,46,-1,-1,-1,-1,-1,-1,-1,-1,-1,-1,-1,-1,-1,-1,-1],"split_conditions":[7.2849447E-1,2.0487855E-1,8.8443214E-1,9.5603086E-2,5.931431E-1,1.9125034E-1,9.4259155E-1,-2.5625514E-2,1.8965249E-1,4.0434512E-1,6.0974157E-1,7.643068E-1,4.8937406E-2,6.159212E-2,9.024395E-2,1.2310322E-1,-1.8421829E-2,2.968305E-1,4.9632296E-1,6.006525E-1,7.044901E-1,2.3322439E-2,3.4752984E-2,-1.7302545E-2,-1.3676773E-2,2.4239992E-1,3.3849502E-1,4.3935472E-1,5.2599823E-1,5.955513E-1,6.065824E-1,6.3864E-1,1.9634314E-2,-5.5627096E-3,8.664225E-4,2.4700081E-2,6.8073673E-3,-5.3440626E-3,-1.9687742E-2,6.3052616E-4,-5.7754074E-3,2.5823042E-2,8.643564E-3,-1.9783888E-3,-5.3572613E-3,1.6047698E-2,5.7554813E-3],"split_indices":[1,1,1,1,1,0,1,0,1,1,1,1,0,0,0,1,0,1,1,1,1,0,0,0,0,1,1,1,1,1,1,1,0,0,0,0,0,0,0,0,0,0,0,0,0,0,0],"split_type":[0,0,0,0,0,0,0,0,0,0,0,0,0,0,0,0,0,0,0,0,0,0,0,0,0,0,0,0,0,0,0,0,0,0,0,0,0,0,0,0,0,0,0,0,0,0,0],"sum_hessian":[1.351E3,1.202E3,1.49E2,3.69E2,8.33E2,1E2,4.9E1,2.7E1,3.42E2,7.01E2,1.32E2,6.9E1,3.1E1,2.6E1,2.3E1,2.95E2,4.7E1,2.32E2,4.69E2,3.7E1,9.5E1,2.1E1,4.8E1,5.3E1,2.42E2,1.27E2,1.05E2,2.11E2,2.58E2,1.6E1,2.1E1,7.9E1,1.6E1,4.8E1,7.9E1,3.1E1,7.4E1,7.4E1,1.37E2,7.4E1,1.84E2,5E0,1.1E1,1.6E1,5E0,4.2E1,3.7E1],"tree_param":{"num_deleted":"0","num_feature":"2","num_nodes":"47","size_leaf_vector":"1"}},{"base_weights":[4.353448E-4,-1.5099227E-2,1.1544637E-1,-3.715492E-2,-5.165199E-3,8.483093E-2,1.8171602E-1,-1.8212417E-2,-3.5123892E-2,-1.0113165E-2,2.3348223E-2,7.15819E-2,3.471497E-2,4.379884E-2,6.429882E-2,-3.403137E-2,-1.4855385E-2,1.3508062E-2,-1.9950828E-2,1.9367278E-2,2.1035366E-2,5.4241132E-2,8.179952E-2,-1.169675E-2,-3.1784758E-2,2.2255564E-3,8.864234E-2,-3.1257108E-2,-7.563109E-3,2.722729E-3,2.7897503E-2,6.189606E-2,1.3018665E-2,2.514882E-2,1.1401839E-2,-8.860806E-3,-1.1306202E-2,2.6226551E-3,-1.2876279E-2,3.1095376E-2,5.6507825E-3,-3.813252E-3,-1.3524277E-2,1.0877731E-2,-3.265439E-3,6.2665823E-3,-2.1929077E-3,1.0983469E-2,4.6809833E-3,1.4235409E-2,2.4140835E-2],"categories":[],"categories_nodes":[],"categories_segments":[],"categories_sizes":[],"default_left":[0,0,0,0,0,0,0,0,0,0,0,0,0,0,0,0,0,0,0,0,0,0,0,0,0,0,0,0,0,0,0,0,0,0,0,0,0,0,0,0,0,0,0,0,0,0,0,0,0,0,0],"id":3,"left_children":[1,3,5,7,9,11,13,-1,15,17,19,21,-1,-1,-1,23,-1,25,27,-1,29,31,33,-1,35,37,39,41,43,45,47,49,-1,-1,-1,-1,-1,-1,-1,-1,-1,-1,-1,-1,-1,-1,-1,-1,-1,-1,-1],"loss_changes":[2.41729E0,2.6097757E-1,3.1123376E-1,1.5567362E-2,1.1634781E-1,3.7547767E-2,2.6955843E-2,0E0,3.7088096E-3,1.6339862E-1,1.02699995E-2,9.914756E-3,0E0,0E0,0E0,2.347231E-3,0E0,1.7527722E-1,6.923288E-2,0E0,1.4626712E-2,5.3718686E-5,1.1698604E-3,0E0,1.899913E-3,5.362593E-2,2.6336014E-2,6.5829426E-2,3.503883E-2,6.1668647E-3,8.535005E-3,7.424876E-4,0E0,0E0,0E0,0E0,0E0,0E0,0E0,0E0,0E0,0E0,0E0,0E0,0E0,0E0,0E0,0E0,0E0,0E0,0E0],"parents":[2147483647,0,0,1,1,2,2,3,3,4,4,5,5,6,6,8,8,9,9,10,10,11,11,15,15,17,17,18,18,20,20,21,21,22,22,24,24,25,25,26,26,27,27,28,28,29,29,30,30,31,31],"right_children":[2,4,6,8,10,12,14,-1,16,18,20,22,-1,-1,-1,24,-1,26,28,-1,30,32,34,-1,36,38,40,42,44,46,48,50,-1,-1,-1,-1,-1,-1,-1,-1,-1,-1,-1,-1,-1,-1,-1,-1,-1,-1,-1],"split_conditions":[7.149516E-1,2.0487855E-1,8.8443214E-1,9.5603086E-2,5.931431E-1,1.9125034E-1,9.4259155E-1,-1.8212417E-2,1.9827542E-1,3.870734E-1,5.955513E-1,7.643068E-1,3.471497E-2,4.379884E-2,6.429882E-2,1.3597286E-1,-1.4855385E-2,3.68481E-1,5.011135E-1,1.9367278E-2,6.0974157E-1,7.3903364E-1,5.4147333E-2,-1.169675E-2,1.7906158E-1,3.3849502E-1,3.8298202E-1,4.4344607E-1,5.0699157E-1,6.006525E-1,6.4330107E-1,7.2849447E-1,1.3018665E-2,2.514882E-2,1.1401839E-2,-8.860806E-3,-1.1306202E-2,2.6226551E-3,-1.2876279E-2,3.1095376E-2,5.6507825E-3,-3.813252E-3,-1.3524277E-2,1.0877731E-2,-3.265439E-3,6.2665823E-3,-2.1929077E-3,1.0983469E-2,4.6809833E-3,1.4235409E-2,2.4140835E-2],"split_indices":[1,1,1,1,1,0,1,0,1,1,1,1,0,0,0,1,0,1,1,0,1,1,0,0,1,1,1,1,1,1,1,1,0,0,0,0,0,0,0,0,0,0,0,0,0,0,0,0,0,0,0],"split_type":[0,0,0,0,0,0,0,0,0,0,0,0,0,0,0,0,0,0,0,0,0,0,0,0,0,0,0,0,0,0,0,0,0,0,0,0,0,0,0,0,0,0,0,0,0,0,0,0,0,0,0],"sum_hessian":[1.351E3,1.191E3,1.6E2,3.69E2,8.22E2,1.11E2,4.9E1,2.7E1,3.42E2,7.01E2,1.21E2,8E1,3.1E1,2.6E1,2.3E1,3.21E2,2.1E1,2.06E2,4.95E2,5E0,1.16E2,3.2E1,4.8E1,9.5E1,2.26E2,1.8E2,2.6E1,2.58E2,2.37E2,3.2E1,8.4E1,1.6E1,1.6E1,4.5E1,3E0,1.68E2,5.8E1,1.58E2,2.2E1,2.1E1,5E0,1.11E2,1.47E2,1.6E1,2.21E2,1.1E1,2.1E1,4.8E1,3.6E1,1.1E1,5E0],"tree_param":{"num_deleted":"0","num_feature":"2","num_nodes":"51","size_leaf_vector":"1"}},{"base_weights":[4.687205E-4,-1.0794856E-2,8.100726E-2,-2.5013177E-2,-3.06232E-3,5.9649963E-2,1.2936316E-1,-3.9255675E-2,-2.3059404E-2,1.7303534E-2,-8.3484445E-3,5.0853916E-2,2.5039015E-2,3.4261588E-2,5.839991E-2,-1.3385193E-2,-3.323444E-2,-2.4113437E-2,-1.5662305E-2,8.153797E-3,7.391081E-2,-1.5557969E-2,1.3193892E-2,4.178664E-2,6.2222682E-2,-8.592383E-3,-1.3361093E-2,-2.2337796E-2,-2.976237E-2,-2.5848171E-3,-3.159446E-2,1.5703415E-2,-2.2066256E-2,3.332633E-2,3.3672694E-2,-3.5138126E-2,-1.1394888E-2,1.6422458E-2,1.1139654E-2,1.3127561E-2,4.349737E-3,1.903806E-2,2.6508004E-3,-7.2454335E-3,-3.489514E-3,-8.179566E-3,-1.1133142E-2,-2.9539303E-3,-4.7043308E-5,-6.7513622E-3,-1.11882035E-2,1.5963813E-4,1.8864982E-2,-9.18135E-3,4.3024123E-3,1.3684741E-2,4.238086E-3,-4.499453E-3,-4.4404402E-2,6.14869E-2,-5.3388462E-3,-1.6756299E-3,4.685648E-3],"categories":[],"categories_nodes":[],"categories_segments":[],"categories_sizes":[],"default_left":[0,0,0,0,0,0,0,0,0,0,0,0,0,0,0,0,0,0,0,0,0,0,0,0,0,0,0,0,0,0,0,0,0,0,0,0,0,0,0,0,0,0,0,0,0,0,0,0,0,0,0,0,0,0,0,0,0,0,0,0,0,0,0],"id":4,"left_children":[1,3,5,7,9,11,13,15,17,19,21,23,-1,-1,-1,-1,25,27,29,31,33,35,37,39,41,-1,-1,43,45,47,49,51,53,-1,55,57,59,-1,61,-1,-1,-1,-1,-1,-1,-1,-1,-1,-1,-1,-1,-1,-1,-1,-1,-1,-1,-1,-1,-1,-1,-1,-1],"loss_changes":[1.2273439E0,1.3042653E-1,1.6372013E-1,1.0726303E-2,8.3039925E-2,2.0262837E-2,2.726096E-2,9.907037E-5,2.5071204E-3,8.1750065E-2,9.525499E-2,6.4712763E-3,0E0,0E0,0E0,0E0,1.2609363E-4,2.5649965E-3,1.0127611E-2,3.18312E-2,2.916985E-2,3.7014432E-2,1.2533903E-2,2.1635517E-3,1.8837452E-3,0E0,0E0,4.553929E-3,3.4602731E-4,4.9213105E-4,3.0050054E-4,7.941803E-2,9.142909E-3,0E0,2.1568304E-3,1.7964628E-1,5.299176E-1,0E0,1.1174589E-2,0E0,0E0,0E0,0E0,0E0,0E0,0E0,0E0,0E0,0E0,0E0,0E0,0E0,0E0,0E0,0E0,0E0,0E0,0E0,0E0,0E0,0E0,0E0,0E0],"parents":[2147483647,0,0,1,1,2,2,3,3,4,4,5,5,6,6,7,7,8,8,9,9,10,10,11,11,16,16,17,17,18,18,19,19,20,20,21,21,22,22,23,23,24,24,27,27,28,28,29,29,30,30,31,31,32,32,34,34,35,35,36,36,38,38],"right_children":[2,4,6,8,10,12,14,16,18,20,22,24,-1,-1,-1,-1,26,28,30,32,34,36,38,40,42,-1,-1,44,46,48,50,52,54,-1,56,58,60,-1,62,-1,-1,-1,-1,-1,-1,-1,-1,-1,-1,-1,-1,-1,-1,-1,-1,-1,-1,-1,-1,-1,-1,-1,-1],"split_conditions":[7.044901E-1,2.4239992E-1,8.8443214E-1,1.0733337E-1,3.870734E-1,1.9553317E-1,9.8508465E-1,8.7394476E-2,2.0487855E-1,3.7156248E-1,5.7985914E-1,7.7857476E-1,2.5039015E-2,3.4261588E-2,5.839991E-2,-1.3385193E-2,1.0603864E-1,1.8004557E-1,2.2810607E-1,3.3849502E-1,3.7767363E-1,4.320783E-1,5.8159405E-1,7.740432E-1,1.9371213E-1,-8.592383E-3,-1.3361093E-2,1.7243254E-1,1.9957015E-1,2.089958E-1,2.3095448E-1,2.986949E-1,3.68481E-1,3.332633E-2,3.8298202E-1,4.2739138E-1,4.3427935E-1,1.6422458E-2,5.931431E-1,1.3127561E-2,4.349737E-3,1.903806E-2,2.6508004E-3,-7.2454335E-3,-3.489514E-3,-8.179566E-3,-1.1133142E-2,-2.9539303E-3,-4.7043308E-5,-6.7513622E-3,-1.11882035E-2,1.5963813E-4,1.8864982E-2,-9.18135E-3,4.3024123E-3,1.3684741E-2,4.238086E-3,-4.499453E-3,-4.4404402E-2,6.14869E-2,-5.3388462E-3,-1.6756299E-3,4.685648E-3],"split_indices":[1,1,1,1,1,0,1,1,1,1,1,1,0,0,0,0,1,1,1,1,1,1,1,1,0,0,0,1,1,1,1,1,1,0,1,1,1,0,1,0,0,0,0,0,0,0,0,0,0,0,0,0,0,0,0,0,0,0,0,0,0,0,0],"split_type":[0,0,0,0,0,0,0,0,0,0,0,0,0,0,0,0,0,0,0,0,0,0,0,0,0,0,0,0,0,0,0,0,0,0,0,0,0,0,0,0,0,0,0,0,0,0,0,0,0,0,0,0,0,0,0,0,0,0,0,0,0,0,0],"sum_hessian":[1.351E3,1.186E3,1.65E2,4.17E2,7.69E2,1.16E2,4.9E1,4.8E1,3.69E2,1.58E2,6.11E2,8.7E1,2.9E1,4.2E1,7E0,2.2E1,2.6E1,3.21E2,4.8E1,1.37E2,2.1E1,4.58E2,1.53E2,5.1E1,3.6E1,2.1E1,5E0,2.48E2,7.3E1,2.7E1,2.1E1,1.1E2,2.7E1,1E1,1.1E1,7.9E1,3.79E2,6E0,1.47E2,4.7E1,4E0,3.5E1,1E0,2.11E2,3.7E1,5.8E1,1.5E1,6E0,2.1E1,1E1,1.1E1,8.4E1,2.6E1,2.2E1,5E0,6E0,5E0,6.8E1,1.1E1,1E1,3.69E2,3.1E1,1.16E2],"tree_param":{"num_deleted":"0","num_feature":"2","num_nodes":"63","size_leaf_vector":"1"}},{"base_weights":[4.4837952E-4,-6.6519217E-3,6.503658E-2,-1.1510481E-2,7.818816E-3,5.104409E-2,1.0468966E-1,-1.0245554E-2,-5.263937E-2,2.5104098E-3,1.8621007E-2,4.474094E-2,1.8971134E-2,8.929322E-2,4.306993E-2,-1.7715747E-2,-3.5800517E-3,-2.9985504E-2,-3.7343312E-2,2.7150549E-2,-3.012153E-3,2.7938126E-2,1.40957385E-2,4.6860952E-2,-1.9545108E-3,6.3935965E-2,3.0134493E-2,-8.460051E-3,-1.6279388E-2,1.0807263E-2,-1.2874014E-2,-5.210075E-3,-4.081768E-2,5.9572216E-3,5.2980117E-2,-3.356852E-2,1.5197407E-3,5.1670573E-3,9.607654E-3,6.601729E-4,2.5392525E-2,4.3477796E-2,2.0894503E-2,-2.9989125E-3,3.325662E-3,7.889821E-2,-2.2627313E-3,-4.7623254E-3,-8.111447E-3,2.468693E-3,2.5906397E-2,-2.9506972E-2,-2.7291153E-3,-1.3682711E-2,-7.0900405E-3,9.388063E-3,-1.0006302E-3,1.9623924E-2,5.7852506E-3,-3.2586264E-3,-2.7692597E-2,3.6901417E-3,-8.4807177E-4,3.162202E-3,-5.777667E-4,9.053447E-3,3.752644E-3,1.0252556E-2,1.4061728E-2,1.2185061E-2,3.041997E-2,1.1444897E-3,-2.162719E-3],"categories":[],"categories_nodes":[],"categories_segments":[],"categories_sizes":[],"default_left":[0,0,0,0,0,0,0,0,0,0,0,0,0,0,0,0,0,0,0,0,0,0,0,0,0,0,0,0,0,0,0,0,0,0,0,0,0,0,0,0,0,0,0,0,0,0,0,0,0,0,0,0,0,0,0,0,0,0,0,0,0,0,0,0,0,0,0,0,0,0,0,0,0],"id":5,"left_children":[1,3,5,7,9,11,13,15,17,19,21,23,-1,25,-1,27,29,-1,31,33,35,37,39,41,43,45,-1,-1,47,49,51,-1,53,55,57,59,61,-1,-1,63,65,67,-1,-1,-1,69,71,-1,-1,-1,-1,-1,-1,-1,-1,-1,-1,-1,-1,-1,-1,-1,-1,-1,-1,-1,-1,-1,-1,-1,-1,-1,-1],"loss_changes":[6.2045395E-1,8.579415E-2,6.900549E-2,4.695954E-2,1.7557379E-2,4.9330294E-3,7.531643E-3,4.41026E-2,1.5807152E-2,2.8249664E-2,3.8646013E-3,7.0212334E-3,0E0,1.2150407E-3,0E0,5.8357567E-3,6.298525E-2,0E0,8.1804395E-4,2.0486137E-2,2.359231E-2,8.498393E-4,1.0607746E-2,2.1370947E-3,5.3028046E-4,1.1073809E-2,0E0,0E0,1.1828691E-3,3.5324216E-2,9.144447E-2,0E0,4.0413998E-4,5.2840943E-3,5.8605485E-3,2.8340468E-2,7.0169163E-3,0E0,0E0,8.6350244E-4,1.9654613E-3,3.2444298E-4,0E0,0E0,0E0,3.6340095E-3,1.1768923E-4,0E0,0E0,0E0,0E0,0E0,0E0,0E0,0E0,0E0,0E0,0E0,0E0,0E0,0E0,0E0,0E0,0E0,0E0,0E0,0E0,0E0,0E0,0E0,0E0,0E0,0E0],"parents":[2147483647,0,0,1,1,2,2,3,3,4,4,5,5,6,6,7,7,8,8,9,9,10,10,11,11,13,13,15,15,16,16,18,18,19,19,20,20,21,21,22,22,23,23,24,24,25,25,28,28,29,29,30,30,32,32,33,33,34,34,35,35,36,36,39,39,40,40,41,41,45,45,46,46],"right_children":[2,4,6,8,10,12,14,16,18,20,22,24,-1,26,-1,28,30,-1,32,34,36,38,40,42,44,46,-1,-1,48,50,52,-1,54,56,58,60,62,-1,-1,64,66,68,-1,-1,-1,70,72,-1,-1,-1,-1,-1,-1,-1,-1,-1,-1,-1,-1,-1,-1,-1,-1,-1,-1,-1,-1,-1,-1,-1,-1,-1,-1],"split_conditions":[7.53431E-1,5.387643E-1,9.1884613E-1,5.2599823E-1,6.1919314E-1,2.4112523E-1,9.8508465E-1,2.4239992E-1,5.2980477E-1,5.5259204E-1,6.3864E-1,2.337371E-1,1.8971134E-2,2.4185084E-1,4.306993E-2,1.0733337E-1,4.0434512E-1,-2.9985504E-2,5.3091824E-1,5.485266E-1,5.5834067E-1,6.281268E-1,6.9136155E-1,8.8443214E-1,8.777772E-1,2.3580956E-1,3.0134493E-2,-8.460051E-3,2.3095448E-1,4.0261018E-1,4.094205E-1,-5.210075E-3,5.352944E-1,5.411207E-1,5.510384E-1,5.568647E-1,5.7408464E-1,5.1670573E-3,9.607654E-3,6.4330107E-1,7.3903364E-1,7.7857476E-1,2.0894503E-2,-2.9989125E-3,3.325662E-3,9.67554E-1,2.3614167E-1,-4.7623254E-3,-8.111447E-3,2.468693E-3,2.5906397E-2,-2.9506972E-2,-2.7291153E-3,-1.3682711E-2,-7.0900405E-3,9.388063E-3,-1.0006302E-3,1.9623924E-2,5.7852506E-3,-3.2586264E-3,-2.7692597E-2,3.6901417E-3,-8.4807177E-4,3.162202E-3,-5.777667E-4,9.053447E-3,3.752644E-3,1.0252556E-2,1.4061728E-2,1.2185061E-2,3.041997E-2,1.1444897E-3,-2.162719E-3],"split_indices":[1,1,1,1,1,0,1,1,1,1,1,0,0,0,0,1,1,0,1,1,1,1,1,1,1,0,0,0,1,1,1,0,1,1,1,1,1,0,0,1,1,1,0,0,0,1,0,0,0,0,0,0,0,0,0,0,0,0,0,0,0,0,0,0,0,0,0,0,0,0,0,0,0],"split_type":[0,0,0,0,0,0,0,0,0,0,0,0,0,0,0,0,0,0,0,0,0,0,0,0,0,0,0,0,0,0,0,0,0,0,0,0,0,0,0,0,0,0,0,0,0,0,0,0,0,0,0,0,0,0,0,0,0,0,0,0,0,0,0,0,0,0,0,0,0,0,0,0,0],"sum_hessian":[1.351E3,1.218E3,1.33E2,9.12E2,3.06E2,1E2,3.3E1,8.86E2,2.6E1,2.06E2,1E2,6.9E1,3.1E1,2.6E1,7E0,4.17E2,4.69E2,5E0,2.1E1,3.7E1,1.69E2,3.1E1,6.9E1,6.6E1,3E0,1E1,1.6E1,4.8E1,3.69E2,1.84E2,2.85E2,4E0,1.7E1,2.1E1,1.6E1,2.1E1,1.48E2,1E1,2.1E1,3.2E1,3.7E1,6E1,6E0,2E0,1E0,8E0,2E0,3.58E2,1.1E1,1.79E2,5E0,1.1E1,2.74E2,1.2E1,5E0,5E0,1.6E1,1.1E1,5E0,1.6E1,5E0,4.2E1,1.06E2,6E0,2.6E1,2.6E1,1.1E1,1.9E1,4.1E1,4E0,4E0,1E0,1E0],"tree_param":{"num_deleted":"0","num_feature":"2","num_nodes":"73","size_leaf_vector":"1"}},{"base_weights":[4.1296674E-4,-5.0552213E-3,4.426508E-2,-9.381791E-3,3.0924792E-3,3.4473132E-2,7.665899E-2,-5.9160627E-3,-3.7894253E-2,1.1161693E-2,1.64219E-3,2.8122403E-2,1.2642093E-2,6.51616E-2,3.1764083E-2,-8.187106E-3,2.5197469E-2,-6.759628E-2,-5.875603E-3,-1.4596497E-2,3.1816375E-3,1.2560374E-2,2.6338605E-2,5.5480678E-2,2.5468674E-2,-6.3739866E-3,-1.04808934E-1,4.5462046E-2,-1.2038505E-2,-2.0863045E-2,-8.254181E-2,1.8997366E-2,-2.9479543E-2,-1.0392992E-3,8.674969E-3,2.7206652E-3,2.9885625E-2,6.1620478E-2,-1.8982688E-3,-3.6682899E-3,2.1204483E-3,-4.2760592E-2,-1.2998003E-2,-4.0613502E-2,4.595486E-3,-1.177094E-2,1.2149372E-3,-2.8711012E-2,-1.9357454E-2,-1.4794002E-2,-1.9690983E-3,7.030673E-4,-1.984251E-2,1.241762E-2,2.1676833E-3,9.0555595E-3,2.2360594E-3,7.934815E-3,1.9260723E-2,-6.9750133E-3,6.120792E-3],"categories":[],"categories_nodes":[],"categories_segments":[],"categories_sizes":[],"default_left":[0,0,0,0,0,0,0,0,0,0,0,0,0,0,0,0,0,0,0,0,0,0,0,0,0,0,0,0,0,0,0,0,0,0,0,0,0,0,0,0,0,0,0,0,0,0,0,0,0,0,0,0,0,0,0,0,0,0,0,0,0],"id":6,"left_children":[1,3,5,7,9,11,13,15,17,-1,19,21,-1,23,-1,25,27,29,31,-1,33,-1,35,37,-1,39,41,-1,43,45,47,-1,49,51,53,-1,55,57,59,-1,-1,-1,-1,-1,-1,-1,-1,-1,-1,-1,-1,-1,-1,-1,-1,-1,-1,-1,-1,-1,-1],"loss_changes":[3.24422E-1,4.2436674E-2,4.4937223E-2,7.744554E-2,2.0619014E-2,4.5119077E-3,4.5235753E-3,4.980974E-2,8.043942E-2,0E0,3.128161E-2,5.400516E-4,0E0,4.4811517E-4,0E0,1.14079386E-1,2.2763994E-1,2.9009849E-2,7.0469424E-2,0E0,9.075133E-3,0E0,3.526844E-3,7.5151697E-3,0E0,5.0759934E-2,2.165845E-2,0E0,1.3029267E-1,5.6517078E-3,1.650095E-3,0E0,1.4220608E-2,4.904652E-2,7.76211E-3,0E0,1.177378E-4,2.7261674E-5,1.9028542E-3,0E0,0E0,0E0,0E0,0E0,0E0,0E0,0E0,0E0,0E0,0E0,0E0,0E0,0E0,0E0,0E0,0E0,0E0,0E0,0E0,0E0,0E0],"parents":[2147483647,0,0,1,1,2,2,3,3,4,4,5,5,6,6,7,7,8,8,10,10,11,11,13,13,15,15,16,16,17,17,18,18,20,20,22,22,23,23,25,25,26,26,28,28,29,29,30,30,32,32,33,33,34,34,36,36,37,37,38,38],"right_children":[2,4,6,8,10,12,14,16,18,-1,20,22,-1,24,-1,26,28,30,32,-1,34,-1,36,38,-1,40,42,-1,44,46,48,-1,50,52,54,-1,56,58,60,-1,-1,-1,-1,-1,-1,-1,-1,-1,-1,-1,-1,-1,-1,-1,-1,-1,-1,-1,-1,-1,-1],"split_conditions":[7.2849447E-1,4.8767415E-1,9.1884613E-1,4.481071E-1,4.917137E-1,5.4147333E-2,9.8508465E-1,4.320783E-1,4.718266E-1,1.1161693E-2,4.9632296E-1,7.3903364E-1,1.2642093E-2,3.116994E-1,3.1764083E-2,4.2739138E-1,4.3427935E-1,4.509555E-1,4.7558135E-1,-1.4596497E-2,5.7985914E-1,1.2560374E-2,7.53431E-1,2.84135E-1,2.5468674E-2,2.6156196E-1,4.2992905E-1,4.5462046E-2,4.380341E-1,4.4890985E-1,4.5851675E-1,1.8997366E-2,4.8376405E-1,5.775804E-1,5.8159405E-1,2.7206652E-3,8.684551E-1,1.524195E-1,2.8449675E-1,-3.6682899E-3,2.1204483E-3,-4.2760592E-2,-1.2998003E-2,-4.0613502E-2,4.595486E-3,-1.177094E-2,1.2149372E-3,-2.8711012E-2,-1.9357454E-2,-1.4794002E-2,-1.9690983E-3,7.030673E-4,-1.984251E-2,1.241762E-2,2.1676833E-3,9.0555595E-3,2.2360594E-3,7.934815E-3,1.9260723E-2,-6.9750133E-3,6.120792E-3],"split_indices":[1,1,1,1,1,0,1,1,1,0,1,1,0,0,0,1,1,1,1,0,1,0,1,0,0,1,1,0,1,1,1,0,1,1,1,0,1,0,0,0,0,0,0,0,0,0,0,0,0,0,0,0,0,0,0,0,0,0,0,0,0],"split_type":[0,0,0,0,0,0,0,0,0,0,0,0,0,0,0,0,0,0,0,0,0,0,0,0,0,0,0,0,0,0,0,0,0,0,0,0,0,0,0,0,0,0,0,0,0,0,0,0,0,0,0,0,0,0,0,0,0,0,0,0,0],"sum_hessian":[1.351E3,1.202E3,1.49E2,7.85E2,4.17E2,1.16E2,3.3E1,7.01E2,8.4E1,1.6E1,4.01E2,6.6E1,5E1,2.6E1,7E0,6.54E2,4.7E1,4.3E1,4.1E1,1.1E1,3.9E2,5E0,6.1E1,2E1,6E0,6.43E2,1.1E1,1E1,3.7E1,1.1E1,3.2E1,1E1,3.1E1,2.21E2,1.69E2,1.1E1,5E1,1.8E1,2E0,4.48E2,1.95E2,6E0,5E0,6E0,3.1E1,6E0,5E0,1.6E1,1.6E1,1.6E1,1.5E1,2.11E2,1E1,6E0,1.63E2,4.9E1,1E0,2E0,1.6E1,1E0,1E0],"tree_param":{"num_deleted":"0","num_feature":"2","num_nodes":"61","size_leaf_vector":"1"}},{"base_weights":[2.9688244E-4,-3.8737382E-3,3.0117543E-2,-6.4564254E-3,2.221841E-3,2.3244016E-2,5.611936E-2,-5.9140283E-3,-2.409648E-2,2.057634E-2,-7.245389E-4,2.0077223E-2,3.2611795E-2,4.4197626E-2,2.159332E-2,-3.6983446E-3,-1.5601614E-2,1.4068809E-2,1.7283507E-2,-3.2545373E-2,2.9808837E-3,2.1120695E-2,-1.0768041E-2,1.1837116E-2,2.4250854E-2,-8.491391E-3,4.8997957E-2,-4.9221125E-3,4.013283E-2,-3.7078876E-2,2.2690932E-3,3.2952912E-2,1.657752E-3,1.3840132E-3,-3.959749E-2,1.9210206E-2,3.771226E-4,1.5631603E-2,2.6627198E-2,-4.927552E-3,9.3050307E-4,-8.122663E-3,8.73265E-3,3.9166663E-2,1.8919593E-2,-1.1723775E-3,-3.0170027E-2,-5.0584516E-3,-1.7770767E-2,1.3816264E-2,-1.2548937E-3,1.9385108E-3,1.3035733E-2,-6.2186015E-3,2.3063363E-3,-2.2664897E-2,-8.39774E-3,1.1640609E-3,1.1375707E-2,-5.521658E-3,1.3487645E-3,5.21862E-3,-1.3281495E-3,7.0841913E-3,1.2270803E-2,4.6470347E-3,-8.302233E-3,1.3669397E-2,-4.8406125E-4],"categories":[],"categories_nodes":[],"categories_segments":[],"categories_sizes":[],"default_left":[0,0,0,0,0,0,0,0,0,0,0,0,0,0,0,0,0,0,0,0,0,0,0,0,0,0,0,0,0,0,0,0,0,0,0,0,0,0,0,0,0,0,0,0,0,0,0,0,0,0,0,0,0,0,0,0,0,0,0,0,0,0,0,0,0,0,0,0,0],"id":7,"left_children":[1,3,5,7,9,11,13,15,-1,17,19,21,23,25,-1,27,29,31,-1,33,35,37,39,-1,41,-1,43,45,-1,47,49,51,53,-1,55,57,59,61,63,-1,-1,65,-1,67,-1,-1,-1,-1,-1,-1,-1,-1,-1,-1,-1,-1,-1,-1,-1,-1,-1,-1,-1,-1,-1,-1,-1,-1,-1],"loss_changes":[1.682658E-1,1.8701257E-2,2.836378E-2,3.293858E-2,1.9158987E-2,3.2908022E-3,3.2467768E-3,1.773647E-2,0E0,1.09988935E-2,3.6177363E-2,3.5104193E-3,8.745827E-4,9.04363E-3,0E0,1.1438655E-1,5.9191473E-2,1.00233555E-2,0E0,8.568205E-3,1.1613507E-2,2.5761202E-3,3.6479684E-4,0E0,2.910031E-3,0E0,4.342459E-4,6.469506E-2,0E0,3.035815E-2,2.4205549E-2,4.447691E-3,3.8041123E-3,0E0,9.15027E-3,1.0751504E-2,1.8494714E-2,1.9167513E-3,1.0988563E-3,0E0,0E0,1.813667E-3,0E0,3.9871912E-3,0E0,0E0,0E0,0E0,0E0,0E0,0E0,0E0,0E0,0E0,0E0,0E0,0E0,0E0,0E0,0E0,0E0,0E0,0E0,0E0,0E0,0E0,0E0,0E0,0E0],"parents":[2147483647,0,0,1,1,2,2,3,3,4,4,5,5,6,6,7,7,9,9,10,10,11,11,12,12,13,13,15,15,16,16,17,17,19,19,20,20,21,21,22,22,24,24,26,26,27,27,29,29,30,30,31,31,32,32,34,34,35,35,36,36,37,37,38,38,41,41,43,43],"right_children":[2,4,6,8,10,12,14,16,-1,18,20,22,24,26,-1,28,30,32,-1,34,36,38,40,-1,42,-1,44,46,-1,48,50,52,54,-1,56,58,60,62,64,-1,-1,66,-1,68,-1,-1,-1,-1,-1,-1,-1,-1,-1,-1,-1,-1,-1,-1,-1,-1,-1,-1,-1,-1,-1,-1,-1,-1,-1],"split_conditions":[7.044901E-1,5.011135E-1,9.1884613E-1,4.9927494E-1,5.2283907E-1,2.4112523E-1,9.725258E-1,4.3935472E-1,-2.409648E-2,5.179191E-1,5.387643E-1,2.337371E-1,2.8338557E-1,1.524195E-1,2.159332E-2,4.380341E-1,4.718266E-1,5.0699157E-1,1.7283507E-2,5.2599823E-1,5.5259204E-1,7.7857476E-1,8.777772E-1,1.1837116E-2,2.883635E-1,-8.491391E-3,3.116994E-1,4.3427935E-1,4.013283E-2,4.509555E-1,4.7558135E-1,5.029779E-1,5.092703E-1,1.3840132E-3,5.2980477E-1,5.485266E-1,5.644777E-1,7.740432E-1,8.8443214E-1,-4.927552E-3,9.3050307E-4,2.85307E-1,8.73265E-3,2.84135E-1,1.8919593E-2,-1.1723775E-3,-3.0170027E-2,-5.0584516E-3,-1.7770767E-2,1.3816264E-2,-1.2548937E-3,1.9385108E-3,1.3035733E-2,-6.2186015E-3,2.3063363E-3,-2.2664897E-2,-8.39774E-3,1.1640609E-3,1.1375707E-2,-5.521658E-3,1.3487645E-3,5.21862E-3,-1.3281495E-3,7.0841913E-3,1.2270803E-2,4.6470347E-3,-8.302233E-3,1.3669397E-2,-4.8406125E-4],"split_indices":[1,1,1,1,1,0,1,1,0,1,1,0,0,0,0,1,1,1,0,1,1,1,1,0,0,0,0,1,0,1,1,1,1,0,1,1,1,1,1,0,0,0,0,0,0,0,0,0,0,0,0,0,0,0,0,0,0,0,0,0,0,0,0,0,0,0,0,0,0],"split_type":[0,0,0,0,0,0,0,0,0,0,0,0,0,0,0,0,0,0,0,0,0,0,0,0,0,0,0,0,0,0,0,0,0,0,0,0,0,0,0,0,0,0,0,0,0,0,0,0,0,0,0,0,0,0,0,0,0,0,0,0,0,0,0,0,0,0,0,0,0],"sum_hessian":[1.351E3,1.186E3,1.65E2,8.33E2,3.53E2,1.32E2,3.3E1,8.28E2,5E0,4.8E1,3.05E2,1.01E2,3.1E1,2.1E1,1.2E1,6.75E2,1.53E2,4.2E1,6E0,3.1E1,2.74E2,9.8E1,3E0,1.5E1,1.6E1,1E0,2E1,6.7E2,5E0,6.9E1,8.4E1,1.6E1,2.6E1,5E0,2.6E1,3.7E1,2.37E2,5.1E1,4.7E1,2E0,1E0,2E0,1.4E1,1.4E1,6E0,6.64E2,6E0,3.7E1,3.2E1,1E1,7.4E1,5E0,1.1E1,5E0,2.1E1,5E0,2.1E1,2.1E1,1.6E1,4.2E1,1.95E2,4.7E1,4E0,4.1E1,6E0,1E0,1E0,1.2E1,2E0],"tree_param":{"num_deleted":"0","num_feature":"2","num_nodes":"69","size_leaf_vector":"1"}},{"base_weights":[2.542866E-4,-2.5701092E-3,2.2904245E-2,-8.448727E-3,4.099248E-5,1.8466357E-2,4.5433734E-2,-5.480729E-3,-7.622433E-3,7.5869667E-3,-2.4463604E-3,1.4787229E-2,2.3324247E-2,2.232927E-2,1.734234E-2,-7.002484E-3,-1.6349752E-2,2.434295E-3,5.0805602E-2,-2.6417349E-2,-6.8322255E-4,1.3366374E-2,1.0999744E-2,9.07738E-3,2.1218313E-2,3.8846344E-2,-8.747804E-3,-7.5629656E-3,9.531395E-3,-1.8324675E-2,-2.4087527E-3,5.7056393E-3,-2.221144E-2,2.3305485E-2,2.19324E-2,-7.3317713E-3,-5.5175774E-2,1.8149136E-2,-2.3590482E-3,1.5127048E-2,-2.6099011E-3,-3.695488E-6,2.3939177E-2,-7.2176815E-3,5.1269803E-2,-2.0776226E-3,-6.877436E-3,1.4764182E-3,3.7658492E-3,-3.2986677E-3,-6.3968343E-3,-3.0702207E-4,9.795851E-3,-9.460659E-3,2.372615E-3,9.287206E-3,2.3243667E-3,-7.933821E-3,1.9192781E-2,-2.1653272E-2,-3.5928625E-3,-2.7859446E-3,3.338304E-2,-2.241202E-2,-4.213395E-4,8.115626E-3,4.1047283E-3,2.8910057E-3,-3.5655573E-3,-3.942037E-3,2.9548646E-3,8.327021E-3,5.3829947E-3,1.8176073E-2,5.5954102E-3],"categories":[],"categories_nodes":[],"categories_segments":[],"categories_sizes":[],"default_left":[0,0,0,0,0,0,0,0,0,0,0,0,0,0,0,0,0,0,0,0,0,0,0,0,0,0,0,0,0,0,0,0,0,0,0,0,0,0,0,0,0,0,0,0,0,0,0,0,0,0,0,0,0,0,0,0,0,0,0,0,0,0,0,0,0,0,0,0,0,0,0,0,0,0,0],"id":8,"left_children":[1,3,5,7,9,11,13,-1,15,17,19,21,23,25,-1,27,29,31,33,35,37,39,-1,-1,41,43,-1,45,47,49,-1,51,53,-1,55,57,59,61,63,65,67,69,71,-1,73,-1,-1,-1,-1,-1,-1,-1,-1,-1,-1,-1,-1,-1,-1,-1,-1,-1,-1,-1,-1,-1,-1,-1,-1,-1,-1,-1,-1,-1,-1],"loss_changes":[8.654962E-2,1.8466E-2,1.415851E-2,2.8631166E-3,1.5672326E-2,1.9249432E-3,5.5706985E-3,0E0,1.7413087E-3,4.597345E-2,2.6523842E-2,1.8413849E-3,1.3187714E-4,9.637146E-3,0E0,3.0560363E-3,2.14383E-4,1.5122923E-2,1.5370224E-2,2.3196919E-2,1.8536827E-2,2.0647682E-3,0E0,0E0,2.5407467E-3,7.485508E-3,0E0,2.8969776E-3,9.143958E-5,1.3909256E-4,0E0,2.9952694E-2,6.427952E-3,0E0,1.2963209E-3,3.849282E-2,1.1621583E-2,1.2367411E-1,3.711944E-2,7.496271E-4,1.0232589E-3,9.0604275E-4,3.9464422E-4,0E0,9.973366E-4,0E0,0E0,0E0,0E0,0E0,0E0,0E0,0E0,0E0,0E0,0E0,0E0,0E0,0E0,0E0,0E0,0E0,0E0,0E0,0E0,0E0,0E0,0E0,0E0,0E0,0E0,0E0,0E0,0E0,0E0],"parents":[2147483647,0,0,1,1,2,2,3,3,4,4,5,5,6,6,8,8,9,9,10,10,11,11,12,12,13,13,15,15,16,16,17,17,18,18,19,19,20,20,21,21,24,24,25,25,27,27,28,28,29,29,31,31,32,32,34,34,35,35,36,36,37,37,38,38,39,39,40,40,41,41,42,42,44,44],"right_children":[2,4,6,8,10,12,14,-1,16,18,20,22,24,26,-1,28,30,32,34,36,38,40,-1,-1,42,44,-1,46,48,50,-1,52,54,-1,56,58,60,62,64,66,68,70,72,-1,74,-1,-1,-1,-1,-1,-1,-1,-1,-1,-1,-1,-1,-1,-1,-1,-1,-1,-1,-1,-1,-1,-1,-1,-1,-1,-1,-1,-1,-1,-1],"split_conditions":[7.2849447E-1,2.0487855E-1,9.4259155E-1,9.5603086E-2,3.870734E-1,1.9553317E-1,2.4185084E-1,-5.480729E-3,1.9827542E-1,3.7156248E-1,4.116474E-1,8.8443214E-1,2.330272E-1,2.3299862E-1,1.734234E-2,1.9529752E-1,2.0309182E-1,3.472992E-1,3.7767363E-1,4.0434512E-1,4.3427935E-1,8.5610336E-1,1.0999744E-2,9.07738E-3,2.4112523E-1,9.67554E-1,-8.747804E-3,1.9146512E-1,1.9672173E-1,1.9957015E-1,-2.4087527E-3,2.986949E-1,3.68481E-1,2.3305485E-2,3.8298202E-1,4.0261018E-1,4.094205E-1,4.320783E-1,4.380341E-1,7.3903364E-1,5.4147333E-2,8.777772E-1,2.85307E-1,-7.2176815E-3,1.8615167E-1,-2.0776226E-3,-6.877436E-3,1.4764182E-3,3.7658492E-3,-3.2986677E-3,-6.3968343E-3,-3.0702207E-4,9.795851E-3,-9.460659E-3,2.372615E-3,9.287206E-3,2.3243667E-3,-7.933821E-3,1.9192781E-2,-2.1653272E-2,-3.5928625E-3,-2.7859446E-3,3.338304E-2,-2.241202E-2,-4.213395E-4,8.115626E-3,4.1047283E-3,2.8910057E-3,-3.5655573E-3,-3.942037E-3,2.9548646E-3,8.327021E-3,5.3829947E-3,1.8176073E-2,5.5954102E-3],"split_indices":[1,1,1,1,1,0,0,0,1,1,1,1,0,0,0,1,1,1,1,1,1,1,0,0,0,1,0,1,1,1,0,1,1,0,1,1,1,1,1,1,0,1,0,0,0,0,0,0,0,0,0,0,0,0,0,0,0,0,0,0,0,0,0,0,0,0,0,0,0,0,0,0,0,0,0],"split_type":[0,0,0,0,0,0,0,0,0,0,0,0,0,0,0,0,0,0,0,0,0,0,0,0,0,0,0,0,0,0,0,0,0,0,0,0,0,0,0,0,0,0,0,0,0,0,0,0,0,0,0,0,0,0,0,0,0,0,0,0,0,0,0,0,0,0,0,0,0,0,0,0,0,0,0],"sum_hessian":[1.351E3,1.202E3,1.49E2,3.69E2,8.33E2,1.26E2,2.3E1,2.7E1,3.42E2,2.06E2,6.27E2,7.4E1,5.2E1,9E0,1.4E1,3.21E2,2.1E1,1.85E2,2.1E1,4.2E1,5.85E2,7.1E1,3E0,9E0,4.3E1,7E0,2E0,3.11E2,1E1,1.6E1,5E0,1.64E2,2.1E1,1E1,1.1E1,2.6E1,1.6E1,4.7E1,5.38E2,6.4E1,7E0,5E0,3.8E1,1E0,6E0,3E2,1.1E1,5E0,5E0,6E0,1E1,1.32E2,3.2E1,1.6E1,5E0,6E0,5E0,2.1E1,5E0,1.1E1,5E0,3.7E1,1E1,6E0,5.32E2,5E0,5.9E1,3E0,4E0,2E0,3E0,2.1E1,1.7E1,4E0,2E0],"tree_param":{"num_deleted":"0","num_feature":"2","num_nodes":"75","size_leaf_vector":"1"}},{"base_weights":[2.3665075E-4,-2.5669504E-3,1.3237365E-2,-5.971669E-3,-8.70293E-4,1.024166E-2,2.8414156E-2,-1.1065117E-2,-4.9893456E-3,3.8552214E-3,-4.1804817E-3,7.3814816E-3,1.3649334E-2,2.141643E-2,4.076219E-2,-4.3930276E-3,-9.393109E-3,-3.6676058E-3,-8.7765455E-3,1.918721E-3,3.0204961E-2,-2.5866019E-2,-5.5365042E-5,1.5327293E-2,3.257184E-3,1.2876806E-2,1.8619139E-2,-6.135026E-3,2.3813222E-2,2.4077782E-2,1.5487029E-2,-6.403617E-3,-1.403765E-2,-4.723458E-3,1.0025777E-2,-1.289636E-2,-7.0915883E-3,3.2700298E-3,-1.6648931E-2,-1.1525911E-2,-4.159505E-2,1.0163105E-2,-1.0949216E-3,8.50784E-3,1.9900175E-2,-5.512155E-3,6.7695593E-3,1.3597986E-2,-1.064692E-2,5.984038E-3,2.3179319E-2,1.910613E-2,3.3860173E-2,1.4311613E-2,-6.9982414E-3,-2.6389158E-3,-7.440683E-4,-6.1762338E-3,-2.7566655E-3,-1.2009095E-3,-8.817382E-3,1.8007266E-3,3.5023976E-3,-3.016962E-3,-5.637938E-3,5.40554E-4,-2.7501618E-3,8.151855E-5,2.4278577E-2,-8.249535E-3,2.9467272E-3,-1.5467778E-2,-8.755221E-3,-1.7642953E-2,-3.408291E-5,1.6198327E-3,2.9137416E-3,7.906275E-3,4.935501E-3,1.5531831E-3,-2.9532816E-3,2.866518E-3,4.348124E-5,3.7899378E-3,6.210776E-3,-3.7875385E-3,-1.0035754E-3,3.3691586E-3,1.4750958E-4,8.39402E-3,2.2354901E-3,7.858586E-3,1.5593962E-3,3.4444393E-3,1.215461E-2],"categories":[],"categories_nodes":[],"categories_segments":[],"categories_sizes":[],"default_left":[0,0,0,0,0,0,0,0,0,0,0,0,0,0,0,0,0,0,0,0,0,0,0,0,0,0,0,0,0,0,0,0,0,0,0,0,0,0,0,0,0,0,0,0,0,0,0,0,0,0,0,0,0,0,0,0,0,0,0,0,0,0,0,0,0,0,0,0,0,0,0,0,0,0,0,0,0,0,0,0,0,0,0,0,0,0,0,0,0,0,0,0,0,0,0],"id":9,"left_children":[1,3,5,7,9,11,13,15,17,19,21,23,25,27,29,-1,31,33,35,37,-1,39,41,43,45,47,49,-1,51,53,-1,55,57,59,61,63,65,67,-1,69,71,-1,73,75,77,79,81,83,85,87,89,91,93,-1,-1,-1,-1,-1,-1,-1,-1,-1,-1,-1,-1,-1,-1,-1,-1,-1,-1,-1,-1,-1,-1,-1,-1,-1,-1,-1,-1,-1,-1,-1,-1,-1,-1,-1,-1,-1,-1,-1,-1,-1,-1],"loss_changes":[4.9312774E-2,6.4242054E-3,1.0620635E-2,1.7960547E-3,1.165402E-2,1.8680505E-3,2.4969392E-3,2.1544751E-4,1.529587E-3,5.737159E-2,3.9180018E-2,3.620415E-3,1.09622255E-4,3.1963075E-3,1.1127964E-3,0E0,5.0715543E-4,3.4161138E-3,4.6388153E-4,2.3612326E-2,0E0,1.5309494E-2,1.305343E-2,1.015706E-3,2.3474058E-3,1.5358934E-3,4.3747737E-4,0E0,5.8265403E-4,8.95335E-3,0E0,2.4104048E-4,3.189589E-4,3.7387265E-3,4.2702537E-5,1.7941301E-4,1.1056205E-3,6.889976E-2,0E0,1.3227608E-2,2.576258E-3,0E0,2.0325763E-2,1.12141715E-5,5.608052E-5,1.0697395E-3,9.950709E-4,2.8685573E-4,1.0984368E-6,1.0973998E-4,3.200355E-4,1.8357765E-3,5.77366E-4,0E0,0E0,0E0,0E0,0E0,0E0,0E0,0E0,0E0,0E0,0E0,0E0,0E0,0E0,0E0,0E0,0E0,0E0,0E0,0E0,0E0,0E0,0E0,0E0,0E0,0E0,0E0,0E0,0E0,0E0,0E0,0E0,0E0,0E0,0E0,0E0,0E0,0E0,0E0,0E0,0E0,0E0],"parents":[2147483647,0,0,1,1,2,2,3,3,4,4,5,5,6,6,7,7,8,8,9,9,10,10,11,11,12,12,13,13,14,14,16,16,17,17,18,18,19,19,21,21,22,22,23,23,24,24,25,25,26,26,28,28,29,29,31,31,32,32,33,33,34,34,35,35,36,36,37,37,39,39,40,40,42,42,43,43,44,44,45,45,46,46,47,47,48,48,49,49,50,50,51,51,52,52],"right_children":[2,4,6,8,10,12,14,16,18,20,22,24,26,28,30,-1,32,34,36,38,-1,40,42,44,46,48,50,-1,52,54,-1,56,58,60,62,64,66,68,-1,70,72,-1,74,76,78,80,82,84,86,88,90,92,94,-1,-1,-1,-1,-1,-1,-1,-1,-1,-1,-1,-1,-1,-1,-1,-1,-1,-1,-1,-1,-1,-1,-1,-1,-1,-1,-1,-1,-1,-1,-1,-1,-1,-1,-1,-1,-1,-1,-1,-1,-1,-1],"split_conditions":[6.119944E-1,2.0487855E-1,9.0750426E-1,1.1178725E-1,4.3935472E-1,7.643068E-1,9.725258E-1,7.66223E-2,1.7906158E-1,4.380341E-1,4.718266E-1,6.3864E-1,3.1509116E-1,1.524195E-1,2.4185084E-1,-4.3930276E-3,1.0603864E-1,1.7546222E-1,1.8364494E-1,4.3427935E-1,3.0204961E-2,4.509555E-1,4.7558135E-1,6.281268E-1,6.5837175E-1,3.0281633E-1,8.474287E-1,-6.135026E-3,3.17616E-1,2.3299862E-1,1.5487029E-2,9.852918E-2,1.0733337E-1,1.7450412E-1,1.7678285E-1,1.8191E-1,1.8965249E-1,4.320783E-1,-1.6648931E-2,4.4745973E-1,4.5851675E-1,1.0163105E-2,4.777565E-1,6.1919314E-1,6.333834E-1,6.4330107E-1,7.3903364E-1,2.7136E-1,3.093415E-1,3.2649368E-1,3.75179E-1,2.628374E-1,9.4259155E-1,1.4311613E-2,-6.9982414E-3,-2.6389158E-3,-7.440683E-4,-6.1762338E-3,-2.7566655E-3,-1.2009095E-3,-8.817382E-3,1.8007266E-3,3.5023976E-3,-3.016962E-3,-5.637938E-3,5.40554E-4,-2.7501618E-3,8.151855E-5,2.4278577E-2,-8.249535E-3,2.9467272E-3,-1.5467778E-2,-8.755221E-3,-1.7642953E-2,-3.408291E-5,1.6198327E-3,2.9137416E-3,7.906275E-3,4.935501E-3,1.5531831E-3,-2.9532816E-3,2.866518E-3,4.348124E-5,3.7899378E-3,6.210776E-3,-3.7875385E-3,-1.0035754E-3,3.3691586E-3,1.4750958E-4,8.39402E-3,2.2354901E-3,7.858586E-3,1.5593962E-3,3.4444393E-3,1.215461E-2],"split_indices":[1,1,1,1,1,1,1,1,1,1,1,1,0,0,0,0,1,1,1,1,0,1,1,1,1,0,1,0,0,0,0,1,1,1,1,1,1,1,0,1,1,0,1,1,1,1,1,0,0,0,0,0,1,0,0,0,0,0,0,0,0,0,0,0,0,0,0,0,0,0,0,0,0,0,0,0,0,0,0,0,0,0,0,0,0,0,0,0,0,0,0,0,0,0,0],"split_type":[0,0,0,0,0,0,0,0,0,0,0,0,0,0,0,0,0,0,0,0,0,0,0,0,0,0,0,0,0,0,0,0,0,0,0,0,0,0,0,0,0,0,0,0,0,0,0,0,0,0,0,0,0,0,0,0,0,0,0,0,0,0,0,0,0,0,0,0,0,0,0,0,0,0,0,0,0,0,0,0,0,0,0,0,0,0,0,0,0,0,0,0,0,0,0],"sum_hessian":[1.351E3,1.112E3,2.39E2,3.69E2,7.43E2,2.01E2,3.8E1,5.8E1,3.11E2,3.06E2,4.37E2,1.11E2,9E1,2.6E1,1.2E1,1.6E1,4.2E1,2.32E2,7.9E1,3.01E2,5E0,6.9E1,3.68E2,3.7E1,7.4E1,8.1E1,9E0,1E0,2.5E1,6E0,6E0,2.7E1,1.5E1,2.16E2,1.6E1,2.1E1,5.8E1,2.95E2,6E0,3.7E1,3.2E1,1E1,3.58E2,1.6E1,2.1E1,2.1E1,5.3E1,7.9E1,2E0,3E0,6E0,1.9E1,6E0,4E0,2E0,1.6E1,1.1E1,5E0,1E1,2.11E2,5E0,6E0,1E1,1.6E1,5E0,1.1E1,4.7E1,2.85E2,1E1,2.1E1,1.6E1,1.6E1,1.6E1,5E0,3.53E2,6E0,1E1,5E0,1.6E1,6E0,1.5E1,3.7E1,1.6E1,7.2E1,7E0,1E0,1E0,1E0,2E0,4E0,2E0,1.2E1,7E0,2E0,4E0],"tree_param":{"num_deleted":"0","num_feature":"2","num_nodes":"95","size_leaf_vector":"1"}},{"base_weights":[2.0153973E-4,-1.8250839E-3,9.599167E-3,-6.1574467E-3,-1.0699048E-3,6.7796563E-3,1.8959709E-2,-5.450934E-3,-7.1914624E-3,1.3517168E-3,-2.922392E-3,1.1186346E-2,5.610301E-3,1.5258387E-2,3.0951247E-2,-5.883536E-3,1.4535013E-3,-6.6164794E-4,3.707326E-2,-1.8897042E-2,-1.5316012E-3,6.222163E-3,1.4513835E-2,-2.3563476E-3,7.8093535E-3,1.1290357E-2,2.6136078E-2,1.0308621E-2,2.7794244E-3,-5.4422733E-3,-4.7582905E-3,5.285564E-4,-1.6110675E-2,1.6927218E-2,1.624559E-2,-4.793728E-3,-4.018483E-2,2.3729123E-2,-2.9794904E-3,1.2033009E-3,7.0636137E-3,5.929703E-3,3.541947E-3,1.1537944E-3,-3.8770868E-3,6.637791E-3,1.1296185E-2,1.37049155E-2,1.729928E-3,3.6256086E-2,1.5173776E-2,-1.9794253E-3,7.395612E-6,-4.6866143E-4,1.3830075E-2,-6.3427896E-3,1.7590822E-3,6.878108E-3,1.7228962E-3,-5.685202E-3,1.4374209E-2,-1.572104E-2,-2.7150274E-3,1.9705084E-3,2.480912E-2,-3.0768119E-2,-4.412313E-4,2.5742622E-3,1.3107256E-3,-3.035721E-3,1.1697219E-4,2.2025297E-3,-3.0999274E-3,8.217098E-3,2.2417696E-3,3.3995212E-4,4.5687505E-3,-8.691412E-3,3.076379E-3,1.3644457E-2,4.4835866E-3,-5.598593E-3,9.732142E-3],"categories":[],"categories_nodes":[],"categories_segments":[],"categories_sizes":[],"default_left":[0,0,0,0,0,0,0,0,0,0,0,0,0,0,0,0,0,0,0,0,0,0,0,0,0,0,0,0,0,0,0,0,0,0,0,0,0,0,0,0,0,0,0,0,0,0,0,0,0,0,0,0,0,0,0,0,0,0,0,0,0,0,0,0,0,0,0,0,0,0,0,0,0,0,0,0,0,0,0,0,0,0,0],"id":10,"left_children":[1,3,5,7,9,11,13,15,-1,17,19,21,23,25,27,29,-1,31,33,35,37,39,41,43,45,47,49,-1,-1,51,-1,53,55,-1,57,59,61,63,65,-1,67,-1,-1,-1,69,71,73,75,77,79,81,-1,-1,-1,-1,-1,-1,-1,-1,-1,-1,-1,-1,-1,-1,-1,-1,-1,-1,-1,-1,-1,-1,-1,-1,-1,-1,-1,-1,-1,-1,-1,-1],"loss_changes":[2.5766972E-2,3.634825E-3,6.205572E-3,1.9460027E-3,4.261187E-3,8.956967E-4,1.9688867E-3,7.411516E-4,0E0,2.9655773E-2,1.1924015E-2,5.373871E-4,2.6287446E-3,1.6040858E-3,5.6927E-4,5.9169065E-4,0E0,7.1980283E-3,7.950062E-3,1.2717183E-2,1.8211765E-2,3.297755E-6,7.9444144E-5,3.2617128E-4,4.029679E-4,7.6115504E-4,6.70183E-4,0E0,0E0,9.4165374E-4,0E0,3.4753762E-2,3.2200338E-3,0E0,7.1040005E-4,2.1054886E-2,5.9929546E-3,2.6779056E-2,7.046179E-2,0E0,7.480732E-6,0E0,0E0,0E0,7.230771E-4,1.1510984E-3,1.5183848E-3,5.0013047E-4,2.3908368E-3,3.0327216E-4,4.6950253E-3,0E0,0E0,0E0,0E0,0E0,0E0,0E0,0E0,0E0,0E0,0E0,0E0,0E0,0E0,0E0,0E0,0E0,0E0,0E0,0E0,0E0,0E0,0E0,0E0,0E0,0E0,0E0,0E0,0E0,0E0,0E0,0E0],"parents":[2147483647,0,0,1,1,2,2,3,3,4,4,5,5,6,6,7,7,9,9,10,10,11,11,12,12,13,13,14,14,15,15,17,17,18,18,19,19,20,20,21,21,22,22,23,23,24,24,25,25,26,26,29,29,31,31,32,32,34,34,35,35,36,36,37,37,38,38,40,40,44,44,45,45,46,46,47,47,48,48,49,49,50,50],"right_children":[2,4,6,8,10,12,14,16,-1,18,20,22,24,26,28,30,-1,32,34,36,38,40,42,44,46,48,50,-1,-1,52,-1,54,56,-1,58,60,62,64,66,-1,68,-1,-1,-1,70,72,74,76,78,80,82,-1,-1,-1,-1,-1,-1,-1,-1,-1,-1,-1,-1,-1,-1,-1,-1,-1,-1,-1,-1,-1,-1,-1,-1,-1,-1,-1,-1,-1,-1,-1,-1],"split_conditions":[6.119944E-1,1.4658967E-1,8.777772E-1,1.4568336E-1,3.870734E-1,6.3864E-1,3.17616E-1,1.4464757E-1,-7.1914624E-3,3.7156248E-1,4.116474E-1,6.281268E-1,6.9136155E-1,9.725258E-1,3.67116E-1,1.4348231E-1,1.4535013E-3,3.3849502E-1,3.7767363E-1,4.0434512E-1,4.2739138E-1,6.1919314E-1,6.333834E-1,6.4330107E-1,1.9125034E-1,2.84135E-1,2.3299862E-1,1.0308621E-2,2.7794244E-3,1.3597286E-1,-4.7582905E-3,3.1159046E-1,3.68481E-1,1.6927218E-2,3.8298202E-1,4.0261018E-1,4.094205E-1,4.2451707E-1,4.2992905E-1,1.2033009E-3,6.264954E-1,5.929703E-3,3.541947E-3,1.1537944E-3,6.565073E-1,5.4147333E-2,8.122637E-1,8.8443214E-1,2.8449675E-1,9.8508465E-1,2.4185084E-1,-1.9794253E-3,7.395612E-6,-4.6866143E-4,1.3830075E-2,-6.3427896E-3,1.7590822E-3,6.878108E-3,1.7228962E-3,-5.685202E-3,1.4374209E-2,-1.572104E-2,-2.7150274E-3,1.9705084E-3,2.480912E-2,-3.0768119E-2,-4.412313E-4,2.5742622E-3,1.3107256E-3,-3.035721E-3,1.1697219E-4,2.2025297E-3,-3.0999274E-3,8.217098E-3,2.2417696E-3,3.3995212E-4,4.5687505E-3,-8.691412E-3,3.076379E-3,1.3644457E-2,4.4835866E-3,-5.598593E-3,9.732142E-3],"split_indices":[1,1,1,1,1,1,0,1,0,1,1,1,1,1,0,1,0,1,1,1,1,1,1,1,0,0,0,0,0,1,0,1,1,0,1,1,1,1,1,0,1,0,0,0,1,0,1,1,0,1,0,0,0,0,0,0,0,0,0,0,0,0,0,0,0,0,0,0,0,0,0,0,0,0,0,0,0,0,0,0,0,0,0],"split_type":[0,0,0,0,0,0,0,0,0,0,0,0,0,0,0,0,0,0,0,0,0,0,0,0,0,0,0,0,0,0,0,0,0,0,0,0,0,0,0,0,0,0,0,0,0,0,0,0,0,0,0,0,0,0,0,0,0,0,0,0,0,0,0,0,0,0,0,0,0,0,0,0,0,0,0,0,0,0,0,0,0,0,0],"sum_hessian":[1.351E3,1.112E3,2.39E2,1.64E2,9.48E2,1.85E2,5.4E1,1.59E2,5E0,4.11E2,5.37E2,3.7E1,1.48E2,4.3E1,1.1E1,1.53E2,6E0,3.9E2,2.1E1,4.2E1,4.95E2,1.6E1,2.1E1,3.2E1,1.16E2,3.3E1,1E1,9E0,2E0,1.48E2,5E0,3.63E2,2.7E1,1E1,1.1E1,2.6E1,1.6E1,2.6E1,4.69E2,6E0,1E1,5E0,1.6E1,6E0,2.6E1,8.9E1,2.7E1,2.6E1,7E0,4E0,6E0,1.22E2,2.6E1,3.48E2,1.5E1,2.2E1,5E0,6E0,5E0,2.1E1,5E0,1.1E1,5E0,2.1E1,5E0,6E0,4.63E2,5E0,5E0,1E1,1.6E1,8.6E1,3E0,4E0,2.3E1,3E0,2.3E1,1E0,6E0,2E0,2E0,2E0,4E0],"tree_param":{"num_deleted":"0","num_feature":"2","num_nodes":"83","size_leaf_vector":"1"}},{"base_weights":[1.8890323E-4,-1.4441893E-3,6.3905106E-3,-1.0194208E-3,-1.0475831E-2,1.2911127E-2,5.5736513E-3,-1.6348049E-3,1.751029E-2,-1.45542165E-2,8.10913E-4,3.349709E-3,1.3561081E-2,-1.3123889E-3,-1.6319932E-2,1.1198286E-2,5.904916E-3,1.9564746E-2,-1.3717544E-2,-4.2322967E-3,4.6768943E-3,1.0511105E-2,2.377937E-2,-1.5733723E-3,1.3671571E-2,-1.6556488E-3,9.589478E-3,9.108265E-3,3.274759E-3,-1.5441093E-2,4.1387448E-4,9.225011E-3,-1.1380269E-2,7.581969E-3,3.7769284E-3,7.987988E-3,1.8271772E-2,1.4319377E-2,8.952693E-3,-3.5432668E-4,-1.9340634E-2,8.238989E-3,1.6909235E-3,7.4429554E-3,3.5405086E-4,4.706273E-3,-7.0940345E-3,-3.405537E-3,9.508133E-3,-5.3248205E-3,-2.538874E-3,1.268727E-3,3.1770642E-3,-5.108782E-4,1.6073419E-3,2.9344151E-3,-4.0545806E-4,5.95847E-3,2.2235394E-3,8.701462E-3,-4.4788723E-3],"categories":[],"categories_nodes":[],"categories_segments":[],"categories_sizes":[],"default_left":[0,0,0,0,0,0,0,0,0,0,0,0,0,0,0,0,0,0,0,0,0,0,0,0,0,0,0,0,0,0,0,0,0,0,0,0,0,0,0,0,0,0,0,0,0,0,0,0,0,0,0,0,0,0,0,0,0,0,0,0,0],"id":11,"left_children":[1,3,5,7,9,-1,11,13,15,-1,17,19,21,23,-1,-1,25,27,29,31,33,35,37,39,41,-1,43,-1,-1,-1,45,47,49,51,53,55,57,59,-1,-1,-1,-1,-1,-1,-1,-1,-1,-1,-1,-1,-1,-1,-1,-1,-1,-1,-1,-1,-1,-1,-1],"loss_changes":[1.37020135E-2,4.0980587E-3,8.20182E-3,1.1705184E-2,2.064707E-2,0E0,4.875087E-3,1.6804779E-2,7.36917E-3,0E0,1.0622022E-2,2.2134688E-3,1.6199844E-3,3.8812393E-3,0E0,0E0,9.789355E-4,1.2559518E-3,1.1758305E-2,3.2793344E-3,4.576547E-4,7.9393666E-4,3.1829672E-4,2.388117E-2,1.7291235E-3,0E0,2.1465977E-3,0E0,0E0,0E0,6.61838E-3,5.9078047E-3,2.5857124E-4,3.889231E-4,1.2565933E-3,6.496981E-4,4.2706728E-5,3.4397775E-3,0E0,0E0,0E0,0E0,0E0,0E0,0E0,0E0,0E0,0E0,0E0,0E0,0E0,0E0,0E0,0E0,0E0,0E0,0E0,0E0,0E0,0E0,0E0],"parents":[2147483647,0,0,1,1,2,2,3,3,4,4,6,6,7,7,8,8,10,10,11,11,12,12,13,13,16,16,17,17,18,18,19,19,20,20,21,21,22,22,23,23,24,24,26,26,30,30,31,31,32,32,33,33,34,34,35,35,36,36,37,37],"right_children":[2,4,6,8,10,-1,12,14,16,-1,18,20,22,24,-1,-1,26,28,30,32,34,36,38,40,42,-1,44,-1,-1,-1,46,48,50,52,54,56,58,60,-1,-1,-1,-1,-1,-1,-1,-1,-1,-1,-1,-1,-1,-1,-1,-1,-1,-1,-1,-1,-1,-1,-1],"split_conditions":[5.931431E-1,5.775804E-1,5.955513E-1,5.644777E-1,5.7985914E-1,1.2911127E-2,8.684551E-1,5.6284636E-1,5.6963074E-1,-1.45542165E-2,5.8661765E-1,6.0974157E-1,9.725258E-1,5.5834067E-1,-1.6319932E-2,1.1198286E-2,5.7209074E-1,5.8159405E-1,5.8804184E-1,6.006525E-1,6.3864E-1,3.1509116E-1,2.4185084E-1,5.568647E-1,5.599979E-1,-1.6556488E-3,5.7408464E-1,9.108265E-3,3.274759E-3,-1.5441093E-2,5.9101975E-1,5.974416E-1,6.023357E-1,6.281268E-1,6.9136155E-1,2.84135E-1,3.67116E-1,2.3299862E-1,8.952693E-3,-3.5432668E-4,-1.9340634E-2,8.238989E-3,1.6909235E-3,7.4429554E-3,3.5405086E-4,4.706273E-3,-7.0940345E-3,-3.405537E-3,9.508133E-3,-5.3248205E-3,-2.538874E-3,1.268727E-3,3.1770642E-3,-5.108782E-4,1.6073419E-3,2.9344151E-3,-4.0545806E-4,5.95847E-3,2.2235394E-3,8.701462E-3,-4.4788723E-3],"split_indices":[1,1,1,1,1,0,1,1,1,0,1,1,1,1,0,0,1,1,1,1,1,0,0,1,1,0,1,0,0,0,1,1,1,1,1,0,0,0,0,0,0,0,0,0,0,0,0,0,0,0,0,0,0,0,0,0,0,0,0,0,0],"split_type":[0,0,0,0,0,0,0,0,0,0,0,0,0,0,0,0,0,0,0,0,0,0,0,0,0,0,0,0,0,0,0,0,0,0,0,0,0,0,0,0,0,0,0,0,0,0,0,0,0,0,0,0,0,0,0,0,0,0,0,0,0],"sum_hessian":[1.351E3,1.07E3,2.81E2,1.023E3,4.7E1,5E0,2.76E2,9.91E2,3.2E1,1E1,3.7E1,2.17E2,5.9E1,9.86E2,5E0,1.1E1,2.1E1,1.6E1,2.1E1,3.2E1,1.85E2,4.7E1,1.2E1,9.7E2,1.6E1,5E0,1.6E1,6E0,1E1,5E0,1.6E1,1.1E1,2.1E1,4.2E1,1.43E2,3.7E1,1E1,6E0,6E0,9.65E2,5E0,5E0,1.1E1,5E0,1.1E1,1E1,6E0,6E0,5E0,5E0,1.6E1,2.1E1,2.1E1,3.2E1,1.11E2,3.1E1,6E0,8E0,2E0,4E0,2E0],"tree_param":{"num_deleted":"0","num_feature":"2","num_nodes":"61","size_leaf_vector":"1"}},{"base_weights":[1.4097955E-4,-1.9384403E-3,3.023313E-3,-2.598373E-4,-1.5778922E-2,8.717695E-3,2.2145475E-3,-6.659382E-4,1.4087657E-2,-2.5200035E-2,-5.533494E-3,-9.893348E-3,2.9924994E-3,-1.2258804E-4,-3.4540087E-2,-1.2432566E-2,-2.9079113E-2,2.5361067E-2,-1.5980577E-2,2.6009513E-2,2.4647173E-3,-1.3401042E-3,2.4046976E-2,-1.3078729E-2,-5.918319E-3,-7.8882E-3,1.7433593E-3,-1.0875778E-2,-2.01951E-2,4.5324275E-3,9.41616E-3,-1.3033326E-2,-9.285629E-3,3.792774E-4,1.3051226E-2,-2.6767416E-2,3.079532E-3,-8.150866E-5,-1.7569907E-2,2.4205765E-2,3.3153747E-3,3.992274E-3,-1.0579055E-2,-1.236492E-3,-8.001795E-3,3.0375363E-3,-1.7759616E-2,4.8622093E-3,5.1217596E-4],"categories":[],"categories_nodes":[],"categories_segments":[],"categories_sizes":[],"default_left":[0,0,0,0,0,0,0,0,0,0,0,0,0,0,0,0,0,0,0,0,0,0,0,0,0,0,0,0,0,0,0,0,0,0,0,0,0,0,0,0,0,0,0,0,0,0,0,0,0],"id":12,"left_children":[1,3,5,7,9,-1,11,13,-1,15,17,-1,19,21,23,25,27,29,31,33,35,37,39,-1,-1,-1,-1,-1,41,-1,-1,-1,43,-1,-1,45,47,-1,-1,-1,-1,-1,-1,-1,-1,-1,-1,-1,-1],"loss_changes":[8.109182E-3,1.825678E-2,1.1874823E-2,1.3492511E-2,8.065037E-3,0E0,1.5183947E-2,1.2824415E-2,0E0,1.8176176E-3,1.3961122E-2,0E0,6.4957947E-3,2.024846E-2,6.154487E-4,3.1874157E-3,1.3709404E-3,2.0544278E-4,5.4804003E-3,5.139892E-3,9.589799E-3,4.003145E-2,2.3398418E-2,0E0,0E0,0E0,0E0,0E0,9.051421E-3,0E0,0E0,0E0,2.3142972E-3,0E0,0E0,1.3760596E-2,9.322139E-3,0E0,0E0,0E0,0E0,0E0,0E0,0E0,0E0,0E0,0E0,0E0,0E0],"parents":[2147483647,0,0,1,1,2,2,3,3,4,4,6,6,7,7,9,9,10,10,12,12,13,13,14,14,15,15,16,16,17,17,18,18,19,19,20,20,21,21,22,22,28,28,32,32,35,35,36,36],"right_children":[2,4,6,8,10,-1,12,14,-1,16,18,-1,20,22,24,26,28,30,32,34,36,38,40,-1,-1,-1,-1,-1,42,-1,-1,-1,44,-1,-1,46,48,-1,-1,-1,-1,-1,-1,-1,-1,-1,-1,-1,-1],"split_conditions":[4.8767415E-1,4.481071E-1,4.917137E-1,4.4745973E-1,4.718266E-1,8.717695E-3,4.9632296E-1,4.4344607E-1,1.4087657E-2,4.509555E-1,4.7558135E-1,-9.893348E-3,4.9873117E-1,4.320783E-1,4.4632035E-1,4.4890985E-1,4.5851675E-1,4.7387227E-1,4.777565E-1,4.976177E-1,5.011135E-1,4.2739138E-1,4.335284E-1,-1.3078729E-2,-5.918319E-3,-7.8882E-3,1.7433593E-3,-1.0875778E-2,4.6012223E-1,4.5324275E-3,9.41616E-3,-1.3033326E-2,4.869232E-1,3.792774E-4,1.3051226E-2,4.9927494E-1,5.2283907E-1,-8.150866E-5,-1.7569907E-2,2.4205765E-2,3.3153747E-3,3.992274E-3,-1.0579055E-2,-1.236492E-3,-8.001795E-3,3.0375363E-3,-1.7759616E-2,4.8622093E-3,5.1217596E-4],"split_indices":[1,1,1,1,1,0,1,1,0,1,1,0,1,1,1,1,1,1,1,1,1,1,1,0,0,0,0,0,1,0,0,0,1,0,0,1,1,0,0,0,0,0,0,0,0,0,0,0,0],"split_type":[0,0,0,0,0,0,0,0,0,0,0,0,0,0,0,0,0,0,0,0,0,0,0,0,0,0,0,0,0,0,0,0,0,0,0,0,0,0,0,0,0,0,0,0,0,0,0,0,0],"sum_hessian":[1.351E3,7.85E2,5.66E2,7.01E2,8.4E1,1.6E1,5.5E2,6.96E2,5E0,4.3E1,4.1E1,1.1E1,5.39E2,6.86E2,1E1,1.1E1,3.2E1,1E1,3.1E1,1.1E1,5.28E2,6.54E2,3.2E1,5E0,5E0,6E0,5E0,1.6E1,1.6E1,5E0,5E0,5E0,2.6E1,5E0,6E0,1E1,5.18E2,6.43E2,1.1E1,5E0,2.7E1,5E0,1.1E1,2.1E1,5E0,5E0,5E0,4.8E1,4.7E2],"tree_param":{"num_deleted":"0","num_feature":"2","num_nodes":"49","size_leaf_vector":"1"}},{"base_weights":[8.088517E-5,-6.1269396E-4,6.661195E-3,-2.5301035E-3,4.975246E-4,5.434809E-3,1.7186271E-2,-1.6624181E-3,-1.107859E-2,2.0926436E-2,-1.3273301E-4,3.6200306E-3,8.060648E-3,1.0187788E-2,6.518872E-3,-2.5502048E-3,9.042151E-3,-2.503039E-2,3.9507524E-4,5.320553E-3,-8.685853E-3,1.4519233E-2,5.431441E-3,2.1633971E-2,-3.6855342E-3,-1.9989961E-3,-9.3089435E-3,-2.7254277E-3,-1.8525327E-2,9.33934E-3,-1.0801657E-3,4.429291E-3,9.086824E-3,-8.378997E-3,-2.7890876E-3,7.521791E-3,5.83275E-3,-9.644349E-3,8.265551E-3,9.07284E-3,5.813817E-3,-8.110631E-4,3.0399673E-3,-3.7460432E-3,-1.6051951E-3,-1.11168455E-2,9.617861E-3,1.373374E-3,8.258303E-3,-7.8011192E-3,-1.9482936E-4,1.5609664E-3,-6.417069E-3,3.5804093E-3,-2.9058396E-3,5.7200613E-3,-2.7288438E-4,-7.743359E-4,-3.1622315E-3,6.5840455E-3,1.3954275E-3,5.030394E-4,2.1131784E-3],"categories":[],"categories_nodes":[],"categories_segments":[],"categories_sizes":[],"default_left":[0,0,0,0,0,0,0,0,0,0,0,0,0,0,0,0,0,0,0,0,0,0,0,0,0,0,0,0,0,0,0,0,0,0,0,0,0,0,0,0,0,0,0,0,0,0,0,0,0,0,0,0,0,0,0,0,0,0,0,0,0,0,0],"id":13,"left_children":[1,3,5,7,9,11,13,15,-1,-1,17,19,21,23,-1,25,-1,27,29,31,33,35,37,39,-1,41,43,45,-1,47,49,51,-1,-1,53,55,-1,57,59,-1,61,-1,-1,-1,-1,-1,-1,-1,-1,-1,-1,-1,-1,-1,-1,-1,-1,-1,-1,-1,-1,-1,-1],"loss_changes":[6.1745625E-3,2.6068413E-3,1.5717032E-3,1.3339956E-2,3.3881597E-2,5.283619E-4,1.9197445E-4,1.247168E-2,0E0,0E0,1.0128604E-2,1.5319905E-3,7.192446E-4,2.0663782E-3,0E0,1.5758947E-3,0E0,1.2936559E-2,9.972272E-3,1.2678291E-3,9.4340445E-4,3.0161114E-4,1.5751416E-3,5.051391E-4,0E0,3.4208423E-3,3.3571292E-4,1.4324126E-2,0E0,9.140438E-3,6.950413E-3,1.3502135E-3,0E0,0E0,9.2800584E-4,6.987322E-4,0E0,1.0782853E-5,1.3812906E-3,0E0,3.4557306E-6,0E0,0E0,0E0,0E0,0E0,0E0,0E0,0E0,0E0,0E0,0E0,0E0,0E0,0E0,0E0,0E0,0E0,0E0,0E0,0E0,0E0,0E0],"parents":[2147483647,0,0,1,1,2,2,3,3,4,4,5,5,6,6,7,7,10,10,11,11,12,12,13,13,15,15,17,17,18,18,19,19,20,20,21,21,22,22,23,23,25,25,26,26,27,27,29,29,30,30,31,31,34,34,35,35,37,37,38,38,40,40],"right_children":[2,4,6,8,10,12,14,16,-1,-1,18,20,22,24,-1,26,-1,28,30,32,34,36,38,40,-1,42,44,46,-1,48,50,52,-1,-1,54,56,-1,58,60,-1,62,-1,-1,-1,-1,-1,-1,-1,-1,-1,-1,-1,-1,-1,-1,-1,-1,-1,-1,-1,-1,-1,-1],"split_conditions":[7.643068E-1,2.6156196E-1,9.725258E-1,2.5677145E-1,2.677508E-1,2.4112523E-1,2.4185084E-1,2.521881E-1,-1.107859E-2,2.0926436E-2,2.8144908E-1,2.16528E-1,2.628374E-1,2.3299862E-1,6.518872E-3,2.2810607E-1,9.042151E-3,2.7632192E-1,3.870734E-1,9.67554E-1,2.3077333E-1,2.4873854E-1,2.7162334E-1,9.8508465E-1,-3.6855342E-3,2.089958E-1,2.3577088E-1,2.730851E-1,-1.8525327E-2,3.7156248E-1,3.9605883E-1,9.296183E-1,9.086824E-3,-8.378997E-3,2.330272E-1,2.4748316E-1,5.83275E-3,8.274898E-1,2.84135E-1,9.07284E-3,5.4147333E-2,-8.110631E-4,3.0399673E-3,-3.7460432E-3,-1.6051951E-3,-1.11168455E-2,9.617861E-3,1.373374E-3,8.258303E-3,-7.8011192E-3,-1.9482936E-4,1.5609664E-3,-6.417069E-3,3.5804093E-3,-2.9058396E-3,5.7200613E-3,-2.7288438E-4,-7.743359E-4,-3.1622315E-3,6.5840455E-3,1.3954275E-3,5.030394E-4,2.1131784E-3],"split_indices":[1,1,1,1,1,0,0,1,0,0,1,0,0,0,0,1,0,1,1,1,0,0,0,1,0,1,1,1,0,1,1,1,0,0,0,0,0,1,0,0,0,0,0,0,0,0,0,0,0,0,0,0,0,0,0,0,0,0,0,0,0,0,0],"split_type":[0,0,0,0,0,0,0,0,0,0,0,0,0,0,0,0,0,0,0,0,0,0,0,0,0,0,0,0,0,0,0,0,0,0,0,0,0,0,0,0,0,0,0,0,0,0,0,0,0,0,0,0,0,0,0,0,0,0,0,0,0,0,0],"sum_hessian":[1.351E3,1.223E3,1.28E2,4.48E2,7.75E2,1.16E2,1.2E1,4.38E2,1E1,6E0,7.69E2,7E1,4.6E1,6E0,6E0,4.27E2,1.1E1,1.5E1,7.54E2,6.2E1,8E0,1.2E1,3.4E1,4E0,2E0,3.96E2,3.1E1,1E1,5E0,1.06E2,6.48E2,6.1E1,1E0,1E0,7E0,6E0,6E0,5E0,2.9E1,2E0,2E0,3.75E2,2.1E1,1.6E1,1.5E1,5E0,5E0,8.5E1,2.1E1,1E1,6.38E2,6E1,1E0,2E0,5E0,2E0,4E0,1E0,4E0,5E0,2.4E1,1E0,1E0],"tree_param":{"num_deleted":"0","num_feature":"2","num_nodes":"63","size_leaf_vector":"1"}},{"base_weights":[7.4185125E-5,-1.1260197E-3,2.5644416E-3,-3.0763846E-4,-2.7969655E-2,1.597038E-2,1.4738523E-3,-7.8923505E-4,2.43852E-2,-1.6765265E-2,-1.9085245E-2,3.6602453E-3,1.1162428E-2,-7.915987E-3,2.71828E-3,2.0423032E-4,-4.21165E-3,3.242668E-2,1.2714125E-3,-3.1741925E-3,-2.662797E-2,6.8076733E-3,-3.272239E-3,-3.1065496E-3,-1.2319287E-2,8.031483E-3,1.8858282E-3,-4.5214544E-4,2.2072464E-2,-1.1582653E-2,2.8361508E-3,5.5018933E-3,1.196067E-2,-1.148493E-2,-3.160455E-3,2.3323784E-4,-3.247879E-3,-1.115279E-2,9.8555125E-3,-9.402297E-3,3.0122676E-3,-3.8716914E-7,-1.296563E-2,-1.1821363E-2,-2.8862883E-3,3.5159923E-3,-3.7966258E-4,-1.285786E-4,-1.4584812E-2,4.6648346E-3,-9.5248374E-4,1.2328959E-3,-1.0671434E-2,6.684529E-3,7.71509E-4],"categories":[],"categories_nodes":[],"categories_segments":[],"categories_sizes":[],"default_left":[0,0,0,0,0,0,0,0,0,0,0,0,0,0,0,0,0,0,0,0,0,0,0,0,0,0,0,0,0,0,0,0,0,0,0,0,0,0,0,0,0,0,0,0,0,0,0,0,0,0,0,0,0,0,0],"id":14,"left_children":[1,3,5,7,9,11,13,15,17,-1,19,21,-1,23,25,27,29,31,-1,-1,33,-1,35,37,-1,-1,39,41,-1,43,45,-1,-1,-1,-1,-1,-1,47,49,51,53,-1,-1,-1,-1,-1,-1,-1,-1,-1,-1,-1,-1,-1,-1],"loss_changes":[4.043769E-3,2.0048479E-2,6.4094253E-3,1.0567439E-2,5.6295563E-3,8.4913E-3,4.7889883E-3,2.9623045E-3,2.6167948E-3,0E0,1.1295136E-3,2.9769132E-3,0E0,7.5248163E-3,7.1779033E-3,3.258856E-2,1.0214924E-2,5.2688457E-4,0E0,0E0,1.659934E-3,0E0,5.284727E-4,4.594639E-3,0E0,0E0,4.478709E-3,1.2937857E-2,0E0,4.860378E-3,3.6951418E-3,0E0,0E0,0E0,0E0,0E0,0E0,1.0826768E-2,1.310677E-3,1.1461265E-2,2.650874E-3,0E0,0E0,0E0,0E0,0E0,0E0,0E0,0E0,0E0,0E0,0E0,0E0,0E0,0E0],"parents":[2147483647,0,0,1,1,2,2,3,3,4,4,5,5,6,6,7,7,8,8,10,10,11,11,13,13,14,14,15,15,16,16,17,17,20,20,22,22,23,23,26,26,27,27,29,29,30,30,37,37,38,38,39,39,40,40],"right_children":[2,4,6,8,10,12,14,16,18,-1,20,22,-1,24,26,28,30,32,-1,-1,34,-1,36,38,-1,-1,40,42,-1,44,46,-1,-1,-1,-1,-1,-1,48,50,52,54,-1,-1,-1,-1,-1,-1,-1,-1,-1,-1,-1,-1,-1,-1],"split_conditions":[5.387643E-1,5.2599823E-1,5.510384E-1,5.159511E-1,5.2980477E-1,5.485266E-1,5.644777E-1,4.3935472E-1,5.2283907E-1,-1.6765265E-2,5.3270495E-1,5.411207E-1,1.1162428E-2,5.6284636E-1,5.6963074E-1,4.380341E-1,4.8376405E-1,5.179191E-1,1.2714125E-3,-3.1741925E-3,5.352944E-1,6.8076733E-3,5.468952E-1,5.5834067E-1,-1.2319287E-2,8.031483E-3,5.7985914E-1,4.3427935E-1,2.2072464E-2,4.4147807E-1,4.917137E-1,5.5018933E-3,1.196067E-2,-1.148493E-2,-3.160455E-3,2.3323784E-4,-3.247879E-3,5.568647E-1,5.621472E-1,5.775804E-1,5.8159405E-1,-3.8716914E-7,-1.296563E-2,-1.1821363E-2,-2.8862883E-3,3.5159923E-3,-3.7966258E-4,-1.285786E-4,-1.4584812E-2,4.6648346E-3,-9.5248374E-4,1.2328959E-3,-1.0671434E-2,6.684529E-3,7.71509E-4],"split_indices":[1,1,1,1,1,1,1,1,1,0,1,1,0,1,1,1,1,1,0,0,1,0,1,1,0,0,1,1,0,1,1,0,0,0,0,0,0,1,1,1,1,0,0,0,0,0,0,0,0,0,0,0,0,0,0],"split_type":[0,0,0,0,0,0,0,0,0,0,0,0,0,0,0,0,0,0,0,0,0,0,0,0,0,0,0,0,0,0,0,0,0,0,0,0,0,0,0,0,0,0,0,0,0,0,0,0,0,0,0,0,0,0,0],"sum_hessian":[1.351E3,9.12E2,4.39E2,8.86E2,2.6E1,3.2E1,4.07E2,8.7E2,1.6E1,5E0,2.1E1,2.1E1,1.1E1,4.7E1,3.6E2,6.75E2,1.95E2,1.1E1,5E0,1.1E1,1E1,5E0,1.6E1,4.2E1,5E0,1.1E1,3.49E2,6.7E2,5E0,9.5E1,1E2,5E0,6E0,5E0,5E0,1.1E1,5E0,2.6E1,1.6E1,3.1E1,3.18E2,6.64E2,6E0,5E0,9E1,3.1E1,6.9E1,2.1E1,5E0,1.1E1,5E0,2.1E1,1E1,6E0,3.12E2],"tree_param":{"num_deleted":"0","num_feature":"2","num_nodes":"55","size_leaf_vector":"1"}},{"base_weights":[3.6666435E-5,-2.5527016E-4,6.925703E-3,-1.7821691E-3,5.515921E-4,4.984213E-3,1.5163988E-2,-1.1498152E-3,-8.057049E-3,1.5545451E-2,1.2574182E-4,1.2420952E-2,2.839575E-3,5.220368E-3,1.2430073E-3,-1.7920457E-3,6.5556685E-3,-1.877243E-2,4.9033173E-4,4.4837594E-3,1.9461393E-2,-9.834032E-3,5.1271394E-3,-1.4456466E-3,-8.118971E-3,-2.0437269E-3,-1.3893896E-2,1.055343E-2,-2.8037268E-4,1.2807488E-2,-5.570233E-3,8.402479E-3,4.4273934E-3,-2.150333E-3,-7.2378786E-3,7.943874E-3,-9.7243354E-4,-5.92136E-4,1.1204435E-3,-5.018168E-3,-1.1536271E-3,-8.3375415E-3,7.2134915E-3,7.2652375E-4,9.676792E-3,-4.791608E-3,6.055645E-5,-1.0819763E-3,5.3437967E-3,3.118515E-4,1.6804755E-3,-3.9897026E-3,2.9145363E-3,1.6600944E-3,6.4092283E-3,1.699247E-3,-6.167418E-3],"categories":[],"categories_nodes":[],"categories_segments":[],"categories_sizes":[],"default_left":[0,0,0,0,0,0,0,0,0,0,0,0,0,0,0,0,0,0,0,0,0,0,0,0,0,0,0,0,0,0,0,0,0,0,0,0,0,0,0,0,0,0,0,0,0,0,0,0,0,0,0,0,0,0,0,0,0],"id":15,"left_children":[1,3,5,7,9,11,13,15,-1,-1,17,19,21,-1,-1,23,-1,25,27,29,31,33,35,37,39,41,-1,43,45,47,-1,-1,49,51,-1,53,55,-1,-1,-1,-1,-1,-1,-1,-1,-1,-1,-1,-1,-1,-1,-1,-1,-1,-1,-1,-1],"loss_changes":[2.7208587E-3,1.6001153E-3,8.0411974E-4,7.0884908E-3,1.8550588E-2,6.98389E-4,1.7445814E-4,6.524338E-3,0E0,0E0,5.824435E-3,4.715533E-4,1.123113E-3,0E0,0E0,9.2628505E-4,0E0,7.276833E-3,6.4324127E-3,1.3890342E-3,5.184645E-4,6.0702354E-4,5.575131E-4,1.1209263E-3,7.45008E-4,8.057324E-3,0E0,1.0334097E-2,5.837341E-3,4.750188E-4,0E0,0E0,6.1112114E-6,7.906218E-4,0E0,5.933854E-4,1.5462434E-3,0E0,0E0,0E0,0E0,0E0,0E0,0E0,0E0,0E0,0E0,0E0,0E0,0E0,0E0,0E0,0E0,0E0,0E0,0E0,0E0],"parents":[2147483647,0,0,1,1,2,2,3,3,4,4,5,5,6,6,7,7,10,10,11,11,12,12,15,15,17,17,18,18,19,19,20,20,21,21,22,22,23,23,24,24,25,25,27,27,28,28,29,29,32,32,33,33,35,35,36,36],"right_children":[2,4,6,8,10,12,14,16,-1,-1,18,20,22,-1,-1,24,-1,26,28,30,32,34,36,38,40,42,-1,44,46,48,-1,-1,50,52,-1,54,56,-1,-1,-1,-1,-1,-1,-1,-1,-1,-1,-1,-1,-1,-1,-1,-1,-1,-1,-1,-1],"split_conditions":[8.777772E-1,2.6156196E-1,3.33195E-1,2.5677145E-1,2.677508E-1,1.8615167E-1,3.67116E-1,2.521881E-1,-8.057049E-3,1.5545451E-2,2.8144908E-1,9.67554E-1,2.3077333E-1,5.220368E-3,1.2430073E-3,2.3095448E-1,6.5556685E-3,2.7632192E-1,3.3849502E-1,1.52006E-1,9.8508465E-1,2.1397126E-1,2.84135E-1,2.0487855E-1,2.3577088E-1,2.730851E-1,-1.3893896E-2,3.1159046E-1,3.68481E-1,5.4147333E-2,-5.570233E-3,8.402479E-3,5.4147333E-2,9.1884613E-1,-7.2378786E-3,2.7737466E-1,9.67554E-1,-5.92136E-4,1.1204435E-3,-5.018168E-3,-1.1536271E-3,-8.3375415E-3,7.2134915E-3,7.2652375E-4,9.676792E-3,-4.791608E-3,6.055645E-5,-1.0819763E-3,5.3437967E-3,3.118515E-4,1.6804755E-3,-3.9897026E-3,2.9145363E-3,1.6600944E-3,6.4092283E-3,1.699247E-3,-6.167418E-3],"split_indices":[1,1,0,1,1,0,0,1,0,0,1,1,0,0,0,1,0,1,1,0,1,0,0,1,1,1,0,1,1,0,0,0,0,1,0,0,1,0,0,0,0,0,0,0,0,0,0,0,0,0,0,0,0,0,0,0,0],"split_type":[0,0,0,0,0,0,0,0,0,0,0,0,0,0,0,0,0,0,0,0,0,0,0,0,0,0,0,0,0,0,0,0,0,0,0,0,0,0,0,0,0,0,0,0,0,0,0,0,0,0,0,0,0,0,0,0,0],"sum_hessian":[1.351E3,1.297E3,5.4E1,4.48E2,8.49E2,4.5E1,9E0,4.38E2,1E1,6E0,8.43E2,9E0,3.6E1,7E0,2E0,4.27E2,1.1E1,1.5E1,8.28E2,5E0,4E0,5E0,3.1E1,4.06E2,2.1E1,1E1,5E0,5.8E1,7.7E2,4E0,1E0,2E0,2E0,4E0,1E0,2.1E1,1E1,3.69E2,3.7E1,6E0,1.5E1,5E0,5E0,4.3E1,1.5E1,2.2E1,7.48E2,1E0,3E0,1E0,1E0,2E0,2E0,1.9E1,2E0,8E0,2E0],"tree_param":{"num_deleted":"0","num_feature":"2","num_nodes":"57","size_leaf_vector":"1"}},{"base_weights":[3.2984033E-5,-5.3964136E-4,2.2076254E-3,-3.0927497E-4,-1.1509874E-2,9.395979E-3,1.5690641E-3,-4.991033E-4,1.1254946E-2,-1.1868174E-2,-9.325734E-4,-4.130596E-3,2.330369E-3,-2.2548405E-4,-7.7775577E-3,4.9500745E-3,2.0681552E-3,1.0364204E-2,-5.565428E-3,5.912401E-3,-9.42084E-3,1.8826579E-3,1.0175471E-2,-5.3063745E-4,8.954445E-3,4.5287097E-3,5.0018105E-4,-2.8253982E-3,6.8437387E-3,-6.619093E-3,-4.7366945E-3,1.5237259E-3,6.6554397E-3,5.4170573E-3,1.3480246E-2,-1.03738676E-4,-9.254606E-3,5.8061695E-3,8.624987E-4,-3.0896661E-3,5.531028E-4,5.897783E-4,-2.3611987E-3,1.1418507E-3,3.6487805E-3,4.3360163E-3,-3.4347535E-3,6.106827E-3,2.6824772E-3],"categories":[],"categories_nodes":[],"categories_segments":[],"categories_sizes":[],"default_left":[0,0,0,0,0,0,0,0,0,0,0,0,0,0,0,0,0,0,0,0,0,0,0,0,0,0,0,0,0,0,0,0,0,0,0,0,0,0,0,0,0,0,0,0,0,0,0,0,0],"id":16,"left_children":[1,3,5,7,9,-1,11,13,15,-1,17,19,21,23,-1,-1,-1,25,-1,27,29,31,33,35,37,-1,-1,-1,-1,39,-1,41,43,45,47,-1,-1,-1,-1,-1,-1,-1,-1,-1,-1,-1,-1,-1,-1],"loss_changes":[1.6847759E-3,2.7030427E-3,5.193234E-3,2.3105948E-3,6.4905225E-3,0E0,1.2115787E-3,7.187761E-3,2.7512922E-4,0E0,3.575887E-3,1.8089865E-3,8.41366E-4,2.873269E-3,0E0,0E0,0E0,4.274759E-4,0E0,3.3238626E-3,2.8801337E-4,3.8901204E-4,1.314081E-4,5.548545E-3,2.0307146E-3,0E0,0E0,0E0,0E0,5.4838887E-4,0E0,9.210919E-4,2.0476943E-4,1.2323415E-3,3.6433805E-5,0E0,0E0,0E0,0E0,0E0,0E0,0E0,0E0,0E0,0E0,0E0,0E0,0E0,0E0],"parents":[2147483647,0,0,1,1,2,2,3,3,4,4,6,6,7,7,8,8,10,10,11,11,12,12,13,13,17,17,19,19,20,20,21,21,22,22,23,23,24,24,29,29,31,31,32,32,33,33,34,34],"right_children":[2,4,6,8,10,-1,12,14,16,-1,18,20,22,24,-1,-1,-1,26,-1,28,30,32,34,36,38,-1,-1,-1,-1,40,-1,42,44,46,48,-1,-1,-1,-1,-1,-1,-1,-1,-1,-1,-1,-1,-1,-1],"split_conditions":[5.931431E-1,5.8661765E-1,5.955513E-1,5.7985914E-1,5.8804184E-1,9.395979E-3,6.0974157E-1,5.775804E-1,5.8159405E-1,-1.1868174E-2,5.9101975E-1,6.006525E-1,9.725258E-1,5.644777E-1,-7.7775577E-3,4.9500745E-3,2.0681552E-3,5.9003574E-1,-5.565428E-3,5.974416E-1,6.065824E-1,3.17616E-1,2.4185084E-1,5.6284636E-1,5.6963074E-1,4.5287097E-3,5.0018105E-4,-2.8253982E-3,6.8437387E-3,6.0533947E-1,-4.7366945E-3,2.84135E-1,9.4259155E-1,2.3299862E-1,2.67144E-1,-1.03738676E-4,-9.254606E-3,5.8061695E-3,8.624987E-4,-3.0896661E-3,5.531028E-4,5.897783E-4,-2.3611987E-3,1.1418507E-3,3.6487805E-3,4.3360163E-3,-3.4347535E-3,6.106827E-3,2.6824772E-3],"split_indices":[1,1,1,1,1,0,1,1,1,0,1,1,1,1,0,0,0,1,0,1,1,0,0,1,1,0,0,0,0,1,0,0,1,0,0,0,0,0,0,0,0,0,0,0,0,0,0,0,0],"split_type":[0,0,0,0,0,0,0,0,0,0,0,0,0,0,0,0,0,0,0,0,0,0,0,0,0,0,0,0,0,0,0,0,0,0,0,0,0,0,0,0,0,0,0,0,0,0,0,0,0],"sum_hessian":[1.351E3,1.07E3,2.81E2,1.049E3,2.1E1,5E0,2.76E2,1.033E3,1.6E1,5E0,1.6E1,3.2E1,2.44E2,1.023E3,1E1,6E0,1E1,1E1,6E0,1.1E1,2.1E1,2.32E2,1.2E1,9.91E2,3.2E1,6E0,4E0,6E0,5E0,1.6E1,5E0,2.17E2,1.5E1,6E0,6E0,9.86E2,5E0,1.1E1,2.1E1,1.1E1,5E0,2.08E2,9E0,1.1E1,4E0,4E0,2E0,1E0,5E0],"tree_param":{"num_deleted":"0","num_feature":"2","num_nodes":"49","size_leaf_vector":"1"}},{"base_weights":[2.530641E-5,-2.4543842E-3,3.696866E-4,-1.9176084E-3,-4.9078036E-3,9.204311E-3,1.2502135E-4,-6.352751E-3,-1.1645223E-3,1.1256947E-4,7.965312E-3,-6.8836007E-3,2.65219E-4,-9.3670056E-4,-7.3092314E-3,-1.4966447E-3,1.5794156E-3,1.1432581E-3,-1.1993314E-3,1.3825334E-2,6.1882274E-5,-2.5645099E-3,-1.295353E-3,-1.0700675E-3,-3.0829266E-3,-1.0163413E-3,-5.1508346E-6,-2.1917755E-3,6.9716545E-3,-8.878935E-3,4.135687E-4,-4.974536E-4,1.5847726E-3,-1.8968775E-4,2.1821188E-4,-9.544334E-5,-4.036113E-3,5.8122445E-3,6.6181434E-5],"categories":[],"categories_nodes":[],"categories_segments":[],"categories_sizes":[],"default_left":[0,0,0,0,0,0,0,0,0,0,0,0,0,0,0,0,0,0,0,0,0,0,0,0,0,0,0,0,0,0,0,0,0,0,0,0,0,0,0],"id":17,"left_children":[1,3,5,7,-1,9,11,13,15,17,-1,-1,19,-1,21,23,-1,-1,25,27,29,-1,-1,31,-1,-1,33,-1,-1,35,37,-1,-1,-1,-1,-1,-1,-1,-1],"loss_changes":[1.1554563E-3,1.2001639E-3,2.5667415E-3,5.270092E-4,0E0,5.0437944E-3,3.7482975E-3,4.8244197E-5,3.0255015E-4,1.11309884E-4,0E0,0E0,3.172761E-3,0E0,2.6103982E-5,4.833769E-4,0E0,0E0,4.441089E-5,3.5514098E-3,3.572525E-3,0E0,0E0,4.832391E-4,0E0,0E0,5.972666E-6,0E0,0E0,1.6797585E-3,3.9946935E-3,0E0,0E0,0E0,0E0,0E0,0E0,0E0,0E0],"parents":[2147483647,0,0,1,1,2,2,3,3,5,5,6,6,7,7,8,8,9,9,12,12,14,14,15,15,18,18,19,19,20,20,23,23,26,26,29,29,30,30],"right_children":[2,4,6,8,-1,10,12,14,16,18,-1,-1,20,-1,22,24,-1,-1,26,28,30,-1,-1,32,-1,-1,34,-1,-1,36,38,-1,-1,-1,-1,-1,-1,-1,-1],"split_conditions":[1.4658967E-1,1.4568336E-1,1.5513492E-1,8.7394476E-2,-4.9078036E-3,1.5182039E-1,1.5733595E-1,5.3809106E-2,1.4464757E-1,1.479103E-1,7.965312E-3,-6.8836007E-3,1.6267025E-1,-9.3670056E-4,7.66223E-2,1.4348231E-1,1.5794156E-3,1.1432581E-3,1.4972293E-1,1.5912269E-1,1.7243254E-1,-2.5645099E-3,-1.295353E-3,1.4128126E-1,-3.0829266E-3,-1.0163413E-3,1.5057746E-1,-2.1917755E-3,6.9716545E-3,1.6567403E-1,1.7450412E-1,-4.974536E-4,1.5847726E-3,-1.8968775E-4,2.1821188E-4,-9.544334E-5,-4.036113E-3,5.8122445E-3,6.6181434E-5],"split_indices":[1,1,1,1,0,1,1,1,1,1,0,0,1,0,1,1,0,0,1,1,1,0,0,1,0,0,1,0,0,1,1,0,0,0,0,0,0,0,0],"split_type":[0,0,0,0,0,0,0,0,0,0,0,0,0,0,0,0,0,0,0,0,0,0,0,0,0,0,0,0,0,0,0,0,0,0,0,0,0,0,0],"sum_hessian":[1.351E3,1.64E2,1.187E3,1.59E2,5E0,3.1E1,1.156E3,2.2E1,1.37E2,2.1E1,1E1,6E0,1.15E3,6E0,1.6E1,1.31E2,6E0,5E0,1.6E1,1.6E1,1.134E3,1E1,6E0,1.26E2,5E0,5E0,1.1E1,5E0,1.1E1,4.2E1,1.092E3,1.16E2,1E1,6E0,5E0,1.5E1,2.7E1,1E1,1.082E3],"tree_param":{"num_deleted":"0","num_feature":"2","num_nodes":"39","size_leaf_vector":"1"}},{"base_weights":[1.5970705E-5,-1.672172E-4,4.5089577E-3,-1.2619363E-4,-5.358303E-3,-1.1859903E-3,6.2046982E-3,-1.0672249E-3,4.5712152E-4,9.075175E-3,-8.733615E-3,1.0334387E-2,4.345999E-3,-6.0142594E-4,-1.1725463E-2,1.719257E-2,-2.3806847E-4,4.401094E-3,2.6100278E-3,-1.3301527E-2,-8.403212E-4,4.4960114E-3,6.2661413E-3,-9.0832235E-3,6.761388E-3,-9.83427E-4,1.0129982E-2,3.1527395E-3,6.965757E-3,-1.135282E-2,1.0355684E-4,-8.813918E-4,1.6316057E-3,-8.935034E-4,-9.440044E-3,1.6578466E-3,-1.4413595E-3,6.0305446E-3,-1.1670381E-3,4.468918E-4,-3.6296549E-3,5.3298804E-3,4.553523E-3,-1.4223614E-4,-6.191131E-3,6.9006467E-3,8.5491914E-4,-1.9156487E-3,-4.6122232E-3,6.3637737E-3,-1.6034863E-4,-2.2671819E-3,2.864671E-3,2.4999084E-4,2.6946687E-3,-6.4593856E-3,2.0153672E-3],"categories":[],"categories_nodes":[],"categories_segments":[],"categories_sizes":[],"default_left":[0,0,0,0,0,0,0,0,0,0,0,0,0,0,0,0,0,0,0,0,0,0,0,0,0,0,0,0,0,0,0,0,0,0,0,0,0,0,0,0,0,0,0,0,0,0,0,0,0,0,0,0,0,0,0,0,0],"id":18,"left_children":[1,3,5,7,-1,9,11,13,15,17,19,21,23,25,-1,27,29,-1,31,33,35,37,-1,39,41,43,45,-1,-1,47,49,-1,-1,51,-1,-1,-1,53,-1,-1,-1,-1,55,-1,-1,-1,-1,-1,-1,-1,-1,-1,-1,-1,-1,-1,-1],"loss_changes":[1.1135322E-3,9.413673E-4,5.19188E-4,7.1298325E-4,0E0,1.0860757E-3,2.6979647E-4,8.777659E-3,9.334815E-3,1.7875043E-4,2.7726946E-4,6.4542226E-4,1.0345189E-3,2.0268715E-3,0E0,1.0449002E-3,2.9287245E-3,0E0,7.875229E-5,1.0988609E-3,1.275028E-4,1.3927887E-4,0E0,1.7744186E-4,5.508305E-4,4.754854E-3,1.5275652E-3,0E0,0E0,3.612514E-4,1.0099363E-2,0E0,0E0,3.505068E-4,0E0,0E0,0E0,1.1524002E-4,0E0,0E0,0E0,0E0,1.4431584E-3,0E0,0E0,0E0,0E0,0E0,0E0,0E0,0E0,0E0,0E0,0E0,0E0,0E0,0E0],"parents":[2147483647,0,0,1,1,2,2,3,3,5,5,6,6,7,7,8,8,9,9,10,10,11,11,12,12,13,13,15,15,16,16,18,18,19,19,20,20,21,21,23,23,24,24,25,25,26,26,29,29,30,30,33,33,37,37,42,42],"right_children":[2,4,6,8,-1,10,12,14,16,18,20,22,24,26,-1,28,30,-1,32,34,36,38,-1,40,42,44,46,-1,-1,48,50,-1,-1,52,-1,-1,-1,54,-1,-1,-1,-1,56,-1,-1,-1,-1,-1,-1,-1,-1,-1,-1,-1,-1,-1,-1],"split_conditions":[2.4185084E-1,2.3614167E-1,8.5610336E-1,2.968305E-1,-5.358303E-3,8.342224E-1,2.67144E-1,2.9501787E-1,3.3849502E-1,7.7857476E-1,2.883635E-1,9.4259155E-1,2.7737466E-1,2.8478947E-1,-1.1725463E-2,3.1159046E-1,3.68481E-1,4.401094E-3,8.274898E-1,2.79666E-1,3.0094445E-1,9.296183E-1,6.2661413E-3,8.777772E-1,2.84135E-1,2.7632192E-1,2.8722358E-1,3.1527395E-3,6.965757E-3,3.5467917E-1,3.8298202E-1,-8.813918E-4,1.6316057E-3,2.6725233E-1,-9.440044E-3,1.6578466E-3,-1.4413595E-3,2.482268E-1,-1.1670381E-3,4.468918E-4,-3.6296549E-3,5.3298804E-3,2.8449675E-1,-1.4223614E-4,-6.191131E-3,6.9006467E-3,8.5491914E-4,-1.9156487E-3,-4.6122232E-3,6.3637737E-3,-1.6034863E-4,-2.2671819E-3,2.864671E-3,2.4999084E-4,2.6946687E-3,-6.4593856E-3,2.0153672E-3],"split_indices":[0,0,1,1,0,1,0,1,1,1,0,1,0,1,0,1,1,0,1,0,0,1,0,1,0,1,1,0,0,1,1,0,0,0,0,0,0,0,0,0,0,0,0,0,0,0,0,0,0,0,0,0,0,0,0,0,0],"split_type":[0,0,0,0,0,0,0,0,0,0,0,0,0,0,0,0,0,0,0,0,0,0,0,0,0,0,0,0,0,0,0,0,0,0,0,0,0,0,0,0,0,0,0,0,0,0,0,0,0,0,0,0,0,0,0,0,0],"sum_hessian":[1.351E3,1.299E3,5.2E1,1.297E3,2E0,1.2E1,4E1,4.96E2,8.01E2,5E0,7E0,1.1E1,2.9E1,4.91E2,5E0,3.1E1,7.7E2,2E0,3E0,4E0,3E0,8E0,3E0,4E0,2.5E1,4.75E2,1.6E1,1.6E1,1.5E1,2.2E1,7.48E2,1E0,2E0,3E0,1E0,1E0,2E0,7E0,1E0,1E0,3E0,3E0,2.2E1,4.64E2,1.1E1,5E0,1.1E1,1.1E1,1.1E1,2.1E1,7.27E2,2E0,1E0,3E0,4E0,1E0,2.1E1],"tree_param":{"num_deleted":"0","num_feature":"2","num_nodes":"57","size_leaf_vector":"1"}},{"base_weights":[8.516493E-6,-5.676256E-4,1.203992E-3,4.667169E-5,-2.0727407E-2,1.1069691E-2,2.707401E-4,-3.09664E-4,1.830089E-2,-1.2539609E-2,-1.4038538E-2,2.8656707E-3,2.10355E-2,-1.1559657E-2,9.513631E-4,-1.3514138E-4,-3.837394E-3,2.427978E-2,9.878882E-4,-7.545058E-3,-1.9846102E-2,5.1400843E-3,-2.3386425E-3,8.130525E-3,1.6191244E-3,-2.1310027E-3,-1.0904271E-2,4.9680206E-3,7.004252E-4,-5.4263487E-4,1.5411321E-2,4.1607516E-3,8.920386E-3,-1.0940923E-3,-2.7114686E-3,-8.579357E-3,-2.336E-3,2.0686426E-4,-2.401575E-3,-3.8353682E-3,3.3733596E-3,-6.73638E-3,1.0486946E-3,-7.4915384E-5,-6.770577E-3,1.2873678E-2,7.249363E-4,2.2620091E-4,1.7601148E-3,5.95744E-4,-6.917411E-3,3.1695298E-3,1.2895287E-4],"categories":[],"categories_nodes":[],"categories_segments":[],"categories_sizes":[],"default_left":[0,0,0,0,0,0,0,0,0,0,0,0,0,0,0,0,0,0,0,0,0,0,0,0,0,0,0,0,0,0,0,0,0,0,0,0,0,0,0,0,0,0,0,0,0,0,0,0,0,0,0,0,0],"id":19,"left_children":[1,3,5,7,9,11,13,15,17,-1,19,21,23,25,27,29,-1,31,-1,33,35,-1,37,-1,-1,39,-1,-1,41,43,45,-1,-1,-1,-1,-1,-1,-1,-1,-1,47,49,51,-1,-1,-1,-1,-1,-1,-1,-1,-1,-1],"loss_changes":[9.3189214E-4,1.1307651E-2,4.048163E-3,5.775274E-3,3.2186704E-3,3.046588E-3,3.2559698E-3,1.895597E-3,1.4454708E-3,0E0,6.799088E-4,1.673676E-3,1.466461E-3,5.0643096E-3,1.4846246E-3,5.4565333E-3,0E0,2.6906375E-4,0E0,3.6883866E-5,9.382712E-4,0E0,2.9723253E-4,0E0,0E0,1.0400248E-3,0E0,0E0,9.83499E-4,5.407403E-3,7.7584665E-3,0E0,0E0,0E0,0E0,0E0,0E0,0E0,0E0,0E0,7.395857E-5,2.46592E-3,2.1214758E-3,0E0,0E0,0E0,0E0,0E0,0E0,0E0,0E0,0E0,0E0],"parents":[2147483647,0,0,1,1,2,2,3,3,4,4,5,5,6,6,7,7,8,8,10,10,11,11,12,12,13,13,14,14,15,15,17,17,19,19,20,20,22,22,25,25,28,28,29,29,30,30,40,40,41,41,42,42],"right_children":[2,4,6,8,10,12,14,16,18,-1,20,22,24,26,28,30,-1,32,-1,34,36,-1,38,-1,-1,40,-1,-1,42,44,46,-1,-1,-1,-1,-1,-1,-1,-1,-1,48,50,52,-1,-1,-1,-1,-1,-1,-1,-1,-1,-1],"split_conditions":[5.387643E-1,5.2599823E-1,5.5259204E-1,5.159511E-1,5.2980477E-1,5.485266E-1,5.5834067E-1,5.11057E-1,5.2283907E-1,-1.2539609E-2,5.3270495E-1,5.411207E-1,5.510384E-1,5.568647E-1,5.599979E-1,5.029779E-1,-3.837394E-3,5.179191E-1,9.878882E-4,5.3091824E-1,5.352944E-1,5.1400843E-3,5.468952E-1,8.130525E-3,1.6191244E-3,5.54327E-1,-1.0904271E-2,4.9680206E-3,5.644777E-1,4.9927494E-1,5.0458336E-1,4.1607516E-3,8.920386E-3,-1.0940923E-3,-2.7114686E-3,-8.579357E-3,-2.336E-3,2.0686426E-4,-2.401575E-3,-3.8353682E-3,5.557512E-1,5.6284636E-1,5.7408464E-1,-7.4915384E-5,-6.770577E-3,1.2873678E-2,7.249363E-4,2.2620091E-4,1.7601148E-3,5.95744E-4,-6.917411E-3,3.1695298E-3,1.2895287E-4],"split_indices":[1,1,1,1,1,1,1,1,1,0,1,1,1,1,1,1,0,1,0,1,1,0,1,0,0,1,0,0,1,1,1,0,0,0,0,0,0,0,0,0,1,1,1,0,0,0,0,0,0,0,0,0,0],"split_type":[0,0,0,0,0,0,0,0,0,0,0,0,0,0,0,0,0,0,0,0,0,0,0,0,0,0,0,0,0,0,0,0,0,0,0,0,0,0,0,0,0,0,0,0,0,0,0,0,0,0,0,0,0],"sum_hessian":[1.351E3,9.12E2,4.39E2,8.86E2,2.6E1,3.7E1,4.02E2,8.7E2,1.6E1,5E0,2.1E1,2.1E1,1.6E1,2.1E1,3.81E2,8.59E2,1.1E1,1.1E1,5E0,1.1E1,1E1,5E0,1.6E1,1.1E1,5E0,1.6E1,5E0,5E0,3.76E2,8.38E2,2.1E1,5E0,6E0,4E0,7E0,5E0,5E0,1.1E1,5E0,5E0,1.1E1,1.6E1,3.6E2,8.28E2,1E1,6E0,1.5E1,6E0,5E0,1.1E1,5E0,2.1E1,3.39E2],"tree_param":{"num_deleted":"0","num_feature":"2","num_nodes":"53","size_leaf_vector":"1"}},{"base_weights":[-2.4281067E-7,-6.897185E-5,7.084154E-3,-2.9940207E-3,6.569808E-5,1.0956788E-2,4.1455626E-3,-2.0520207E-3,-3.2919052E-3,3.71312E-3,-1.8922665E-6,5.22356E-3,8.4944564E-4,-7.4498453E-3,8.5228E-3,-3.0511867E-3,1.9349516E-3,-6.679222E-3,8.820019E-5,-3.905386E-4,7.727892E-4,-6.6049397E-4,-2.6919367E-3,4.221618E-3,5.2525797E-3,-1.8193326E-3,-3.472876E-3,1.5464484E-3,-4.8379223E-3,7.244742E-3,-3.8944378E-5,-2.7540298E-3,2.9925408E-3,-1.1886507E-3,5.4511946E-4,-1.3635927E-3,2.5641802E-3,-2.2899212E-4,2.8934854E-3,-2.8719136E-3,2.5714864E-5],"categories":[],"categories_nodes":[],"categories_segments":[],"categories_sizes":[],"default_left":[0,0,0,0,0,0,0,0,0,0,0,0,0,0,0,0,0,0,0,0,0,0,0,0,0,0,0,0,0,0,0,0,0,0,0,0,0,0,0,0,0],"id":20,"left_children":[1,3,5,7,9,11,13,15,-1,-1,17,-1,19,21,23,25,-1,27,29,-1,-1,-1,-1,-1,31,33,-1,35,-1,37,39,-1,-1,-1,-1,-1,-1,-1,-1,-1,-1],"loss_changes":[6.5878266E-4,5.2804424E-4,1.0251906E-4,4.209397E-4,1.0668135E-3,3.1142804E-4,5.202962E-4,4.7839718E-4,0E0,0E0,7.682015E-4,0E0,1.4495847E-5,4.227739E-6,5.311647E-5,4.935192E-4,0E0,1.3459988E-3,1.1467756E-3,0E0,0E0,0E0,0E0,0E0,5.0052744E-4,3.500565E-4,0E0,4.6532287E-4,0E0,4.3022388E-4,1.473405E-3,0E0,0E0,0E0,0E0,0E0,0E0,0E0,0E0,0E0,0E0],"parents":[2147483647,0,0,1,1,2,2,3,3,4,4,5,5,6,6,7,7,10,10,12,12,13,13,14,14,15,15,17,17,18,18,24,24,25,25,27,27,29,29,30,30],"right_children":[2,4,6,8,10,12,14,16,-1,-1,18,-1,20,22,24,26,-1,28,30,-1,-1,-1,-1,-1,32,34,-1,36,-1,38,40,-1,-1,-1,-1,-1,-1,-1,-1,-1,-1],"split_conditions":[9.725258E-1,1.1178725E-1,2.3299862E-1,1.1002641E-1,1.1429903E-1,9.8508465E-1,2.4185084E-1,1.0733337E-1,-3.2919052E-3,3.71312E-3,1.2310322E-1,5.22356E-3,5.4147333E-2,2.3614167E-1,2.67144E-1,1.0603864E-1,1.9349516E-3,1.2144596E-1,1.2973225E-1,-3.905386E-4,7.727892E-4,-6.6049397E-4,-2.6919367E-3,4.221618E-3,2.7737466E-1,9.5603086E-2,-3.472876E-3,1.1984049E-1,-4.8379223E-3,1.2470868E-1,1.3395308E-1,-2.7540298E-3,2.9925408E-3,-1.1886507E-3,5.4511946E-4,-1.3635927E-3,2.5641802E-3,-2.2899212E-4,2.8934854E-3,-2.8719136E-3,2.5714864E-5],"split_indices":[1,1,0,1,1,1,0,1,0,0,1,0,0,0,0,1,0,1,1,0,0,0,0,0,0,1,0,1,0,1,1,0,0,0,0,0,0,0,0,0,0],"split_type":[0,0,0,0,0,0,0,0,0,0,0,0,0,0,0,0,0,0,0,0,0,0,0,0,0,0,0,0,0,0,0,0,0,0,0,0,0,0,0,0,0],"sum_hessian":[1.351E3,1.339E3,1.2E1,5.8E1,1.281E3,4E0,8E0,5.3E1,5E0,6E0,1.275E3,2E0,2E0,2E0,6E0,4.8E1,5E0,1.6E1,1.259E3,1E0,1E0,1E0,1E0,1E0,5E0,4.3E1,5E0,9E0,7E0,2.1E1,1.238E3,1E0,4E0,2.7E1,1.6E1,5E0,4E0,5E0,1.6E1,1.5E1,1.223E3],"tree_param":{"num_deleted":"0","num_feature":"2","num_nodes":"41","size_leaf_vector":"1"}},{"base_weights":[6.673064E-7,-5.409455E-4,7.514733E-4,5.2299484E-4,-9.321477E-3,5.3711617E-3,2.2090663E-4,2.0012794E-4,1.1382661E-2,-1.4983145E-2,-3.1682665E-3,-6.963391E-3,7.4121327E-4,5.7025923E-4,-2.2934448E-2,-6.2194946E-3,-1.7715892E-2,2.1991413E-2,-1.1717898E-2,1.703822E-2,2.1107902E-4,-3.7755974E-4,1.9365748E-2,-8.992128E-3,-3.6218192E-3,-5.0195446E-3,2.1244385E-3,-6.8823323E-3,-1.1448566E-2,4.21624E-3,7.879038E-3,-2.0143146E-2,-2.0337035E-3,4.7471933E-4,2.334628E-2,-1.1455529E-2,6.5455877E-4,1.2019852E-4,-1.2633195E-2,1.4225337E-2,1.5322703E-3,3.8111252E-3,-6.7712036E-3,-8.958074E-3,-4.0818E-3,2.8134747E-3,-6.785E-3,9.890886E-3,2.4684013E-3,6.782353E-3,4.040662E-5],"categories":[],"categories_nodes":[],"categories_segments":[],"categories_sizes":[],"default_left":[0,0,0,0,0,0,0,0,0,0,0,0,0,0,0,0,0,0,0,0,0,0,0,0,0,0,0,0,0,0,0,0,0,0,0,0,0,0,0,0,0,0,0,0,0,0,0,0,0,0,0],"id":21,"left_children":[1,3,5,7,9,-1,11,13,-1,15,17,-1,19,21,23,25,27,29,31,33,35,37,39,-1,-1,-1,-1,-1,41,-1,-1,43,45,-1,47,-1,49,-1,-1,-1,-1,-1,-1,-1,-1,-1,-1,-1,-1,-1,-1],"loss_changes":[5.5019214E-4,7.3476573E-3,5.1560234E-3,8.473566E-3,2.9137111E-3,0E0,6.7349602E-3,5.9813717E-3,0E0,9.435648E-4,9.292145E-3,0E0,4.661789E-3,1.2246025E-2,4.791841E-4,1.7963727E-3,8.180458E-4,3.882684E-6,2.5699702E-3,1.6204929E-3,8.947629E-3,2.128969E-2,1.2956855E-2,0E0,0E0,0E0,0E0,0E0,4.853353E-3,0E0,0E0,6.735972E-4,3.9703734E-3,0E0,1.4745858E-3,0E0,5.9202267E-3,0E0,0E0,0E0,0E0,0E0,0E0,0E0,0E0,0E0,0E0,0E0,0E0,0E0,0E0],"parents":[2147483647,0,0,1,1,2,2,3,3,4,4,6,6,7,7,9,9,10,10,12,12,13,13,14,14,15,15,16,16,17,17,18,18,19,19,20,20,21,21,22,22,28,28,31,31,32,32,34,34,36,36],"right_children":[2,4,6,8,10,-1,12,14,-1,16,18,-1,20,22,24,26,28,30,32,34,36,38,40,-1,-1,-1,-1,-1,42,-1,-1,44,46,-1,48,-1,50,-1,-1,-1,-1,-1,-1,-1,-1,-1,-1,-1,-1,-1,-1],"split_conditions":[4.8767415E-1,4.481071E-1,4.917137E-1,4.4745973E-1,4.718266E-1,5.3711617E-3,4.9632296E-1,4.4344607E-1,1.1382661E-2,4.509555E-1,4.7558135E-1,-6.963391E-3,4.9927494E-1,4.320783E-1,4.4632035E-1,4.4890985E-1,4.5851675E-1,4.7387227E-1,4.8376405E-1,4.976177E-1,5.011135E-1,4.2739138E-1,4.3427935E-1,-8.992128E-3,-3.6218192E-3,-5.0195446E-3,2.1244385E-3,-6.8823323E-3,4.6012223E-1,4.21624E-3,7.879038E-3,4.777565E-1,4.869232E-1,4.7471933E-4,4.9873117E-1,-1.1455529E-2,5.0458336E-1,1.2019852E-4,-1.2633195E-2,1.4225337E-2,1.5322703E-3,3.8111252E-3,-6.7712036E-3,-8.958074E-3,-4.0818E-3,2.8134747E-3,-6.785E-3,9.890886E-3,2.4684013E-3,6.782353E-3,4.040662E-5],"split_indices":[1,1,1,1,1,0,1,1,0,1,1,0,1,1,1,1,1,1,1,1,1,1,1,0,0,0,0,0,1,0,0,1,1,0,1,0,1,0,0,0,0,0,0,0,0,0,0,0,0,0,0],"split_type":[0,0,0,0,0,0,0,0,0,0,0,0,0,0,0,0,0,0,0,0,0,0,0,0,0,0,0,0,0,0,0,0,0,0,0,0,0,0,0,0,0,0,0,0,0,0,0,0,0,0,0],"sum_hessian":[1.351E3,7.85E2,5.66E2,7.01E2,8.4E1,1.6E1,5.5E2,6.96E2,5E0,4.3E1,4.1E1,1.1E1,5.39E2,6.86E2,1E1,1.1E1,3.2E1,1E1,3.1E1,1.6E1,5.23E2,6.54E2,3.2E1,5E0,5E0,6E0,5E0,1.6E1,1.6E1,5E0,5E0,1.6E1,1.5E1,5E0,1.1E1,5E0,5.18E2,6.43E2,1.1E1,1E1,2.2E1,5E0,1.1E1,5E0,1.1E1,1E1,5E0,6E0,5E0,1.1E1,5.07E2],"tree_param":{"num_deleted":"0","num_feature":"2","num_nodes":"51","size_leaf_vector":"1"}},{"base_weights":[-6.212225E-6,-3.2372636E-4,1.199688E-3,-1.4755687E-4,-8.717101E-3,7.021748E-3,7.143576E-4,-2.8459541E-4,8.1962915E-3,-8.926357E-3,-7.793579E-4,-3.087932E-3,1.223587E-3,-8.384865E-5,-1.8946422E-2,1.0290616E-2,7.9247804E-4,7.6203574E-3,-4.1602724E-3,4.381016E-3,-7.021543E-3,3.613389E-3,7.113452E-4,-2.3416808E-4,4.437385E-3,-6.902127E-3,-3.5184056E-3,3.6512415E-3,1.9145884E-3,3.3382303E-3,3.5591394E-4,-2.1248206E-3,5.107567E-3,-4.877577E-3,-3.5777572E-3,1.261514E-3,5.8010193E-3,-4.1524037E-3,1.2953624E-3,-3.896746E-5,-5.20459E-3,3.345552E-3,1.7197695E-4,-3.533798E-3,-3.0607136E-4,1.4186279E-5,7.4143254E-4,3.1929628E-3,1.1252324E-3,1.7680974E-4,-2.6843254E-3,2.9128543E-4,1.6314049E-3],"categories":[],"categories_nodes":[],"categories_segments":[],"categories_sizes":[],"default_left":[0,0,0,0,0,0,0,0,0,0,0,0,0,0,0,0,0,0,0,0,0,0,0,0,0,0,0,0,0,0,0,0,0,0,0,0,0,0,0,0,0,0,0,0,0,0,0,0,0,0,0,0,0],"id":22,"left_children":[1,3,5,7,9,-1,11,13,15,-1,17,19,21,23,25,27,-1,29,-1,31,33,35,37,39,41,-1,-1,-1,-1,-1,-1,-1,-1,43,-1,45,47,49,51,-1,-1,-1,-1,-1,-1,-1,-1,-1,-1,-1,-1,-1,-1],"loss_changes":[5.180561E-4,1.5823548E-3,3.0224822E-3,1.2029331E-3,3.6505826E-3,0E0,5.401161E-4,3.872087E-3,1.7058314E-4,0E0,1.97461E-3,1.0002994E-3,2.9734793E-4,6.9697946E-4,5.2599236E-5,1.0514515E-5,0E0,2.3500761E-4,0E0,1.8599855E-3,1.731537E-4,2.1391839E-4,5.8200303E-4,1.7681068E-3,8.4980903E-4,0E0,0E0,0E0,0E0,0E0,0E0,0E0,0E0,4.405628E-4,0E0,3.2203905E-5,1.7848855E-4,5.055191E-4,2.3931381E-4,0E0,0E0,0E0,0E0,0E0,0E0,0E0,0E0,0E0,0E0,0E0,0E0,0E0,0E0],"parents":[2147483647,0,0,1,1,2,2,3,3,4,4,6,6,7,7,8,8,10,10,11,11,12,12,13,13,14,14,15,15,17,17,19,19,20,20,21,21,22,22,23,23,24,24,33,33,35,35,36,36,37,37,38,38],"right_children":[2,4,6,8,10,-1,12,14,16,-1,18,20,22,24,26,28,-1,30,-1,32,34,36,38,40,42,-1,-1,-1,-1,-1,-1,-1,-1,44,-1,46,48,50,52,-1,-1,-1,-1,-1,-1,-1,-1,-1,-1,-1,-1,-1,-1],"split_conditions":[5.931431E-1,5.8661765E-1,5.955513E-1,5.7985914E-1,5.8804184E-1,7.021748E-3,6.0974157E-1,5.775804E-1,5.857372E-1,-8.926357E-3,5.9101975E-1,6.006525E-1,6.3864E-1,5.644777E-1,5.790823E-1,5.8159405E-1,7.9247804E-4,5.9003574E-1,-4.1602724E-3,5.974416E-1,6.065824E-1,6.281268E-1,6.5837175E-1,5.6284636E-1,5.6963074E-1,-6.902127E-3,-3.5184056E-3,3.6512415E-3,1.9145884E-3,3.3382303E-3,3.5591394E-4,-2.1248206E-3,5.107567E-3,6.023357E-1,-3.5777572E-3,6.1919314E-1,6.333834E-1,6.512248E-1,9.725258E-1,-3.896746E-5,-5.20459E-3,3.345552E-3,1.7197695E-4,-3.533798E-3,-3.0607136E-4,1.4186279E-5,7.4143254E-4,3.1929628E-3,1.1252324E-3,1.7680974E-4,-2.6843254E-3,2.9128543E-4,1.6314049E-3],"split_indices":[1,1,1,1,1,0,1,1,1,0,1,1,1,1,1,1,0,1,0,1,1,1,1,1,1,0,0,0,0,0,0,0,0,1,0,1,1,1,1,0,0,0,0,0,0,0,0,0,0,0,0,0,0],"split_type":[0,0,0,0,0,0,0,0,0,0,0,0,0,0,0,0,0,0,0,0,0,0,0,0,0,0,0,0,0,0,0,0,0,0,0,0,0,0,0,0,0,0,0,0,0,0,0,0,0,0,0,0,0],"sum_hessian":[1.351E3,1.07E3,2.81E2,1.049E3,2.1E1,5E0,2.76E2,1.033E3,1.6E1,5E0,1.6E1,3.2E1,2.44E2,1.023E3,1E1,1.1E1,5E0,1E1,6E0,1.1E1,2.1E1,4.2E1,2.02E2,9.91E2,3.2E1,5E0,5E0,6E0,5E0,6E0,4E0,6E0,5E0,1.6E1,5E0,2.1E1,2.1E1,2.1E1,1.81E2,9.86E2,5E0,1.1E1,2.1E1,5E0,1.1E1,1.1E1,1E1,5E0,1.6E1,1.1E1,1E1,1.69E2,1.2E1],"tree_param":{"num_deleted":"0","num_feature":"2","num_nodes":"53","size_leaf_vector":"1"}},{"base_weights":[-1.0340325E-5,-8.18955E-4,3.91295E-4,-3.515585E-4,-5.8193626E-3,1.15860505E-2,9.286137E-5,-8.0858445E-4,4.7934996E-3,-6.2162117E-3,2.3260218E-4,-4.3577916E-4,-5.408432E-3,5.447063E-3,1.1123028E-4,-8.289321E-4,6.3033705E-3,-7.709652E-3,-2.6253583E-3,-8.871251E-3,3.1279447E-4,1.0735052E-4,-7.62615E-4,5.5019283E-3,5.05334E-4,-1.2264303E-3,-3.6897848E-3,4.1153948E-4,-2.8547756E-3,1.4290344E-3,-8.0437654E-5],"categories":[],"categories_nodes":[],"categories_segments":[],"categories_sizes":[],"default_left":[0,0,0,0,0,0,0,0,0,0,0,0,0,0,0,0,0,0,0,0,0,0,0,0,0,0,0,0,0,0,0],"id":23,"left_children":[1,3,5,7,-1,-1,9,11,-1,-1,13,15,17,-1,19,21,23,25,27,-1,29,-1,-1,-1,-1,-1,-1,-1,-1,-1,-1],"loss_changes":[4.394071E-4,3.8921721E-3,1.0309951E-2,3.289257E-3,0E0,0E0,2.6166567E-3,7.315979E-4,0E0,0E0,1.9407049E-3,1.0570831E-3,1.8470222E-4,0E0,5.3220126E-3,7.653447E-4,1.1922013E-3,2.3228629E-4,4.537363E-4,0E0,2.2842502E-3,0E0,0E0,0E0,0E0,0E0,0E0,0E0,0E0,0E0,0E0],"parents":[2147483647,0,0,1,1,2,2,3,3,6,6,7,7,10,10,11,11,12,12,14,14,15,15,16,16,17,17,18,18,20,20],"right_children":[2,4,6,8,-1,-1,10,12,-1,-1,14,16,18,-1,20,22,24,26,28,-1,30,-1,-1,-1,-1,-1,-1,-1,-1,-1,-1],"split_conditions":[2.6156196E-1,2.5677145E-1,2.677508E-1,2.521881E-1,-5.8193626E-3,1.15860505E-2,2.730851E-1,2.2810607E-1,4.7934996E-3,-6.2162117E-3,2.7632192E-1,2.089958E-1,2.3577088E-1,5.447063E-3,2.8144908E-1,1.6336942E-1,2.1712673E-1,2.3095448E-1,2.4522243E-1,-8.871251E-3,3.8298202E-1,1.0735052E-4,-7.62615E-4,5.5019283E-3,5.05334E-4,-1.2264303E-3,-3.6897848E-3,4.1153948E-4,-2.8547756E-3,1.4290344E-3,-8.0437654E-5],"split_indices":[1,1,1,1,0,0,1,1,0,0,1,1,1,0,1,1,1,1,1,0,1,0,0,0,0,0,0,0,0,0,0],"split_type":[0,0,0,0,0,0,0,0,0,0,0,0,0,0,0,0,0,0,0,0,0,0,0,0,0,0,0,0,0,0,0],"sum_hessian":[1.351E3,4.48E2,9.03E2,4.38E2,1E1,6E0,8.97E2,4.27E2,1.1E1,5E0,8.92E2,3.96E2,3.1E1,5E0,8.87E2,3.75E2,2.1E1,1.6E1,1.5E1,5E0,8.82E2,2.22E2,1.53E2,5E0,1.6E1,1E1,6E0,1E1,5E0,1.01E2,7.81E2],"tree_param":{"num_deleted":"0","num_feature":"2","num_nodes":"31","size_leaf_vector":"1"}},{"base_weights":[-7.0422534E-6,-1.4336609E-3,1.9110515E-4,-1.0184451E-3,-3.6801414E-3,4.9579665E-3,-5.795318E-5,-1.2360053E-3,1.1740112E-3,1.447084E-3,1.3546788E-2,-1.2056316E-2,1.8011889E-4,-8.442311E-4,-6.2523214E-3,6.6995504E-3,-1.26800835E-2,5.0552315E-3,1.4043079E-3,-2.091141E-3,-6.05591E-3,4.619403E-3,-2.0696303E-5,-1.341038E-3,3.2417502E-3,-1.1272945E-3,-2.3114823E-3,8.858266E-5,5.7937307E-3,-5.112799E-3,-1.6431183E-3,-3.4342438E-3,2.2841163E-3,-7.6906924E-4,8.838921E-3,-5.058442E-3,2.2276546E-4,-1.8845707E-4,-1.2433606E-3,8.5815415E-4,-2.6848703E-4,1.1878025E-3,-1.5118071E-3,8.935706E-3,8.173192E-4,-9.0057496E-4,-3.344771E-3,3.772367E-3,2.6164562E-5],"categories":[],"categories_nodes":[],"categories_segments":[],"categories_sizes":[],"default_left":[0,0,0,0,0,0,0,0,0,0,0,0,0,0,0,0,0,0,0,0,0,0,0,0,0,0,0,0,0,0,0,0,0,0,0,0,0,0,0,0,0,0,0,0,0,0,0,0,0],"id":24,"left_children":[1,3,5,7,-1,9,11,13,-1,15,17,19,21,23,25,27,29,-1,-1,31,-1,33,35,37,-1,-1,-1,39,-1,-1,-1,-1,-1,41,43,45,47,-1,-1,-1,-1,-1,-1,-1,-1,-1,-1,-1,-1],"loss_changes":[3.8245838E-4,7.297145E-4,1.4107124E-3,1.7651162E-4,0E0,1.759503E-3,3.2299883E-3,2.973721E-4,0E0,3.275657E-3,4.190905E-4,1.74017E-3,9.887422E-4,8.479389E-4,1.0909454E-5,2.6665577E-3,2.837415E-4,0E0,0E0,1.0859796E-3,0E0,1.0981617E-3,1.3036681E-3,2.751833E-4,0E0,0E0,0E0,6.253872E-5,0E0,0E0,0E0,0E0,0E0,4.6416934E-4,3.3769985E-3,5.802987E-4,1.6966319E-3,0E0,0E0,0E0,0E0,0E0,0E0,0E0,0E0,0E0,0E0,0E0,0E0],"parents":[2147483647,0,0,1,1,2,2,3,3,5,5,6,6,7,7,9,9,10,10,11,11,12,12,13,13,14,14,15,15,16,16,19,19,21,21,22,22,23,23,27,27,33,33,34,34,35,35,36,36],"right_children":[2,4,6,8,-1,10,12,14,-1,16,18,20,22,24,26,28,30,-1,-1,32,-1,34,36,38,-1,-1,-1,40,-1,-1,-1,-1,-1,42,44,46,48,-1,-1,-1,-1,-1,-1,-1,-1,-1,-1,-1,-1],"split_conditions":[1.4658967E-1,1.4568336E-1,1.6336942E-1,1.4464757E-1,-3.6801414E-3,1.5912269E-1,1.6854835E-1,1.4283495E-1,1.1740112E-3,1.5513492E-1,1.6267025E-1,1.6567403E-1,1.7906158E-1,1.4128126E-1,1.4348231E-1,1.5182039E-1,1.5733595E-1,5.0552315E-3,1.4043079E-3,1.6461235E-1,-6.05591E-3,1.7372727E-1,1.9529752E-1,1.3229582E-1,3.2417502E-3,-1.1272945E-3,-2.3114823E-3,1.479103E-1,5.7937307E-3,-5.112799E-3,-1.6431183E-3,-3.4342438E-3,2.2841163E-3,1.7051634E-1,1.7450412E-1,1.9146512E-1,1.9827542E-1,-1.8845707E-4,-1.2433606E-3,8.5815415E-4,-2.6848703E-4,1.1878025E-3,-1.5118071E-3,8.935706E-3,8.173192E-4,-9.0057496E-4,-3.344771E-3,3.772367E-3,2.6164562E-5],"split_indices":[1,1,1,1,0,1,1,1,0,1,1,1,1,1,1,1,1,0,0,1,0,1,1,1,0,0,0,1,0,0,0,0,0,1,1,1,1,0,0,0,0,0,0,0,0,0,0,0,0],"split_type":[0,0,0,0,0,0,0,0,0,0,0,0,0,0,0,0,0,0,0,0,0,0,0,0,0,0,0,0,0,0,0,0,0,0,0,0,0,0,0,0,0,0,0,0,0,0,0,0,0],"sum_hessian":[1.351E3,1.64E2,1.187E3,1.59E2,5E0,5.8E1,1.129E3,1.53E2,6E0,4.2E1,1.6E1,2.1E1,1.108E3,1.43E2,1E1,3.1E1,1.1E1,1.1E1,5E0,1E1,1.1E1,4.7E1,1.061E3,1.38E2,5E0,5E0,5E0,2.1E1,1E1,6E0,5E0,5E0,5E0,2.1E1,2.6E1,4.8E1,1.013E3,1.11E2,2.7E1,5E0,1.6E1,1E1,1.1E1,5E0,2.1E1,3.7E1,1.1E1,1E1,1.003E3],"tree_param":{"num_deleted":"0","num_feature":"2","num_nodes":"49","size_leaf_vector":"1"}},{"base_weights":[-2.173211E-6,-7.257695E-5,3.8965244E-3,-9.467242E-7,-1.9040072E-2,3.941E-3,2.4593906E-3,-6.5036686E-5,4.2297007E-3,-8.088836E-3,-1.03186965E-2,-4.2996616E-3,3.9414763E-3,4.229675E-4,-5.763945E-4,1.3867737E-3,-5.0519947E-3,1.4927089E-3,7.734135E-3,-5.797103E-5,1.6241232E-2,-9.179145E-3,-2.940493E-4,3.1536699E-3,-9.733897E-6,4.5661035E-4,2.5212434E-3,8.722734E-5,-9.953678E-3,7.578267E-3,-1.7272134E-4,7.591645E-4,-1.3740886E-3],"categories":[],"categories_nodes":[],"categories_segments":[],"categories_sizes":[],"default_left":[0,0,0,0,0,0,0,0,0,0,0,0,0,0,0,0,0,0,0,0,0,0,0,0,0,0,0,0,0,0,0,0,0],"id":25,"left_children":[1,3,5,7,9,-1,11,13,-1,-1,15,-1,17,19,21,-1,-1,23,25,27,-1,-1,29,-1,31,-1,-1,-1,-1,-1,-1,-1,-1],"loss_changes":[3.7138368E-4,1.8056225E-3,2.8639546E-4,1.1982733E-3,6.726396E-5,0E0,6.0399494E-4,3.2964288E-4,0E0,0E0,4.6758933E-4,0E0,1.8348932E-4,1.746649E-2,5.4581626E-3,0E0,0E0,1.898208E-4,2.0505919E-5,7.7598514E-3,0E0,0E0,4.621604E-3,0E0,1.6252736E-4,0E0,0E0,0E0,0E0,0E0,0E0,0E0,0E0],"parents":[2147483647,0,0,1,1,2,2,3,3,4,4,6,6,7,7,10,10,12,12,13,13,14,14,17,17,18,18,19,19,22,22,24,24],"right_children":[2,4,6,8,10,-1,12,14,-1,-1,16,-1,18,20,22,-1,-1,24,26,28,-1,-1,30,-1,32,-1,-1,-1,-1,-1,-1,-1,-1],"split_conditions":[2.94654E-1,2.84135E-1,3.0281633E-1,2.7737466E-1,8.5610336E-1,3.941E-3,3.093415E-1,4.3935472E-1,4.2297007E-3,-8.088836E-3,9.1884613E-1,-4.2996616E-3,9.4259155E-1,4.380341E-1,4.4147807E-1,1.3867737E-3,-5.0519947E-3,3.116994E-1,3.17616E-1,4.3427935E-1,1.6241232E-2,-9.179145E-3,4.4344607E-1,3.1536699E-3,9.00927E-1,4.5661035E-4,2.5212434E-3,8.722734E-5,-9.953678E-3,7.578267E-3,-1.7272134E-4,7.591645E-4,-1.3740886E-3],"split_indices":[0,0,0,0,1,0,0,1,0,0,1,0,1,1,1,0,0,0,0,1,0,0,1,0,1,0,0,0,0,0,0,0,0],"split_type":[0,0,0,0,0,0,0,0,0,0,0,0,0,0,0,0,0,0,0,0,0,0,0,0,0,0,0,0,0,0,0,0,0],"sum_hessian":[1.351E3,1.328E3,2.3E1,1.324E3,4E0,2E0,2.1E1,1.319E3,5E0,1E0,3E0,1E0,2E1,6.75E2,6.44E2,1E0,2E0,1.3E1,7E0,6.7E2,5E0,5E0,6.39E2,1E0,1.2E1,1E0,6E0,6.64E2,6E0,6E0,6.33E2,8E0,4E0],"tree_param":{"num_deleted":"0","num_feature":"2","num_nodes":"33","size_leaf_vector":"1"}},{"base_weights":[1.3328935E-7,-6.102951E-4,5.3839677E-4,-1.02757636E-4,-1.6114626E-2,4.6295773E-2,-1.7227956E-4,-5.429974E-4,1.17279785E-2,6.679986E-3,1.878269E-2,-1.48989735E-2,3.2076315E-4,1.8963363E-4,-2.0565765E-2,2.254679E-2,-1.9658744E-4,-1.7583033E-4,1.0956508E-2,-3.7347727E-2,-3.8855456E-4,-9.326916E-4,3.4491137E-2,-7.394161E-3,5.4660195E-5,5.2979398E-5,-2.8185155E-3,-7.108159E-3,-1.3114696E-2,-1.860422E-3,1.646717E-3,1.46949245E-2,4.2752014E-3,1.2180925E-2,-9.143585E-5],"categories":[],"categories_nodes":[],"categories_segments":[],"categories_sizes":[],"default_left":[0,0,0,0,0,0,0,0,0,0,0,0,0,0,0,0,0,0,0,0,0,0,0,0,0,0,0,0,0,0,0,0,0,0,0],"id":26,"left_children":[1,3,5,7,-1,9,11,13,-1,-1,-1,-1,15,17,19,21,23,25,-1,27,29,-1,31,-1,33,-1,-1,-1,-1,-1,-1,-1,-1,-1,-1],"loss_changes":[4.4455696E-4,1.708258E-2,2.3388911E-2,1.08750295E-2,0E0,2.9178225E-3,1.731635E-2,9.142874E-3,0E0,0E0,0E0,0E0,8.087982E-3,7.999813E-3,7.434979E-3,5.010292E-3,4.227841E-3,1.9413807E-3,0E0,7.56979E-6,4.0986238E-4,0E0,2.5285194E-3,0E0,9.9525135E-3,0E0,0E0,0E0,0E0,0E0,0E0,0E0,0E0,0E0,0E0],"parents":[2147483647,0,0,1,1,2,2,3,3,5,5,6,6,7,7,12,12,13,13,14,14,15,15,16,16,17,17,19,19,20,20,22,22,24,24],"right_children":[2,4,6,8,-1,10,12,14,-1,-1,-1,-1,16,18,20,22,24,26,-1,28,30,-1,32,-1,34,-1,-1,-1,-1,-1,-1,-1,-1,-1,-1],"split_conditions":[4.224455E-1,4.1739604E-1,4.2739138E-1,4.141592E-1,-1.6114626E-2,4.2451707E-1,4.2992905E-1,4.0434512E-1,1.17279785E-2,6.679986E-3,1.878269E-2,-1.48989735E-2,4.3427935E-1,4.0261018E-1,4.094205E-1,4.320783E-1,4.380341E-1,3.870734E-1,1.0956508E-2,4.0677923E-1,4.116474E-1,-9.326916E-4,4.335284E-1,-7.394161E-3,4.3935472E-1,5.2979398E-5,-2.8185155E-3,-7.108159E-3,-1.3114696E-2,-1.860422E-3,1.646717E-3,1.46949245E-2,4.2752014E-3,1.2180925E-2,-9.143585E-5],"split_indices":[1,1,1,1,0,1,1,1,0,0,0,0,1,1,1,1,1,1,0,1,1,0,1,0,1,0,0,0,0,0,0,0,0,0,0],"split_type":[0,0,0,0,0,0,0,0,0,0,0,0,0,0,0,0,0,0,0,0,0,0,0,0,0,0,0,0,0,0,0,0,0,0,0],"sum_hessian":[1.351E3,6.33E2,7.18E2,6.28E2,5E0,1E1,7.08E2,6.22E2,6E0,5E0,5E0,6E0,7.02E2,6.01E2,2.1E1,1.5E1,6.87E2,5.96E2,5E0,1.1E1,1E1,5E0,1E1,6E0,6.81E2,5.75E2,2.1E1,5E0,6E0,5E0,5E0,5E0,5E0,5E0,6.76E2],"tree_param":{"num_deleted":"0","num_feature":"2","num_nodes":"35","size_leaf_vector":"1"}},{"base_weights":[1.241825E-5,-5.0810847E-4,7.3397305E-4,2.0354339E-4,-6.3795378E-3,3.9555053E-3,3.48489E-4,-4.2524316E-5,8.626346E-3,-1.0428423E-2,-1.985955E-3,-1.650059E-2,7.222676E-4,2.2706823E-4,-1.6875938E-2,-4.267301E-3,-1.2352818E-2,5.045539E-3,-8.387912E-3,-3.3392184E-3,-6.0045994E-3,1.3018081E-2,3.2197929E-4,-4.534394E-4,8.212526E-3,-6.654749E-3,-2.6270174E-3,-3.636904E-3,1.6826743E-3,-5.4896083E-3,-8.972059E-3,-1.4530887E-2,-1.3367576E-3,4.4538642E-4,1.769997E-2,-8.502298E-3,6.527228E-4,-2.1825668E-5,-1.2085971E-2,1.04165515E-2,4.195654E-4,-3.4809497E-4,-4.8108394E-3,-2.3153734E-3,-7.7205077E-3,2.1436338E-3,-4.9994015E-3,7.4394243E-3,1.9406542E-3,4.309554E-3,5.639466E-5],"categories":[],"categories_nodes":[],"categories_segments":[],"categories_sizes":[],"default_left":[0,0,0,0,0,0,0,0,0,0,0,0,0,0,0,0,0,0,0,0,0,0,0,0,0,0,0,0,0,0,0,0,0,0,0,0,0,0,0,0,0,0,0,0,0,0,0,0,0,0,0],"id":27,"left_children":[1,3,5,7,9,-1,11,13,-1,15,17,19,21,23,25,27,29,-1,31,-1,-1,33,35,37,39,-1,-1,-1,-1,-1,41,43,45,-1,47,-1,49,-1,-1,-1,-1,-1,-1,-1,-1,-1,-1,-1,-1,-1,-1],"loss_changes":[5.081687E-4,3.2855314E-3,2.7168232E-3,4.933099E-3,1.4913641E-3,0E0,3.4820195E-3,3.1669317E-3,0E0,4.689698E-4,5.197245E-3,3.6989804E-6,2.6536186E-3,3.7369954E-3,2.7968944E-4,9.990133E-4,4.9917493E-4,0E0,1.3666579E-3,0E0,0E0,8.9169457E-4,4.9860664E-3,9.61102E-3,9.705664E-3,0E0,0E0,0E0,0E0,0E0,1.2505954E-3,1.0990491E-3,2.199308E-3,0E0,7.962219E-4,0E0,3.3047493E-3,0E0,0E0,0E0,0E0,0E0,0E0,0E0,0E0,0E0,0E0,0E0,0E0,0E0,0E0],"parents":[2147483647,0,0,1,1,2,2,3,3,4,4,6,6,7,7,9,9,10,10,11,11,12,12,13,13,14,14,15,15,16,16,18,18,21,21,22,22,23,23,24,24,30,30,31,31,32,32,34,34,36,36],"right_children":[2,4,6,8,10,-1,12,14,-1,16,18,20,22,24,26,28,30,-1,32,-1,-1,34,36,38,40,-1,-1,-1,-1,-1,42,44,46,-1,48,-1,50,-1,-1,-1,-1,-1,-1,-1,-1,-1,-1,-1,-1,-1,-1],"split_conditions":[4.8767415E-1,4.481071E-1,4.917137E-1,4.4745973E-1,4.718266E-1,3.9555053E-3,4.9632296E-1,4.4344607E-1,8.626346E-3,4.509555E-1,4.7558135E-1,4.94096E-1,4.9927494E-1,4.224455E-1,4.4632035E-1,4.4890985E-1,4.5502096E-1,5.045539E-3,4.8376405E-1,-3.3392184E-3,-6.0045994E-3,4.976177E-1,5.011135E-1,4.1739604E-1,4.2739138E-1,-6.654749E-3,-2.6270174E-3,-3.636904E-3,1.6826743E-3,-5.4896083E-3,4.6012223E-1,4.8003522E-1,4.869232E-1,4.4538642E-4,4.9873117E-1,-8.502298E-3,5.0699157E-1,-2.1825668E-5,-1.2085971E-2,1.04165515E-2,4.195654E-4,-3.4809497E-4,-4.8108394E-3,-2.3153734E-3,-7.7205077E-3,2.1436338E-3,-4.9994015E-3,7.4394243E-3,1.9406542E-3,4.309554E-3,5.639466E-5],"split_indices":[1,1,1,1,1,0,1,1,0,1,1,1,1,1,1,1,1,0,1,0,0,1,1,1,1,0,0,0,0,0,1,1,1,0,1,0,1,0,0,0,0,0,0,0,0,0,0,0,0,0,0],"split_type":[0,0,0,0,0,0,0,0,0,0,0,0,0,0,0,0,0,0,0,0,0,0,0,0,0,0,0,0,0,0,0,0,0,0,0,0,0,0,0,0,0,0,0,0,0,0,0,0,0,0,0],"sum_hessian":[1.351E3,7.85E2,5.66E2,7.01E2,8.4E1,1.6E1,5.5E2,6.96E2,5E0,4.3E1,4.1E1,1.1E1,5.39E2,6.86E2,1E1,1.1E1,3.2E1,1E1,3.1E1,6E0,5E0,1.6E1,5.23E2,6.33E2,5.3E1,5E0,5E0,6E0,5E0,1E1,2.2E1,1.6E1,1.5E1,5E0,1.1E1,5E0,5.18E2,6.28E2,5E0,1E1,4.3E1,1.1E1,1.1E1,1.1E1,5E0,1E1,5E0,6E0,5E0,1.6E1,5.02E2],"tree_param":{"num_deleted":"0","num_feature":"2","num_nodes":"51","size_leaf_vector":"1"}},{"base_weights":[-7.632927E-6,-4.1024754E-4,8.2780974E-4,4.323136E-5,-1.5292675E-2,8.311582E-3,1.2008973E-4,-2.2647747E-4,1.3859299E-2,-9.3459925E-3,-1.0271926E-2,2.364072E-3,1.5519444E-2,-8.447267E-3,6.1318337E-4,-1.0297849E-4,-2.7175092E-3,1.830127E-2,7.9964177E-4,-5.383384E-3,-1.46710705E-2,3.913786E-3,-1.5450664E-3,5.95923E-3,1.2730674E-3,-1.3794181E-3,-8.119489E-3,9.246677E-3,3.3228012E-4,-2.184728E-4,4.911637E-3,3.1792864E-3,6.68698E-3,-7.751454E-4,-1.938057E-3,-6.375802E-3,-1.6932868E-3,2.1457636E-4,-1.7424591E-3,-2.8178126E-3,2.7421787E-3,3.7847415E-3,1.51137E-3,-8.3785085E-3,5.9678534E-4,-2.7023962E-5,-5.511318E-3,2.2842715E-4,1.378809E-3,-7.7024254E-4,-3.8379373E-3,2.4975901E-3,9.903078E-5],"categories":[],"categories_nodes":[],"categories_segments":[],"categories_sizes":[],"default_left":[0,0,0,0,0,0,0,0,0,0,0,0,0,0,0,0,0,0,0,0,0,0,0,0,0,0,0,0,0,0,0,0,0,0,0,0,0,0,0,0,0,0,0,0,0,0,0,0,0,0,0,0,0],"id":28,"left_children":[1,3,5,7,9,11,13,15,17,-1,19,21,23,25,27,29,-1,31,-1,33,35,-1,37,-1,-1,39,-1,41,43,45,-1,-1,-1,-1,-1,-1,-1,-1,-1,-1,47,-1,-1,49,51,-1,-1,-1,-1,-1,-1,-1,-1],"loss_changes":[4.5510023E-4,6.162376E-3,2.3294245E-3,3.3083805E-3,1.8300666E-3,1.5923269E-3,1.7076569E-3,9.4909203E-4,7.965036E-4,0E0,3.9413874E-4,9.388097E-4,7.485333E-4,2.8575817E-3,9.23345E-4,1.6399678E-3,0E0,1.3250671E-4,0E0,1.9483094E-5,5.335612E-4,0E0,1.6796708E-4,0E0,0E0,5.8722484E-4,0E0,1.0660174E-4,8.598025E-4,1.9910624E-3,0E0,0E0,0E0,0E0,0E0,0E0,0E0,0E0,0E0,0E0,4.0564773E-5,0E0,0E0,2.4934218E-4,7.4129493E-4,0E0,0E0,0E0,0E0,0E0,0E0,0E0,0E0],"parents":[2147483647,0,0,1,1,2,2,3,3,4,4,5,5,6,6,7,7,8,8,10,10,11,11,12,12,13,13,14,14,15,15,17,17,19,19,20,20,22,22,25,25,27,27,28,28,29,29,40,40,43,43,44,44],"right_children":[2,4,6,8,10,12,14,16,18,-1,20,22,24,26,28,30,-1,32,-1,34,36,-1,38,-1,-1,40,-1,42,44,46,-1,-1,-1,-1,-1,-1,-1,-1,-1,-1,48,-1,-1,50,52,-1,-1,-1,-1,-1,-1,-1,-1],"split_conditions":[5.387643E-1,5.2599823E-1,5.5259204E-1,5.159511E-1,5.2980477E-1,5.485266E-1,5.5834067E-1,5.11057E-1,5.2283907E-1,-9.3459925E-3,5.3270495E-1,5.411207E-1,5.510384E-1,5.568647E-1,5.621472E-1,5.092703E-1,-2.7175092E-3,5.179191E-1,7.9964177E-4,5.3091824E-1,5.352944E-1,3.913786E-3,5.468952E-1,5.95923E-3,1.2730674E-3,5.54327E-1,-8.119489E-3,5.599979E-1,5.644777E-1,5.0699157E-1,4.911637E-3,3.1792864E-3,6.68698E-3,-7.751454E-4,-1.938057E-3,-6.375802E-3,-1.6932868E-3,2.1457636E-4,-1.7424591E-3,-2.8178126E-3,5.557512E-1,3.7847415E-3,1.51137E-3,5.6284636E-1,5.6963074E-1,-2.7023962E-5,-5.511318E-3,2.2842715E-4,1.378809E-3,-7.7024254E-4,-3.8379373E-3,2.4975901E-3,9.903078E-5],"split_indices":[1,1,1,1,1,1,1,1,1,0,1,1,1,1,1,1,0,1,0,1,1,0,1,0,0,1,0,1,1,1,0,0,0,0,0,0,0,0,0,0,1,0,0,1,1,0,0,0,0,0,0,0,0],"split_type":[0,0,0,0,0,0,0,0,0,0,0,0,0,0,0,0,0,0,0,0,0,0,0,0,0,0,0,0,0,0,0,0,0,0,0,0,0,0,0,0,0,0,0,0,0,0,0,0,0,0,0,0,0],"sum_hessian":[1.351E3,9.12E2,4.39E2,8.86E2,2.6E1,3.7E1,4.02E2,8.7E2,1.6E1,5E0,2.1E1,2.1E1,1.6E1,2.1E1,3.81E2,8.59E2,1.1E1,1.1E1,5E0,1.1E1,1E1,5E0,1.6E1,1.1E1,5E0,1.6E1,5E0,1.1E1,3.7E2,8.54E2,5E0,5E0,6E0,4E0,7E0,5E0,5E0,1.1E1,5E0,5E0,1.1E1,5E0,6E0,1E1,3.6E2,8.49E2,5E0,6E0,5E0,5E0,5E0,1.1E1,3.49E2],"tree_param":{"num_deleted":"0","num_feature":"2","num_nodes":"53","size_leaf_vector":"1"}},{"base_weights":[-1.2167041E-5,-2.2785044E-3,9.117614E-5,-1.5665902E-3,-2.4917945E-3,2.7347996E-3,4.20574E-5,-2.309446E-3,1.4283494E-3,-4.975502E-3,1.0908292E-4,-1.377555E-3,-2.627522E-3,1.1202559E-3,-3.5919787E-3,6.6183843E-3,2.6141064E-5,-3.398296E-3,7.976541E-4,-1.0455609E-3,1.9268267E-3,-1.946114E-4,9.98058E-3,-4.090586E-3,1.1983393E-4,-3.578664E-4,-1.2319516E-3,-1.3310483E-4,5.6072255E-4,4.381457E-3,1.1078619E-3,-1.8122188E-4,-2.6066795E-3,5.485985E-4,-9.902409E-6],"categories":[],"categories_nodes":[],"categories_segments":[],"categories_sizes":[],"default_left":[0,0,0,0,0,0,0,0,0,0,0,0,0,0,0,0,0,0,0,0,0,0,0,0,0,0,0,0,0,0,0,0,0,0,0],"id":29,"left_children":[1,3,5,7,-1,-1,9,11,-1,13,15,17,-1,19,-1,21,23,25,27,-1,-1,-1,29,31,33,-1,-1,-1,-1,-1,-1,-1,-1,-1,-1],"loss_changes":[3.1686033E-4,2.4015966E-4,5.732311E-4,2.6482856E-4,0E0,0E0,4.3370292E-4,2.8241146E-4,0E0,7.3857605E-4,6.865715E-4,1.9611418E-4,0E0,2.66589E-4,0E0,3.9740838E-4,4.8532514E-4,3.1024887E-5,3.0089152E-5,0E0,0E0,0E0,2.659033E-4,4.4365265E-4,3.213125E-4,0E0,0E0,0E0,0E0,0E0,0E0,0E0,0E0,0E0,0E0],"parents":[2147483647,0,0,1,1,2,2,3,3,6,6,7,7,9,9,10,10,11,11,13,13,15,15,16,16,17,17,18,18,22,22,23,23,24,24],"right_children":[2,4,6,8,-1,-1,10,12,-1,14,16,18,-1,20,-1,22,24,26,28,-1,-1,-1,30,32,34,-1,-1,-1,-1,-1,-1,-1,-1,-1,-1],"split_conditions":[1.1178725E-1,1.1002641E-1,1.1429903E-1,1.0733337E-1,-2.4917945E-3,2.7347996E-3,1.2310322E-1,1.0603864E-1,1.4283494E-3,1.2144596E-1,1.2804909E-1,8.7394476E-2,-2.627522E-3,1.1984049E-1,-3.5919787E-3,1.2470868E-1,1.3597286E-1,5.3809106E-2,9.852918E-2,-1.0455609E-3,1.9268267E-3,-1.946114E-4,1.2732404E-1,1.3229582E-1,1.6336942E-1,-3.578664E-4,-1.2319516E-3,-1.3310483E-4,5.6072255E-4,4.381457E-3,1.1078619E-3,-1.8122188E-4,-2.6066795E-3,5.485985E-4,-9.902409E-6],"split_indices":[1,1,1,1,0,0,1,1,0,1,1,1,0,1,0,1,1,1,1,0,0,0,1,1,1,0,0,0,0,0,0,0,0,0,0],"split_type":[0,0,0,0,0,0,0,0,0,0,0,0,0,0,0,0,0,0,0,0,0,0,0,0,0,0,0,0,0,0,0,0,0,0,0],"sum_hessian":[1.351E3,5.8E1,1.293E3,5.3E1,5E0,6E0,1.287E3,4.8E1,5E0,1.6E1,1.271E3,4.3E1,5E0,9E0,7E0,1.5E1,1.256E3,2.2E1,2.1E1,5E0,4E0,5E0,1E1,2.7E1,1.229E3,6E0,1.6E1,1E1,1.1E1,5E0,5E0,1.6E1,1.1E1,1E2,1.129E3],"tree_param":{"num_deleted":"0","num_feature":"2","num_nodes":"35","size_leaf_vector":"1"}},{"base_weights":[-9.838398E-6,-2.549239E-4,9.2099997E-4,-1.266846E-4,-6.363849E-3,5.3095375E-3,5.5426446E-4,-2.3179853E-4,6.274168E-3,-6.6515417E-3,-4.1022635E-4,-2.1282693E-3,9.13323E-4,-8.3106126E-5,-1.4052638E-2,7.825758E-3,6.375879E-4,5.827287E-3,-3.046029E-3,3.4737687E-3,-5.0871866E-3,2.7163045E-3,4.6022955E-4,-1.44219E-4,3.0929246E-3,-5.1333704E-3,-2.5955804E-3,2.7568168E-3,1.479169E-3,2.5242947E-3,3.1199725E-4,-1.5339758E-3,